{"learner":{"attributes":{"scikit_learn":"{\"_estimator_type\": \"classifier\"}"},"feature_names":[],"feature_types":[],"gradient_booster":{"model":{"cats":{"enc":[],"feature_segments":[],"sorted_idx":[]},"gbtree_model_param":{"num_parallel_tree":"1","num_trees":"100"},"iteration_indptr":[0,1,2,3,4,5,6,7,8,9,10,11,12,13,14,15,16,17,18,19,20,21,22,23,24,25,26,27,28,29,30,31,32,33,34,35,36,37,38,39,40,41,42,43,44,45,46,47,48,49,50,51,52,53,54,55,56,57,58,59,60,61,62,63,64,65,66,67,68,69,70,71,72,73,74,75,76,77,78,79,80,81,82,83,84,85,86,87,88,89,90,91,92,93,94,95,96,97,98,99,100],"tree_info":[0,0,0,0,0,0,0,0,0,0,0,0,0,0,0,0,0,0,0,0,0,0,0,0,0,0,0,0,0,0,0,0,0,0,0,0,0,0,0,0,0,0,0,0,0,0,0,0,0,0,0,0,0,0,0,0,0,0,0,0,0,0,0,0,0,0,0,0,0,0,0,0,0,0,0,0,0,0,0,0,0,0,0,0,0,0,0,0,0,0,0,0,0,0,0,0,0,0,0,0],"trees":[{"base_weights":[-6.1973456E-2,8.1337255E-1,-3.7307322E-1,1.3059973E0,-1.1691122E-1,4.7793978E-1,-6.535291E-1,4.9889836E-2,1.4825861E-1,1.11926116E-1,-1.0556735E0,-6.492014E-2,9.334542E-1,-8.193505E-1,6.795736E-1,-3.7019458E-2,-1.2675141E-1,1.2591676E-1,-1.5765348E-2,-1.2793308E0,-2.421697E-1,9.757847E-2,7.846518E-3,-5.811986E-3,-1.5930276E-1,-1.0115979E-1,4.0234018E-2],"categories":[],"categories_nodes":[],"categories_segments":[],"categories_sizes":[],"default_left":[0,0,0,0,0,0,0,0,0,0,0,0,0,0,0,0,0,0,0,0,0,0,0,0,0,0,0],"id":0,"left_children":[1,3,5,7,9,11,13,-1,-1,-1,15,-1,17,19,21,-1,-1,-1,-1,23,25,-1,-1,-1,-1,-1,-1],"loss_changes":[1.2756782E1,5.7920675E0,8.528618E0,4.1869354E-1,7.190643E0,5.2835846E0,6.3738174E0,0E0,0E0,0E0,3.2877207E-2,0E0,2.6501703E0,6.0239716E0,5.390997E-1,0E0,0E0,0E0,0E0,4.903988E0,6.265603E0,0E0,0E0,0E0,0E0,0E0,0E0],"parents":[2147483647,0,0,1,1,2,2,3,3,4,4,5,5,6,6,10,10,12,12,13,13,14,14,19,19,20,20],"right_children":[2,4,6,8,10,12,14,-1,-1,-1,16,-1,18,20,22,-1,-1,-1,-1,24,26,-1,-1,-1,-1,-1,-1],"split_conditions":[4.0074158E-1,4.1483116E-1,1.7503166E-1,9.956077E-2,1.308589E-1,9.341687E-2,2.7295542E-1,4.9889836E-2,1.4825861E-1,1.11926116E-1,1.7391676E-1,-6.492014E-2,7.123127E-1,3.9775085E-1,8.389859E-1,-3.7019458E-2,-1.2675141E-1,1.2591676E-1,-1.5765348E-2,7.453114E-2,5E-1,9.757847E-2,7.846518E-3,-5.811986E-3,-1.5930276E-1,-1.0115979E-1,4.0234018E-2],"split_indices":[15,2,28,55,15,21,43,0,0,0,19,0,0,2,4,0,0,0,0,55,56,0,0,0,0,0,0],"split_type":[0,0,0,0,0,0,0,0,0,0,0,0,0,0,0,0,0,0,0,0,0,0,0,0,0,0,0],"sum_hessian":[4.4730522E1,1.1305516E1,3.3425003E1,7.127391E0,4.1781254E0,8.110479E0,2.5314526E1,1.9661767E0,5.161214E0,1.7204046E0,2.457721E0,2.2119489E0,5.89853E0,2.2856804E1,2.457721E0,1.2288605E0,1.2288605E0,4.4238977E0,1.4746325E0,1.2042832E1,1.0813972E1,1.2288605E0,1.2288605E0,2.703493E0,9.339339E0,4.6696696E0,6.1443024E0],"tree_param":{"num_deleted":"0","num_feature":"59","num_nodes":"27","size_leaf_vector":"1"}},{"base_weights":[-1.1034709E-1,4.0095747E-1,-5.706371E-1,6.329933E-1,-6.0356927E-1,1.0387553E-1,-7.271792E-1,1.1023449E0,-8.600621E-2,-1.4609975E-1,6.708902E-2,-9.211645E-1,8.162179E-2,1.4450184E-1,4.5216388E-1,-7.047001E-1,1.178306E-1,9.717431E-2,-1.0989106E0,-5.58495E-2,1.00704454E-1,6.198402E-2,-1.2773862E-1,-1.5996888E-1,-2.2110758E-2],"categories":[],"categories_nodes":[],"categories_segments":[],"categories_sizes":[],"default_left":[0,0,0,0,0,0,0,0,0,0,0,0,0,0,0,0,0,0,0,0,0,0,0,0,0],"id":1,"left_children":[1,3,5,7,9,-1,11,13,15,-1,-1,17,-1,-1,19,21,-1,-1,23,-1,-1,-1,-1,-1,-1],"loss_changes":[1.0395709E1,5.289197E0,6.586838E0,6.030967E0,5.856477E0,0E0,7.243642E0,1.7339888E0,6.9904957E0,0E0,0E0,7.706724E0,0E0,0E0,3.4526014E0,5.2773705E0,0E0,0E0,7.7817802E0,0E0,0E0,0E0,0E0,0E0,0E0],"parents":[2147483647,0,0,1,1,2,2,3,3,4,4,6,6,7,7,8,8,11,11,14,14,15,15,18,18],"right_children":[2,4,6,8,10,-1,12,14,16,-1,-1,18,-1,-1,20,22,-1,-1,24,-1,-1,-1,-1,-1,-1],"split_conditions":[6.128816E-1,7.281768E-1,4.4997317E-1,6.051218E-1,6.6456705E-1,1.0387553E-1,9.6894276E-1,1.2201074E-1,6.817528E-1,-1.4609975E-1,6.708902E-2,2.6332617E-2,8.162179E-2,1.4450184E-1,9.230983E-2,3.826853E-1,1.178306E-1,9.717431E-2,5.706024E-1,-5.58495E-2,1.00704454E-1,6.198402E-2,-1.2773862E-1,-1.5996888E-1,-2.2110758E-2],"split_indices":[8,1,16,35,51,0,15,52,54,0,0,24,0,0,43,26,0,0,44,0,0,0,0,0,0],"split_type":[0,0,0,0,0,0,0,0,0,0,0,0,0,0,0,0,0,0,0,0,0,0,0,0,0],"sum_hessian":[4.2199394E1,2.0052904E1,2.2146492E1,1.6590517E1,3.4623873E0,1.463614E0,2.0682877E1,9.715334E0,6.8751826E0,1.9823438E0,1.4800435E0,1.87317E1,1.9511768E0,5.5616293E0,4.153705E0,4.9134145E0,1.9617682E0,1.2244871E0,1.7507214E1,1.4699061E0,2.6837988E0,1.4582813E0,3.4551332E0,1.0623965E1,6.883249E0],"tree_param":{"num_deleted":"0","num_feature":"59","num_nodes":"25","size_leaf_vector":"1"}},{"base_weights":[5.139676E-2,-1.0428247E0,2.0550478E-1,-1.3799109E-1,7.1313344E-3,-1.9228044E-1,6.219323E-1,3.0061844E-1,-8.0040646E-1,1.2882286E-1,2.6927218E-1,8.925426E-1,-3.9920217E-1,-1.1376643E0,6.138372E-2,8.649072E-1,-2.7523366E-1,1.2093234E-1,-2.98178E-2,9.992475E-2,-9.501914E-2,1.1729207E-2,-1.3866034E-1,-2.7264724E-3,1.1663722E-1,-1.0390579E-1,4.0154874E-2],"categories":[],"categories_nodes":[],"categories_segments":[],"categories_sizes":[],"default_left":[0,0,0,0,0,0,0,0,0,0,0,0,0,0,0,0,0,0,0,0,0,0,0,0,0,0,0],"id":2,"left_children":[1,3,5,-1,-1,7,9,11,13,-1,15,17,19,21,-1,23,25,-1,-1,-1,-1,-1,-1,-1,-1,-1,-1],"loss_changes":[7.42647E0,2.14318E0,6.4680734E0,0E0,0E0,6.344945E0,4.108242E0,5.316904E0,5.17701E0,0E0,4.6690555E0,2.9243097E0,5.710131E0,2.6407576E0,0E0,1.851614E0,4.4990196E0,0E0,0E0,0E0,0E0,0E0,0E0,0E0,0E0,0E0,0E0],"parents":[2147483647,0,0,1,1,2,2,5,5,6,6,7,7,8,8,10,10,11,11,12,12,13,13,15,15,16,16],"right_children":[2,4,6,-1,-1,8,10,12,14,-1,16,18,20,22,-1,24,26,-1,-1,-1,-1,-1,-1,-1,-1,-1,-1],"split_conditions":[5.5151796E-1,1.76811E-1,1.195008E-1,-1.3799109E-1,7.1313344E-3,7.199413E-1,1.4195077E-1,3.8615084E-1,7.789966E-1,1.2882286E-1,3.7292385E-1,5.145642E-1,6.7628816E-2,4.261152E-1,6.138372E-2,1.6373396E-1,5.405016E-1,1.2093234E-1,-2.98178E-2,9.992475E-2,-9.501914E-2,1.1729207E-2,-1.3866034E-1,-2.7264724E-3,1.1663722E-1,-1.0390579E-1,4.0154874E-2],"split_indices":[54,49,55,0,0,15,55,47,33,0,28,32,49,19,0,4,6,0,0,0,0,0,0,0,0,0,0],"split_type":[0,0,0,0,0,0,0,0,0,0,0,0,0,0,0,0,0,0,0,0,0,0,0,0,0,0,0],"sum_hessian":[4.1769592E1,4.4445896E0,3.7325005E1,3.2290766E0,1.215513E0,1.9365093E1,1.795991E1,1.097516E1,8.389934E0,5.2977495E0,1.2662161E1,5.7967496E0,5.1784105E0,6.9323316E0,1.4576021E0,5.766146E0,6.8960147E0,4.566302E0,1.2304478E0,1.2336832E0,3.9447272E0,1.2350423E0,5.6972895E0,1.6860161E0,4.08013E0,2.9882038E0,3.907811E0],"tree_param":{"num_deleted":"0","num_feature":"59","num_nodes":"27","size_leaf_vector":"1"}},{"base_weights":[1.4413266E-1,-8.267785E-1,2.814998E-1,-1.2573497E-1,2.4760453E-2,-1.4951836E-1,6.5609145E-1,1.9100735E-1,-8.451316E-1,-5.0871056E-2,8.0005187E-1,6.7813087E-1,-4.3021637E-1,-1.236067E0,4.6692457E-2,9.7556865E-1,-4.917836E-2,-8.9029156E-2,1.1686462E-1,4.134981E-2,-8.603089E-2,-1.4971557E-1,-2.213174E-2,1.0965639E-1,-3.3828452E-2],"categories":[],"categories_nodes":[],"categories_segments":[],"categories_sizes":[],"default_left":[0,0,0,0,0,0,0,0,0,0,0,0,0,0,0,0,0,0,0,0,0,0,0,0,0],"id":3,"left_children":[1,3,5,-1,-1,7,9,11,13,-1,15,17,19,21,-1,23,-1,-1,-1,-1,-1,-1,-1,-1,-1],"loss_changes":[6.0827303E0,2.9437854E0,6.4226236E0,0E0,0E0,4.668787E0,3.9524279E0,4.4043894E0,3.8794074E0,0E0,4.834591E0,7.1993923E0,2.7452369E0,1.0554295E0,0E0,3.1122513E0,0E0,0E0,0E0,0E0,0E0,0E0,0E0,0E0,0E0],"parents":[2147483647,0,0,1,1,2,2,5,5,6,6,7,7,8,8,10,10,11,11,12,12,13,13,15,15],"right_children":[2,4,6,-1,-1,8,10,12,14,-1,16,18,20,22,-1,24,-1,-1,-1,-1,-1,-1,-1,-1,-1],"split_conditions":[5.5151796E-1,1.2961027E-1,1.195008E-1,-1.2573497E-1,2.4760453E-2,7.843663E-1,6.7628816E-2,2.074925E-1,7.789966E-1,-5.0871056E-2,7.706298E-1,3.649916E-1,1.8690103E-1,1.2675172E-1,4.6692457E-2,9.113487E-1,-4.917836E-2,-8.9029156E-2,1.1686462E-1,4.134981E-2,-8.603089E-2,-1.4971557E-1,-2.213174E-2,1.0965639E-1,-3.3828452E-2],"split_indices":[54,46,55,0,0,15,52,39,33,0,19,9,36,46,0,11,0,0,0,0,0,0,0,0,0],"split_type":[0,0,0,0,0,0,0,0,0,0,0,0,0,0,0,0,0,0,0,0,0,0,0,0,0],"sum_hessian":[4.286246E1,4.690593E0,3.8171867E1,3.2270257E0,1.463567E0,1.80285E1,2.0143366E1,1.2590464E1,5.438037E0,1.9370185E0,1.8206348E1,7.0055547E0,5.5849085E0,4.234313E0,1.2037243E0,1.6244139E1,1.9622098E0,1.4748168E0,5.530738E0,1.8987349E0,3.6861737E0,2.9896905E0,1.2446225E0,1.5025769E1,1.2183688E0],"tree_param":{"num_deleted":"0","num_feature":"59","num_nodes":"25","size_leaf_vector":"1"}},{"base_weights":[2.8533772E-2,8.043611E-1,-1.8757565E-1,1.0853235E0,-5.057307E-2,-3.0975586E-1,9.399852E-2,1.3583602E-1,-1.607657E-2,-5.206163E-2,-9.3057805E-1,1.951845E-1,-9.692369E-1,4.5229558E-2,-1.1695516E0,-1.1998775E-2,8.72186E-2,-1.4878102E-1,2.6755232E-2,1.3730642E-2,-1.4051062E-1],"categories":[],"categories_nodes":[],"categories_segments":[],"categories_sizes":[],"default_left":[0,0,0,0,0,0,0,0,0,0,0,0,0,0,0,0,0,0,0,0,0],"id":4,"left_children":[1,3,5,7,-1,9,-1,-1,-1,11,13,15,17,-1,19,-1,-1,-1,-1,-1,-1],"loss_changes":[7.760726E0,4.258281E0,5.293446E0,3.1497135E0,0E0,5.312941E0,0E0,0E0,0E0,5.799761E0,3.7579699E0,4.440461E0,3.8749642E0,0E0,2.84342E0,0E0,0E0,0E0,0E0,0E0,0E0],"parents":[2147483647,0,0,1,1,2,2,3,3,5,5,9,9,10,10,11,11,12,12,14,14],"right_children":[2,4,6,8,-1,10,-1,-1,-1,12,14,16,18,-1,20,-1,-1,-1,-1,-1,-1],"split_conditions":[3.8871595E-1,4.496026E-1,9.6894276E-1,6.9485176E-1,-5.057307E-2,6.953721E-1,9.399852E-2,1.3583602E-1,-1.607657E-2,7.329412E-1,1.5878487E-1,5.2356434E-1,1.20125875E-1,4.5229558E-2,2.9777408E-1,-1.1998775E-2,8.72186E-2,-1.4878102E-1,2.6755232E-2,1.3730642E-2,-1.4051062E-1],"split_indices":[15,32,15,10,0,42,0,0,0,31,47,3,36,0,32,0,0,0,0,0,0],"split_type":[0,0,0,0,0,0,0,0,0,0,0,0,0,0,0,0,0,0,0,0,0],"sum_hessian":[4.43876E1,9.077521E0,3.5310078E1,7.615803E0,1.4617183E0,3.2512386E1,2.7976894E0,6.1730886E0,1.4427143E0,2.3741499E1,8.770889E0,1.9320415E1,4.421082E0,1.1608297E0,7.61006E0,1.3744533E1,5.575884E0,2.9719934E0,1.4490887E0,1.2258929E0,6.384167E0],"tree_param":{"num_deleted":"0","num_feature":"59","num_nodes":"21","size_leaf_vector":"1"}},{"base_weights":[6.6602835E-3,4.7945246E-1,-3.413569E-1,7.19471E-1,-7.792891E-1,1.4334266E-1,-9.200892E-1,8.7866575E-1,-2.5916064E-2,1.4054815E-3,-1.1660614E-1,-6.1948144E-1,8.9491314E-1,-1.0842551E0,1.9686406E-2,1.047746E0,-2.7933681E-2,-1.1389554E0,1.7199934E-1,-8.3587274E-2,1.3518432E-1,-1.2646959E0,1.9376136E-2,1.2607397E-1,-1.2954338E-2,-2.0961892E-2,-1.3717376E-1,8.0877E-2,-7.4027374E-2,8.0501966E-2,-8.159567E-2,-1.7258724E-2,-1.4291574E-1],"categories":[],"categories_nodes":[],"categories_segments":[],"categories_sizes":[],"default_left":[0,0,0,0,0,0,0,0,0,0,0,0,0,0,0,0,0,0,0,0,0,0,0,0,0,0,0,0,0,0,0,0,0],"id":5,"left_children":[1,3,5,7,9,11,13,15,-1,-1,-1,17,19,21,-1,23,-1,25,27,29,-1,31,-1,-1,-1,-1,-1,-1,-1,-1,-1,-1,-1],"loss_changes":[7.7312837E0,6.5778503E0,7.727071E0,2.9146576E0,1.1423676E0,9.498347E0,2.5010872E0,3.241664E0,0E0,0E0,0E0,3.6221159E0,3.8093262E0,2.7888203E0,0E0,3.5116892E0,0E0,8.292346E-1,3.021607E0,2.9823987E0,0E0,1.5133266E0,0E0,0E0,0E0,0E0,0E0,0E0,0E0,0E0,0E0,0E0,0E0],"parents":[2147483647,0,0,1,1,2,2,3,3,4,4,5,5,6,6,7,7,11,11,12,12,13,13,15,15,17,17,18,18,19,19,21,21],"right_children":[2,4,6,8,10,12,14,16,-1,-1,-1,18,20,22,-1,24,-1,26,28,30,-1,32,-1,-1,-1,-1,-1,-1,-1,-1,-1,-1,-1],"split_conditions":[5.1201856E-1,5.959084E-1,1.1343512E-1,7.326202E-1,4.311685E-1,2.351405E-1,7.3219126E-1,6.0639125E-1,-2.5916064E-2,1.4054815E-3,-1.1660614E-1,6.4230895E-1,6.214985E-1,6.7240226E-1,1.9686406E-2,5.3570604E-1,-2.7933681E-2,7.2633195E-1,7.996017E-1,6.408537E-1,1.3518432E-1,6.951736E-2,1.9376136E-2,1.2607397E-1,-1.2954338E-2,-2.0961892E-2,-1.3717376E-1,8.0877E-2,-7.4027374E-2,8.0501966E-2,-8.159567E-2,-1.7258724E-2,-1.4291574E-1],"split_indices":[18,40,43,10,32,35,0,19,0,0,0,33,18,32,0,5,0,15,26,45,0,36,0,0,0,0,0,0,0,0,0,0,0],"split_type":[0,0,0,0,0,0,0,0,0,0,0,0,0,0,0,0,0,0,0,0,0,0,0,0,0,0,0,0,0,0,0,0,0],"sum_hessian":[4.4992638E1,1.8916422E1,2.6076218E1,1.6246868E1,2.6695535E0,1.4600408E1,1.147581E1,1.40616045E1,2.1852632E0,1.190753E0,1.4788007E0,7.3331776E0,7.26723E0,1.0030792E1,1.4450171E0,1.2353133E1,1.7084707E0,4.162306E0,3.1708715E0,2.5734148E0,4.693815E0,8.798913E0,1.2318791E0,1.0400588E1,1.9525456E0,1.2144297E0,2.9478762E0,1.9342281E0,1.2366436E0,1.1178694E0,1.4555454E0,1.4198422E0,7.379071E0],"tree_param":{"num_deleted":"0","num_feature":"59","num_nodes":"33","size_leaf_vector":"1"}},{"base_weights":[-1.6715407E-1,-6.2863255E-1,1.3668713E-1,7.861098E-2,-1.0579172E0,-1.12803936E-1,3.226556E-1,7.9189837E-1,-7.9535204E-1,-1.5069658E-1,-1.5032831E0,9.705875E-1,7.4771196E-2,-4.758283E-3,1.0872946E-1,-1.1957908E-1,9.115036E-3,5.885596E-2,-5.807731E-1,-1.6678882E-1,-3.5360523E-2,8.333327E-3,1.25976E-1,-3.0595368E-1,5.5329263E-1,1.7242081E-2,-1.0671629E-1,4.7783796E-2,-6.3117884E-2,-2.7886137E-2,8.2793884E-2],"categories":[],"categories_nodes":[],"categories_segments":[],"categories_sizes":[],"default_left":[0,0,0,0,0,0,0,0,0,0,0,0,0,0,0,0,0,0,0,0,0,0,0,0,0,0,0,0,0,0,0],"id":6,"left_children":[1,3,5,7,9,-1,11,13,15,17,19,21,23,-1,-1,-1,-1,-1,25,-1,-1,-1,-1,27,29,-1,-1,-1,-1,-1,-1],"loss_changes":[6.093172E0,5.301499E0,6.6332173E0,5.257173E0,4.122922E0,0E0,3.784636E0,1.1895268E0,1.4702606E0,1.8221127E0,7.555275E-1,1.5786257E0,3.5312643E0,0E0,0E0,0E0,0E0,0E0,1.4467323E0,0E0,0E0,0E0,0E0,3.085442E0,2.1810193E0,0E0,0E0,0E0,0E0,0E0,0E0],"parents":[2147483647,0,0,1,1,2,2,3,3,4,4,6,6,7,7,8,8,9,9,10,10,11,11,12,12,18,18,23,23,24,24],"right_children":[2,4,6,8,10,-1,12,14,16,18,20,22,24,-1,-1,-1,-1,-1,26,-1,-1,-1,-1,28,30,-1,-1,-1,-1,-1,-1],"split_conditions":[5E-1,3.6703253E-1,5.346613E-1,6.7971253E-1,9.956077E-2,-1.12803936E-1,7.948129E-2,6.6045284E-2,6.85951E-1,5.425041E-1,5.660939E-1,7.822631E-2,6.447435E-1,-4.758283E-3,1.0872946E-1,-1.1957908E-1,9.115036E-3,5.885596E-2,2.0735258E-1,-1.6678882E-1,-3.5360523E-2,8.333327E-3,1.25976E-1,5.940425E-1,5.794611E-1,1.7242081E-2,-1.0671629E-1,4.7783796E-2,-6.3117884E-2,-2.7886137E-2,8.2793884E-2],"split_indices":[56,47,54,15,49,0,49,3,16,41,2,46,42,0,0,0,0,0,35,0,0,0,0,0,10,0,0,0,0,0,0],"split_type":[0,0,0,0,0,0,0,0,0,0,0,0,0,0,0,0,0,0,0,0,0,0,0,0,0,0,0,0,0,0,0],"sum_hessian":[4.1842747E1,1.618769E1,2.5655056E1,6.4228954E0,9.764796E0,2.6393971E0,2.3015657E1,3.5882413E0,2.834654E0,3.6559358E0,6.1088605E0,5.561988E0,1.745367E1,1.1523414E0,2.4359E0,1.7123076E0,1.1223465E0,1.2091078E0,2.446828E0,4.949476E0,1.1593847E0,1.6838104E0,3.8781776E0,9.920931E0,7.5327396E0,1.2133758E0,1.2334522E0,2.7717555E0,7.149175E0,1.8653979E0,5.6673417E0],"tree_param":{"num_deleted":"0","num_feature":"59","num_nodes":"31","size_leaf_vector":"1"}},{"base_weights":[1.0491582E-2,5.789258E-1,-3.048616E-1,8.8563144E-1,-1.0108467E-1,-4.6679783E-1,1.0791224E-1,1.2794943E-1,2.6343682E-1,5.2518505E-1,-6.49151E-1,9.720495E-2,-2.0234981E-1,-2.4066612E-2,1.0558983E-1,6.7500316E-2,-7.881373E-1,-8.3139315E-2,5.0478082E-2,-1.1234677E-1,-3.159536E-2],"categories":[],"categories_nodes":[],"categories_segments":[],"categories_sizes":[],"default_left":[0,0,0,0,0,0,0,0,0,0,0,0,0,0,0,0,0,0,0,0,0],"id":7,"left_children":[1,3,5,7,-1,9,-1,-1,11,13,15,-1,17,-1,-1,-1,19,-1,-1,-1,-1],"loss_changes":[7.7780566E0,8.441313E0,6.763238E0,2.9727898E0,0E0,4.9901953E0,0E0,0E0,2.3403997E0,2.1009517E0,4.609969E0,0E0,2.5310261E0,0E0,0E0,0E0,2.893279E0,0E0,0E0,0E0,0E0],"parents":[2147483647,0,0,1,1,2,2,3,3,5,5,8,8,9,9,10,10,12,12,16,16],"right_children":[2,4,6,8,-1,10,-1,-1,12,14,16,-1,18,-1,-1,-1,20,-1,-1,-1,-1],"split_conditions":[5.009489E-1,5.7694614E-1,9.6894276E-1,3.313458E-1,-1.0108467E-1,6.3933626E-2,1.0791224E-1,1.2794943E-1,3.757403E-1,9.6911386E-2,1.743114E-1,9.720495E-2,1.8622324E-1,-2.4066612E-2,1.0558983E-1,6.7500316E-2,6.549201E-1,-8.3139315E-2,5.0478082E-2,-1.1234677E-1,-3.159536E-2],"split_indices":[18,16,15,24,0,43,0,0,44,52,30,0,43,0,0,0,51,0,0,0,0],"split_type":[0,0,0,0,0,0,0,0,0,0,0,0,0,0,0,0,0,0,0,0,0],"sum_hessian":[4.1405823E1,1.4476202E1,2.6929619E1,1.2506345E1,1.9698575E0,2.4702017E1,2.2276015E0,7.0114937E0,5.494851E0,3.543841E0,2.1158176E1,1.7482686E0,3.7465827E0,1.6742791E0,1.8695619E0,1.6435053E0,1.9514671E1,1.8897698E0,1.8568131E0,1.060443E1,8.910241E0],"tree_param":{"num_deleted":"0","num_feature":"59","num_nodes":"21","size_leaf_vector":"1"}},{"base_weights":[-2.0645337E-2,5.8016026E-1,-2.676509E-1,-7.617554E-2,9.3092656E-1,-8.4904397E-1,7.90641E-2,8.244823E-2,-6.107528E-1,1.3852453E-1,1.21425144E-1,-1.1663058E0,8.432949E-2,2.6599005E-1,-9.928579E-2,2.4446646E-2,-1.1884624E-1,8.618837E-2,-6.292039E-2,4.317179E-3,-1.3559026E0,-1.024161E-1,9.9647306E-2,4.540962E-1,-1.08092986E-1,-2.872437E-2,-1.5061258E-1,6.917719E-2,-5.3407032E-2],"categories":[],"categories_nodes":[],"categories_segments":[],"categories_sizes":[],"default_left":[0,0,0,0,0,0,0,0,0,0,0,0,0,0,0,0,0,0,0,0,0,0,0,0,0,0,0,0,0],"id":8,"left_children":[1,3,5,7,9,11,13,-1,15,17,-1,19,21,23,-1,-1,-1,-1,-1,-1,25,-1,-1,27,-1,-1,-1,-1,-1],"loss_changes":[6.379401E0,2.956717E0,6.1962795E0,3.0506313E0,1.6828036E0,3.4871874E0,4.263862E0,0E0,2.2145562E0,2.3750875E0,0E0,2.0325289E0,4.8988185E0,4.9973006E0,0E0,0E0,0E0,0E0,0E0,0E0,7.6700497E-1,0E0,0E0,4.200321E0,0E0,0E0,0E0,0E0,0E0],"parents":[2147483647,0,0,1,1,2,2,3,3,4,4,5,5,6,6,8,8,9,9,11,11,12,12,13,13,20,20,23,23],"right_children":[2,4,6,8,10,12,14,-1,16,18,-1,20,22,24,-1,-1,-1,-1,-1,-1,26,-1,-1,28,-1,-1,-1,-1,-1],"split_conditions":[4.3209586E-1,2.4178305E-1,6.4938563E-1,4.888267E-1,1.442779E-1,4.2989397E-1,8.720003E-1,8.244823E-2,2.5710338E-1,9.7796775E-2,1.21425144E-1,7.083595E-2,4.5550793E-1,7.7419734E-1,-9.928579E-2,2.4446646E-2,-1.1884624E-1,8.618837E-2,-6.292039E-2,4.317179E-3,3.525831E-1,-1.024161E-1,9.9647306E-2,1.9173117E-1,-1.08092986E-1,-2.872437E-2,-1.5061258E-1,6.917719E-2,-5.3407032E-2],"split_indices":[40,11,0,16,39,22,26,0,35,39,0,43,40,22,0,0,0,0,0,0,8,0,0,52,0,0,0,0,0],"split_type":[0,0,0,0,0,0,0,0,0,0,0,0,0,0,0,0,0,0,0,0,0,0,0,0,0,0,0,0,0],"sum_hessian":[4.0940853E1,1.1534956E1,2.94059E1,4.290195E0,7.244761E0,1.0443975E1,1.8961924E1,1.3959634E0,2.8942316E0,2.3002772E0,4.9444838E0,7.60829E0,2.8356848E0,1.6786488E1,2.1754365E0,1.3994194E0,1.4948121E0,1.1212173E0,1.17906E0,1.1357019E0,6.4725885E0,1.2246324E0,1.6110523E0,1.5311061E1,1.4754263E0,1.1566336E0,5.3159547E0,1.2584224E1,2.7268367E0],"tree_param":{"num_deleted":"0","num_feature":"59","num_nodes":"29","size_leaf_vector":"1"}},{"base_weights":[5.1666595E-2,6.961568E-1,-1.2955824E-1,9.476697E-1,-4.37162E-2,-2.1318568E-1,9.800914E-2,1.0989352E-1,-2.4297344E-3,-8.7353694E-1,-6.0507413E-2,4.3781895E-2,-1.2338213E0,1.638881E-1,-7.1800923E-1,-3.3138566E-2,-1.4096217E-1,4.681664E-2,-5.1794942E-2,3.804663E-2,-1.1221395E-1],"categories":[],"categories_nodes":[],"categories_segments":[],"categories_sizes":[],"default_left":[0,0,0,0,0,0,0,0,0,0,0,0,0,0,0,0,0,0,0,0,0],"id":9,"left_children":[1,3,5,7,-1,9,-1,-1,-1,11,13,-1,15,17,19,-1,-1,-1,-1,-1,-1],"loss_changes":[5.1180077E0,3.1520653E0,3.405107E0,1.2287807E0,0E0,3.2591271E0,0E0,0E0,0E0,3.4195852E0,4.212742E0,0E0,3.3291197E-1,4.7045975E0,3.644581E0,0E0,0E0,0E0,0E0,0E0,0E0],"parents":[2147483647,0,0,1,1,2,2,3,3,5,5,9,9,10,10,12,12,13,13,14,14],"right_children":[2,4,6,8,-1,10,-1,-1,-1,12,14,-1,16,18,20,-1,-1,-1,-1,-1,-1],"split_conditions":[3.8871595E-1,4.8029876E-1,7.495405E-1,5.2453005E-1,-4.37162E-2,8.737135E-2,9.800914E-2,1.0989352E-1,-2.4297344E-3,8.903298E-2,7.229256E-1,4.3781895E-2,9.135486E-2,6.7900074E-1,4.8960495E-1,-3.3138566E-2,-1.4096217E-1,4.681664E-2,-5.1794942E-2,3.804663E-2,-1.1221395E-1],"split_indices":[15,24,51,40,0,3,0,0,0,52,31,0,36,42,7,0,0,0,0,0,0],"split_type":[0,0,0,0,0,0,0,0,0,0,0,0,0,0,0,0,0,0,0,0,0],"sum_hessian":[4.2047237E1,8.604751E0,3.344249E1,7.176016E0,1.4287344E0,3.1850029E1,1.59246E0,6.096585E0,1.0794312E0,5.0944624E0,2.6755566E1,1.051614E0,4.0428486E0,2.050743E1,6.2481365E0,1.1295489E0,2.9132996E0,1.4396287E1,6.1111426E0,1.6962034E0,4.5519333E0],"tree_param":{"num_deleted":"0","num_feature":"59","num_nodes":"21","size_leaf_vector":"1"}},{"base_weights":[4.482702E-2,1.9659464E-1,-5.0257874E-1,-2.4370782E-1,4.4590586E-1,6.5151066E-2,-8.5297537E-1,4.2532706E-1,-7.544345E-1,1.1345729E0,1.5907867E-1,3.5794158E-2,-1.08091E0,-7.53128E-2,8.450423E-1,2.2566054E-2,-9.9185854E-1,3.2294583E-2,1.22965924E-1,4.7708413E-1,-6.2573415E-1,-1.2621145E-1,-1.9562084E-2,-9.434591E-3,1.0992538E-1,-2.7478814E-2,-1.211182E-1,-3.5486573E-3,1.15184024E-1,4.262529E-2,-9.875842E-2],"categories":[],"categories_nodes":[],"categories_segments":[],"categories_sizes":[],"default_left":[0,0,0,0,0,0,0,0,0,0,0,0,0,0,0,0,0,0,0,0,0,0,0,0,0,0,0,0,0,0,0],"id":10,"left_children":[1,3,5,7,9,-1,11,13,15,17,19,-1,21,-1,23,-1,25,-1,-1,27,29,-1,-1,-1,-1,-1,-1,-1,-1,-1,-1],"loss_changes":[3.737669E0,3.9519696E0,4.514206E0,4.866805E0,4.3048816E0,0E0,2.578979E0,3.801423E0,2.0633426E0,1.0557556E-1,4.589666E0,0E0,8.652296E-1,0E0,1.3430166E0,0E0,6.9713783E-1,0E0,0E0,4.469006E0,2.4729388E0,0E0,0E0,0E0,0E0,0E0,0E0,0E0,0E0,0E0,0E0],"parents":[2147483647,0,0,1,1,2,2,3,3,4,4,6,6,7,7,8,8,9,9,10,10,12,12,14,14,16,16,19,19,20,20],"right_children":[2,4,6,8,10,-1,12,14,16,18,20,-1,22,-1,24,-1,26,-1,-1,28,30,-1,-1,-1,-1,-1,-1,-1,-1,-1,-1],"split_conditions":[7.299428E-1,2.472663E-1,4.5068502E-1,2.6614094E-1,3.8247013E-1,6.5151066E-2,3.4215164E-1,5.5151796E-1,7.369448E-2,5.6352794E-1,6.8700385E-1,3.5794158E-2,2.0902182E-1,-7.53128E-2,2.5074005E-2,2.2566054E-2,7.92024E-2,3.2294583E-2,1.22965924E-1,5.740425E-1,2.8827646E-1,-1.2621145E-1,-1.9562084E-2,-9.434591E-3,1.0992538E-1,-2.7478814E-2,-1.211182E-1,-3.5486573E-3,1.15184024E-1,4.262529E-2,-9.875842E-2],"split_indices":[31,4,3,41,50,0,5,45,46,42,42,0,55,0,4,0,49,0,0,19,32,0,0,0,0,0,0,0,0,0,0],"split_type":[0,0,0,0,0,0,0,0,0,0,0,0,0,0,0,0,0,0,0,0,0,0,0,0,0,0,0,0,0,0,0],"sum_hessian":[4.280034E1,3.401154E1,8.788799E0,1.2304079E1,2.1707458E1,1.8467782E0,6.942021E0,5.3989058E0,6.905174E0,5.5136604E0,1.6193798E1,1.0093603E0,5.9326606E0,1.2092518E0,4.189654E0,1.3562151E0,5.5489583E0,1.0392549E0,4.474406E0,1.180324E1,4.390558E0,4.5713305E0,1.36133E0,1.0262434E0,3.1634104E0,1.8273594E0,3.721599E0,7.246175E0,4.5570655E0,1.0781446E0,3.3124135E0],"tree_param":{"num_deleted":"0","num_feature":"59","num_nodes":"31","size_leaf_vector":"1"}},{"base_weights":[-4.6635345E-2,6.142399E-1,-2.3252288E-1,8.598076E-1,-3.899705E-2,-6.046459E-1,6.718965E-2,-4.0802523E-3,1.0192313E0,8.5882924E-2,-7.936925E-1,9.674972E-2,-1.9324738E-1,2.4340533E-2,1.11969724E-1,-2.5860291E-2,-1.1646025E0,-9.128898E-1,2.1179266E-1,-5.0905474E-2,5.361865E-2,-1.3173287E-1,-8.06216E-3,9.747614E-3,-1.2523453E-1,-5.0833058E-2,6.493427E-2],"categories":[],"categories_nodes":[],"categories_segments":[],"categories_sizes":[],"default_left":[0,0,0,0,0,0,0,0,0,0,0,0,0,0,0,0,0,0,0,0,0,0,0,0,0,0,0],"id":11,"left_children":[1,3,5,7,-1,9,11,-1,13,-1,15,-1,17,-1,-1,19,21,23,25,-1,-1,-1,-1,-1,-1,-1,-1],"loss_changes":[4.9592695E0,2.5254858E0,3.5342922E0,1.1110172E0,0E0,4.5755305E0,4.466235E0,0E0,2.2370481E-1,0E0,3.667676E0,0E0,4.5624485E0,0E0,0E0,1.6992314E0,1.3394222E0,2.0380912E0,3.6078675E0,0E0,0E0,0E0,0E0,0E0,0E0,0E0,0E0],"parents":[2147483647,0,0,1,1,2,2,3,3,5,5,6,6,8,8,10,10,12,12,15,15,16,16,17,17,18,18],"right_children":[2,4,6,8,-1,10,12,-1,14,-1,16,-1,18,-1,-1,20,22,24,26,-1,-1,-1,-1,-1,-1,-1,-1],"split_conditions":[4.0114233E-1,4.8029876E-1,5E-1,6.545994E-2,-3.899705E-2,6.296289E-2,7.948129E-2,-4.0802523E-3,2.7314425E-2,8.5882924E-2,1.7891723E-1,9.674972E-2,2.6383734E-1,2.4340533E-2,1.11969724E-1,8.547723E-2,2.0923097E-1,4.331246E-1,8.529837E-2,-5.0905474E-2,5.361865E-2,-1.3173287E-1,-8.06216E-3,9.747614E-3,-1.2523453E-1,-5.0833058E-2,6.493427E-2],"split_indices":[15,24,56,36,0,36,49,0,20,0,31,0,4,0,0,49,46,20,39,0,0,0,0,0,0,0,0],"split_type":[0,0,0,0,0,0,0,0,0,0,0,0,0,0,0,0,0,0,0,0,0,0,0,0,0,0,0],"sum_hessian":[3.820639E1,7.8814745E0,3.0324915E1,6.448394E0,1.4330806E0,1.3074365E1,1.725055E1,1.081709E0,5.3666844E0,1.0903833E0,1.1983981E1,3.2613738E0,1.3989177E1,1.0077004E0,4.358984E0,4.2518387E0,7.732143E0,4.586474E0,9.402702E0,2.3369956E0,1.9148428E0,6.5885835E0,1.1435595E0,1.3326826E0,3.2537913E0,3.4926713E0,5.9100313E0],"tree_param":{"num_deleted":"0","num_feature":"59","num_nodes":"27","size_leaf_vector":"1"}},{"base_weights":[6.646367E-2,9.625771E-2,-4.0857077E-2,1.2664694E-1,-5.436293E-1,-1.0019874E-1,2.1566021E-1,1.3199128E-1,-9.4830555E-1,8.266425E-1,9.322488E-3,8.0616206E-2,-4.3496452E-2,-1.1978479E-1,-1.4114024E-2,-3.046145E-2,1.1870177E-1,-2.4526348E-2,4.371197E-2],"categories":[],"categories_nodes":[],"categories_segments":[],"categories_sizes":[],"default_left":[0,0,0,0,0,0,0,0,0,0,0,0,0,0,0,0,0,0,0],"id":12,"left_children":[1,-1,3,5,7,-1,9,11,13,15,17,-1,-1,-1,-1,-1,-1,-1,-1],"loss_changes":[3.8178015E0,0E0,3.1045191E0,3.0139065E0,2.63969E0,0E0,3.350279E0,2.003003E0,1.0140848E0,3.0983438E0,2.385968E0,0E0,0E0,0E0,0E0,0E0,0E0,0E0,0E0],"parents":[2147483647,0,0,2,2,3,3,4,4,6,6,7,7,8,8,9,9,10,10],"right_children":[2,-1,4,6,8,-1,10,12,14,16,18,-1,-1,-1,-1,-1,-1,-1,-1],"split_conditions":[5.5681556E-1,9.625771E-2,6.9502974E-1,4.9501497E-2,4.3392318E-1,-1.0019874E-1,7.8714356E-2,6.8628424E-1,1.566618E-1,1.260814E-1,4.491098E-1,8.0616206E-2,-4.3496452E-2,-1.1978479E-1,-1.4114024E-2,-3.046145E-2,1.1870177E-1,-2.4526348E-2,4.371197E-2],"split_indices":[51,0,42,46,32,0,49,10,52,35,53,0,0,0,0,0,0,0,0],"split_type":[0,0,0,0,0,0,0,0,0,0,0,0,0,0,0,0,0,0,0],"sum_hessian":[3.8288883E1,3.2427995E0,3.5046085E1,2.6849115E1,8.196971E0,1.2129567E0,2.5636158E1,3.3229797E0,4.873991E0,5.713064E0,1.9923094E1,1.3252285E0,1.9977511E0,3.353278E0,1.5207132E0,1.4176466E0,4.295418E0,1.2757609E1,7.1654844E0],"tree_param":{"num_deleted":"0","num_feature":"59","num_nodes":"19","size_leaf_vector":"1"}},{"base_weights":[4.4457622E-2,4.3999317E-1,-1.7522292E-1,8.305961E-1,-1.4668632E-1,-6.211177E-1,9.6412435E-2,1.1762674E-1,2.6128155E-1,-6.32661E-1,7.06742E-2,-9.0306264E-1,4.26269E-2,5.276648E-1,-2.2275034E-1,-3.9620988E-2,5.762818E-1,4.9354468E-2,-1.1511451E-1,5.5108475E-3,-1.0575062E0,7.719322E-1,-3.6784664E-2,2.3700541E-1,-6.7672056E-1,8.208334E-2,-1.3526055E-3,-1.2830375E-1,-2.3702817E-2,-3.606878E-2,1.0805007E-1,7.7838525E-2,-7.300984E-2,3.7863314E-2,-1.0146407E-1],"categories":[],"categories_nodes":[],"categories_segments":[],"categories_sizes":[],"default_left":[0,0,0,0,0,0,0,0,0,0,0,0,0,0,0,0,0,0,0,0,0,0,0,0,0,0,0,0,0,0,0,0,0,0,0],"id":13,"left_children":[1,3,5,7,9,11,13,-1,15,17,-1,19,-1,21,23,-1,25,-1,-1,-1,27,29,-1,31,33,-1,-1,-1,-1,-1,-1,-1,-1,-1,-1],"loss_changes":[3.473042E0,3.3851442E0,3.1899145E0,1.4045572E0,3.1601958E0,3.3136265E0,2.4470572E0,0E0,1.1752106E0,3.3100715E0,0E0,1.262074E0,0E0,1.9234834E0,2.3372E0,0E0,5.157094E-1,0E0,0E0,0E0,1.001369E0,2.560629E0,0E0,3.669084E0,2.3481789E0,0E0,0E0,0E0,0E0,0E0,0E0,0E0,0E0,0E0,0E0],"parents":[2147483647,0,0,1,1,2,2,3,3,4,4,5,5,6,6,8,8,9,9,11,11,13,13,14,14,16,16,20,20,21,21,23,23,24,24],"right_children":[2,4,6,8,10,12,14,-1,16,18,-1,20,-1,22,24,-1,26,-1,-1,-1,28,30,-1,32,34,-1,-1,-1,-1,-1,-1,-1,-1,-1,-1],"split_conditions":[4.3209586E-1,4.8559758E-1,6.6853267E-1,1.7541657E-1,6.083071E-1,5.2557874E-1,1.0876386E-1,1.1762674E-1,5.8413744E-1,6.1711854E-1,7.06742E-2,5.5544716E-1,4.26269E-2,5.8670735E-1,5.257432E-1,-3.9620988E-2,3.4085238E-1,4.9354468E-2,-1.1511451E-1,5.5108475E-3,6.9928175E-1,5.8413744E-1,-3.6784664E-2,7.329412E-1,2.0692247E-1,8.208334E-2,-1.3526055E-3,-1.2830375E-1,-2.3702817E-2,-3.606878E-2,1.0805007E-1,7.7838525E-2,-7.300984E-2,3.7863314E-2,-1.0146407E-1],"split_indices":[40,20,1,55,44,22,49,0,48,48,0,42,0,20,40,0,32,0,0,0,45,51,0,31,21,0,0,0,0,0,0,0,0,0,0],"split_type":[0,0,0,0,0,0,0,0,0,0,0,0,0,0,0,0,0,0,0,0,0,0,0,0,0,0,0,0,0,0,0,0,0,0,0],"sum_hessian":[3.8082607E1,1.3240381E1,2.4842228E1,7.6988425E0,5.5415387E0,8.917458E0,1.5924769E1,4.1269603E0,3.5718822E0,3.6957312E0,1.8458074E0,7.1346765E0,1.7827812E0,6.495194E0,9.429576E0,1.0734632E0,2.498419E0,1.1802331E0,2.5154982E0,1.0796549E0,6.0550213E0,5.2116246E0,1.2835692E0,4.9223857E0,4.50719E0,1.4892403E0,1.0091786E0,4.307278E0,1.7477434E0,1.0796812E0,4.1319437E0,3.2808952E0,1.6414905E0,1.0639381E0,3.443252E0],"tree_param":{"num_deleted":"0","num_feature":"59","num_nodes":"35","size_leaf_vector":"1"}},{"base_weights":[2.5363756E-2,2.96645E-1,-2.5655812E-1,1.09852664E-1,-6.905079E-2,-7.598304E-1,1.8794464E-1,2.3037736E-1,-7.549417E-1,4.937774E-2,-1.24212936E-1,4.8304778E-1,-6.221575E-1,4.4301388E-1,-7.0067085E-2,-1.0343015E-1,7.581918E-3,-5.7411995E-2,5.2651703E-2,-2.4452023E-2,7.311513E-1,-1.04750626E-1,9.732715E-3,7.483187E-2,-1.0043869E-2,1.682653E-3,9.954005E-2],"categories":[],"categories_nodes":[],"categories_segments":[],"categories_sizes":[],"default_left":[0,0,0,0,0,0,0,0,0,0,0,0,0,0,0,0,0,0,0,0,0,0,0,0,0,0,0],"id":14,"left_children":[1,3,5,-1,7,9,11,13,15,17,-1,19,21,23,-1,-1,-1,-1,-1,-1,25,-1,-1,-1,-1,-1,-1],"loss_changes":[2.9563801E0,5.8399224E0,4.394169E0,0E0,3.1396482E0,3.6172624E0,2.9046597E0,2.452178E0,1.1511316E0,1.6006277E0,0E0,1.7216899E0,1.1258222E0,1.638058E0,0E0,0E0,0E0,0E0,0E0,0E0,1.2336886E0,0E0,0E0,0E0,0E0,0E0,0E0],"parents":[2147483647,0,0,1,1,2,2,4,4,5,5,6,6,7,7,8,8,9,9,11,11,12,12,13,13,20,20],"right_children":[2,4,6,-1,8,10,12,14,16,18,-1,20,22,24,-1,-1,-1,-1,-1,-1,26,-1,-1,-1,-1,-1,-1],"split_conditions":[3.8659024E-1,4.469009E-1,4.5294023E-1,1.09852664E-1,5.384634E-1,6.0637337E-1,7.086984E-1,7.2537065E-1,6.423929E-1,2.7621874E-1,-1.24212936E-1,7.2927564E-2,1.4362407E-1,7.0145214E-1,-7.0067085E-2,-1.0343015E-1,7.581918E-3,-5.7411995E-2,5.2651703E-2,-2.4452023E-2,6.3631016E-1,-1.04750626E-1,9.732715E-3,7.483187E-2,-1.0043869E-2,1.682653E-3,9.954005E-2],"split_indices":[50,19,53,0,40,45,51,48,51,33,0,55,52,42,0,0,0,0,0,0,1,0,0,0,0,0,0],"split_type":[0,0,0,0,0,0,0,0,0,0,0,0,0,0,0,0,0,0,0,0,0,0,0,0,0,0,0],"sum_hessian":[3.666042E1,1.865617E1,1.800425E1,5.21563E0,1.344054E1,8.111219E0,9.89303E0,9.818401E0,3.622139E0,3.3642507E0,4.7469683E0,7.5473933E0,2.3456366E0,8.419662E0,1.3987389E0,2.5272841E0,1.0948547E0,1.3703297E0,1.9939209E0,1.9228992E0,5.624494E0,1.1876209E0,1.1580156E0,5.1496706E0,3.269992E0,1.8060397E0,3.8184545E0],"tree_param":{"num_deleted":"0","num_feature":"59","num_nodes":"27","size_leaf_vector":"1"}},{"base_weights":[5.1961116E-2,4.0992004E-1,-1.5731592E-1,-2.2725977E-1,6.888591E-1,-5.649705E-1,1.2786962E-1,5.0270446E-2,-6.677951E-1,1.0025322E0,-1.718535E-1,2.3320438E-2,-7.243251E-1,3.5718915E-1,-7.0234936E-1,-1.3752282E-3,-1.05754875E-1,1.0978998E-1,2.5069421E-2,-7.385882E-2,4.9336262E-2,-1.0158253E0,-2.8686393E-2,5.840406E-1,-5.814534E-2,6.0715587E-3,-1.02023065E-1,-1.1708391E-1,-1.3676166E-2,-8.937772E-2,8.656999E-2,-1.7491838E-2,9.6998304E-2],"categories":[],"categories_nodes":[],"categories_segments":[],"categories_sizes":[],"default_left":[0,0,0,0,0,0,0,0,0,0,0,0,0,0,0,0,0,0,0,0,0,0,0,0,0,0,0,0,0,0,0,0,0],"id":15,"left_children":[1,3,5,7,9,11,13,-1,15,17,19,-1,21,23,25,-1,-1,-1,-1,-1,-1,27,29,31,-1,-1,-1,-1,-1,-1,-1,-1,-1],"loss_changes":[2.8619766E0,2.6545832E0,2.8959568E0,1.9536594E0,2.8784642E0,1.4640133E0,3.1269023E0,0E0,8.947916E-1,2.6199102E-1,1.6955458E0,0E0,1.7413521E0,3.0011888E0,9.36785E-1,0E0,0E0,0E0,0E0,0E0,0E0,6.743469E-1,3.564843E0,3.264505E0,0E0,0E0,0E0,0E0,0E0,0E0,0E0,0E0,0E0],"parents":[2147483647,0,0,1,1,2,2,3,3,4,4,5,5,6,6,8,8,9,9,10,10,12,12,13,13,14,14,21,21,22,22,23,23],"right_children":[2,4,6,8,10,12,14,-1,16,18,20,-1,22,24,26,-1,-1,-1,-1,-1,-1,28,30,32,-1,-1,-1,-1,-1,-1,-1,-1,-1],"split_conditions":[4.3209586E-1,5.982937E-1,6.4938563E-1,1.9493192E-1,5.797387E-1,6.400976E-1,1.8622324E-1,5.0270446E-2,4.0667725E-1,7.4206626E-1,8.589555E-2,2.3320438E-2,5.185342E-1,8.720003E-1,2.0304108E-1,-1.3752282E-3,-1.05754875E-1,1.0978998E-1,2.5069421E-2,-7.385882E-2,4.9336262E-2,1.7541657E-1,4.57574E-1,2.4477768E-1,-5.814534E-2,6.0715587E-3,-1.02023065E-1,-1.1708391E-1,-1.3676166E-2,-8.937772E-2,8.656999E-2,-1.7491838E-2,9.6998304E-2],"split_indices":[40,54,0,21,19,10,52,0,50,54,46,0,27,26,6,0,0,0,0,0,0,52,40,5,0,0,0,0,0,0,0,0,0],"split_type":[0,0,0,0,0,0,0,0,0,0,0,0,0,0,0,0,0,0,0,0,0,0,0,0,0,0,0,0,0,0,0,0,0],"sum_hessian":[3.6343384E1,1.3054872E1,2.3288511E1,4.0313473E0,9.023525E0,9.182151E0,1.410636E1,1.4641457E0,2.5672014E0,6.4926214E0,2.5309033E0,1.4509932E0,7.731158E0,1.14997225E1,2.6066387E0,1.3451685E0,1.222033E0,5.353291E0,1.1393306E0,1.3070536E0,1.2238498E0,5.1238046E0,2.6073532E0,9.565669E0,1.9340528E0,1.0044599E0,1.6021787E0,4.073558E0,1.0502466E0,1.325729E0,1.2816241E0,3.4088717E0,6.156798E0],"tree_param":{"num_deleted":"0","num_feature":"59","num_nodes":"33","size_leaf_vector":"1"}},{"base_weights":[-2.1384574E-2,2.1478428E-1,-4.5324513E-1,3.174896E-2,1.09231904E-1,-8.103322E-1,3.0849546E-1,4.8777768E-1,-3.6462414E-1,5.4300525E-3,-9.302278E-1,8.590882E-2,-2.8108728E-1,-2.2480087E-2,9.094915E-1,2.3389995E-1,-7.9346967E-1,-1.53627815E-2,-1.0316023E0,5.6724885E-4,-4.3293107E-2,7.673499E-2,-4.854131E-2,1.04972E-1,2.0396223E-2,6.127085E-2,-6.659524E-2,-1.1411909E-1,4.9076825E-2,-1.872561E-2,-1.1725774E-1],"categories":[],"categories_nodes":[],"categories_segments":[],"categories_sizes":[],"default_left":[0,0,0,0,0,0,0,0,0,0,0,0,0,0,0,0,0,0,0,0,0,0,0,0,0,0,0,0,0,0,0],"id":16,"left_children":[1,3,5,7,-1,9,11,13,15,-1,17,-1,19,21,23,25,27,-1,29,-1,-1,-1,-1,-1,-1,-1,-1,-1,-1,-1,-1],"loss_changes":[3.6474552E0,3.688581E0,3.684652E0,3.8309586E0,0E0,9.703102E-1,1.784838E0,2.1347325E0,3.1076825E0,0E0,4.593215E-1,0E0,1.35233E-1,2.3549373E0,3.2050753E-1,2.291156E0,3.6234365E0,0E0,5.858331E-1,0E0,0E0,0E0,0E0,0E0,0E0,0E0,0E0,0E0,0E0,0E0,0E0],"parents":[2147483647,0,0,1,1,2,2,3,3,5,5,6,6,7,7,8,8,10,10,12,12,13,13,14,14,15,15,16,16,18,18],"right_children":[2,4,6,8,-1,10,12,14,16,-1,18,-1,20,22,24,26,28,-1,30,-1,-1,-1,-1,-1,-1,-1,-1,-1,-1,-1,-1],"split_conditions":[5.8753985E-1,7.086984E-1,7.53279E-1,4.012797E-1,1.09231904E-1,5.7395595E-1,6.388408E-1,6.2009156E-1,6.007269E-1,5.4300525E-3,1.7374301E-1,8.590882E-2,6.4658225E-1,5.6412804E-1,3.831017E-1,5.5759716E-1,6.039641E-1,-1.53627815E-2,4.2158157E-2,5.6724885E-4,-4.3293107E-2,7.673499E-2,-4.854131E-2,1.04972E-1,2.0396223E-2,6.127085E-2,-6.659524E-2,-1.1411909E-1,4.9076825E-2,-1.872561E-2,-1.1725774E-1],"split_indices":[19,45,33,50,0,37,51,51,45,0,47,0,45,51,50,47,24,0,11,0,0,0,0,0,0,0,0,0,0,0,0],"split_type":[0,0,0,0,0,0,0,0,0,0,0,0,0,0,0,0,0,0,0,0,0,0,0,0,0,0,0,0,0,0,0],"sum_hessian":[3.380768E1,2.218058E1,1.16271E1,1.9209965E1,2.9706154E0,7.8727427E0,3.7543569E0,8.825542E0,1.0384421E1,1.0253667E0,6.8473763E0,1.7049996E0,2.0493572E0,4.4219017E0,4.4036407E0,4.5244265E0,5.859995E0,1.0810697E0,5.7663064E0,1.042749E0,1.0066082E0,1.3910272E0,3.0308747E0,3.266546E0,1.1370946E0,3.4086125E0,1.115814E0,4.699061E0,1.1609342E0,1.1581366E0,4.60817E0],"tree_param":{"num_deleted":"0","num_feature":"59","num_nodes":"31","size_leaf_vector":"1"}},{"base_weights":[-1.6677821E-2,-1.0337753E-1,7.9520226E-2,5.2628275E-2,-4.8332092E-1,4.2764512E-1,-2.0621502E-1,4.5985326E-2,-6.83854E-1,-4.13012E-2,1.04664005E-1,-4.8085818E-1,5.0073E-1,2.979119E-2,-9.3279195E-1,-6.74291E-2,4.669227E-2,2.6475389E-2,-7.2135486E-2,8.388485E-2,-3.283006E-2,-7.3128444E-4,-1.135837E-1],"categories":[],"categories_nodes":[],"categories_segments":[],"categories_sizes":[],"default_left":[0,0,0,0,0,0,0,0,0,0,0,0,0,0,0,0,0,0,0,0,0,0,0],"id":17,"left_children":[1,3,-1,5,7,9,11,-1,13,15,-1,17,19,-1,21,-1,-1,-1,-1,-1,-1,-1,-1],"loss_changes":[2.5899088E0,1.9858164E0,0E0,2.4516797E0,2.1539009E0,3.0238233E0,3.168681E0,0E0,2.3362691E0,2.5037603E0,0E0,2.2299683E0,1.5954297E0,0E0,1.299706E0,0E0,0E0,0E0,0E0,0E0,0E0,0E0,0E0],"parents":[2147483647,0,0,1,1,3,3,4,4,5,5,6,6,8,8,9,9,11,11,12,12,14,14],"right_children":[2,4,-1,6,8,10,12,-1,14,16,-1,18,20,-1,22,-1,-1,-1,-1,-1,-1,-1,-1],"split_conditions":[9.6894276E-1,1.7074531E-1,7.9520226E-2,5.903104E-1,1.4023483E-1,6.448603E-1,6.963253E-1,4.5985326E-2,2.1461701E-1,1.13387406E-1,1.04664005E-1,7.2927564E-2,9.094533E-1,2.979119E-2,1.1919522E-1,-6.74291E-2,4.669227E-2,2.6475389E-2,-7.2135486E-2,8.388485E-2,-3.283006E-2,-7.3128444E-4,-1.135837E-1],"split_indices":[15,49,0,8,14,45,33,0,30,36,0,49,15,0,11,0,0,0,0,0,0,0,0],"split_type":[0,0,0,0,0,0,0,0,0,0,0,0,0,0,0,0,0,0,0,0,0,0,0],"sum_hessian":[3.4625957E1,3.2073532E1,2.5524254E0,2.3348186E1,8.725346E0,9.268164E0,1.4080023E1,1.3031306E0,7.4222155E0,5.80421E0,3.4639533E0,1.0370834E1,3.709188E0,1.4615191E0,5.960696E0,2.4393077E0,3.3649027E0,2.5046873E0,7.866147E0,2.626239E0,1.082949E0,1.2588546E0,4.7018414E0],"tree_param":{"num_deleted":"0","num_feature":"59","num_nodes":"23","size_leaf_vector":"1"}},{"base_weights":[2.471472E-2,3.4114903E-1,-2.4998094E-1,6.518851E-1,-6.2878944E-2,1.3108979E-1,-6.4747876E-1,-1.8400619E-2,8.71607E-1,-6.6334355E-1,5.116448E-1,-5.696338E-1,4.4106898E-1,-8.5960305E-1,2.3003554E-2,1.0540372E-1,-8.584916E-3,2.2712076E-2,-1.09392405E-1,7.65081E-2,-2.4438247E-3,1.5067163E-2,-8.960897E-2,-4.1598585E-2,6.512246E-1,2.1570126E-2,-1.0504329E0,8.865195E-2,-2.3799134E-2,-1.21079125E-1,-2.3129988E-2],"categories":[],"categories_nodes":[],"categories_segments":[],"categories_sizes":[],"default_left":[0,0,0,0,0,0,0,0,0,0,0,0,0,0,0,0,0,0,0,0,0,0,0,0,0,0,0,0,0,0,0],"id":18,"left_children":[1,3,5,7,9,11,13,-1,15,17,19,21,23,25,-1,-1,-1,-1,-1,-1,-1,-1,-1,-1,27,-1,29,-1,-1,-1,-1],"loss_changes":[3.1669014E0,2.1623917E0,3.0469444E0,1.93079E0,3.1882484E0,2.6004462E0,2.0106711E0,0E0,1.4541831E0,1.9635843E0,6.6876125E-1,1.0176263E0,1.7229719E0,1.8793817E0,0E0,0E0,0E0,0E0,0E0,0E0,0E0,0E0,0E0,0E0,1.6471558E0,0E0,6.4086866E-1,0E0,0E0,0E0,0E0],"parents":[2147483647,0,0,1,1,2,2,3,3,4,4,5,5,6,6,8,8,9,9,10,10,11,11,12,12,13,13,24,24,26,26],"right_children":[2,4,6,8,10,12,14,-1,16,18,20,22,24,26,-1,-1,-1,-1,-1,-1,-1,-1,-1,-1,28,-1,30,-1,-1,-1,-1],"split_conditions":[5.962727E-1,3.8659024E-1,1.04022875E-1,1.7728996E-1,4.3836927E-1,3.376956E-1,7.023005E-1,-1.8400619E-2,4.3388343E-1,6.089067E-1,9.445102E-1,4.4644272E-1,5.9541237E-2,1.9816947E-1,2.3003554E-2,1.0540372E-1,-8.584916E-3,2.2712076E-2,-1.09392405E-1,7.65081E-2,-2.4438247E-3,1.5067163E-2,-8.960897E-2,-4.1598585E-2,6.9928175E-1,2.1570126E-2,2.0902182E-1,8.865195E-2,-2.3799134E-2,-1.21079125E-1,-2.3129988E-2],"split_indices":[8,50,49,44,53,44,48,0,24,37,53,32,52,24,0,0,0,0,0,0,0,0,0,0,54,0,52,0,0,0,0],"split_type":[0,0,0,0,0,0,0,0,0,0,0,0,0,0,0,0,0,0,0,0,0,0,0,0,0,0,0,0,0,0,0],"sum_hessian":[3.445225E1,1.5897401E1,1.855485E1,8.639407E0,7.257993E0,9.815347E0,8.739503E0,1.8320944E0,6.807313E0,3.4732852E0,3.784708E0,2.7534292E0,7.0619173E0,7.054587E0,1.684916E0,5.6331253E0,1.1741879E0,1.2860945E0,2.1871905E0,2.2797673E0,1.5049407E0,1.02665E0,1.7267792E0,1.197769E0,5.864148E0,1.0436131E0,6.0109735E0,4.63952E0,1.224628E0,4.6270227E0,1.3839508E0],"tree_param":{"num_deleted":"0","num_feature":"59","num_nodes":"31","size_leaf_vector":"1"}},{"base_weights":[2.9993183E-3,3.7519413E-1,-1.8499093E-1,-7.72162E-2,8.0985236E-1,-8.6508924E-1,2.6724376E-3,5.3556824E-1,-6.1042184E-1,-6.620289E-3,1.0216012E-1,-1.850005E-2,-9.983223E-2,5.602923E-1,-1.9521211E-1,7.76694E-2,-5.6689586E-3,-9.1999404E-2,-7.6224953E-3,7.9707846E-2,-3.4275153E-3,5.1839685E-1,-4.631374E-1,1.1967476E-3,8.998647E-2,3.1172268E-3,-8.015073E-2],"categories":[],"categories_nodes":[],"categories_segments":[],"categories_sizes":[],"default_left":[0,0,0,0,0,0,0,0,0,0,0,0,0,0,0,0,0,0,0,0,0,0,0,0,0,0,0],"id":19,"left_children":[1,3,5,7,9,11,13,15,17,-1,-1,-1,-1,19,21,-1,-1,-1,-1,-1,-1,23,25,-1,-1,-1,-1],"loss_changes":[2.5393693E0,2.4570045E0,3.0812616E0,2.574717E0,1.2357917E0,2.883141E-1,2.3056614E0,5.772103E-1,6.1549604E-1,0E0,0E0,0E0,0E0,7.976546E-1,3.190636E0,0E0,0E0,0E0,0E0,0E0,0E0,8.941784E-1,1.9899337E0,0E0,0E0,0E0,0E0],"parents":[2147483647,0,0,1,1,2,2,3,3,4,4,5,5,6,6,7,7,8,8,13,13,14,14,21,21,22,22],"right_children":[2,4,6,8,10,12,14,16,18,-1,-1,-1,-1,20,22,-1,-1,-1,-1,-1,-1,24,26,-1,-1,-1,-1],"split_conditions":[4.3209586E-1,3.872845E-1,1.03662014E-1,3.9337352E-1,2.5971508E-1,4.5045403E-1,6.313139E-1,4.6964622E-1,4.7213146E-1,-6.620289E-3,1.0216012E-1,-1.850005E-2,-9.983223E-2,2.0999315E-1,8.7847725E-2,7.76694E-2,-5.6689586E-3,-9.1999404E-2,-7.6224953E-3,7.9707846E-2,-3.4275153E-3,6.7628816E-2,1.232657E-1,1.1967476E-3,8.998647E-2,3.1172268E-3,-8.015073E-2],"split_indices":[40,40,21,15,53,8,10,41,33,0,0,0,0,39,52,0,0,0,0,0,0,52,43,0,0,0,0],"split_type":[0,0,0,0,0,0,0,0,0,0,0,0,0,0,0,0,0,0,0,0,0,0,0,0,0,0,0],"sum_hessian":[3.4300804E1,1.1176686E1,2.3124119E1,5.8794565E0,5.2972302E0,4.220196E0,1.8903923E1,2.7335289E0,3.145928E0,1.1649412E0,4.132289E0,1.0826013E0,3.1375945E0,4.4716964E0,1.4432225E1,1.7213175E0,1.0122113E0,1.5344812E0,1.6114466E0,2.954476E0,1.5172205E0,3.68432E0,1.0747906E1,2.0260057E0,1.6583142E0,4.7364745E0,6.011431E0],"tree_param":{"num_deleted":"0","num_feature":"59","num_nodes":"27","size_leaf_vector":"1"}},{"base_weights":[1.4850852E-2,-8.538326E-2,1.0270407E-1,-2.4032879E-1,3.3330992E-1,5.56794E-1,-4.274871E-1,4.4659376E-1,-6.931737E-2,7.248938E-2,1.0912727E-2,3.2011214E-1,-6.328754E-1,6.8884087E-1,-7.541157E-2,-1.6022012E-2,6.773388E-2,4.8054274E-2,-8.589197E-2,7.837563E-2,-1.3613122E-2,-8.2705304E-2,4.4870783E-2],"categories":[],"categories_nodes":[],"categories_segments":[],"categories_sizes":[],"default_left":[0,0,0,0,0,0,0,0,0,0,0,0,0,0,0,0,0,0,0,0,0,0,0],"id":20,"left_children":[1,-1,3,5,7,9,11,13,-1,-1,-1,15,17,19,21,-1,-1,-1,-1,-1,-1,-1,-1],"loss_changes":[2.790225E0,0E0,2.6947198E0,2.307001E0,2.6566505E0,1.520198E-1,2.0139875E0,2.4275289E0,0E0,0E0,0E0,6.5873146E-1,2.826466E0,1.1191525E0,3.0720267E0,0E0,0E0,0E0,0E0,0E0,0E0,0E0,0E0],"parents":[2147483647,0,0,2,2,3,3,4,4,5,5,6,6,7,7,11,11,12,12,13,13,14,14],"right_children":[2,-1,4,6,8,10,12,14,-1,-1,-1,16,18,20,22,-1,-1,-1,-1,-1,-1,-1,-1],"split_conditions":[5.346613E-1,-8.538326E-2,5E-1,3.0964947E-1,5.959084E-1,2.5013188E-1,1.3825092E-1,4.7868267E-1,-6.931737E-2,7.248938E-2,1.0912727E-2,9.893328E-2,7.3197536E-2,7.2721714E-1,1.0250909E-1,-1.6022012E-2,6.773388E-2,4.8054274E-2,-8.589197E-2,7.837563E-2,-1.3613122E-2,-8.2705304E-2,4.4870783E-2],"split_indices":[54,0,56,16,40,33,31,11,0,0,0,49,39,32,39,0,0,0,0,0,0,0,0],"split_type":[0,0,0,0,0,0,0,0,0,0,0,0,0,0,0,0,0,0,0,0,0,0,0],"sum_hessian":[3.4412113E1,2.3598003E0,3.205231E1,1.2868253E1,1.918406E1,2.0713239E0,1.0796929E1,1.7786095E1,1.3979639E0,1.0556526E0,1.0156711E0,2.2065754E0,8.590354E0,1.1930091E1,5.856004E0,1.17634E0,1.0302355E0,1.259686E0,7.3306675E0,1.0743931E1,1.1861597E0,2.1683624E0,3.6876419E0],"tree_param":{"num_deleted":"0","num_feature":"59","num_nodes":"23","size_leaf_vector":"1"}},{"base_weights":[-5.799338E-2,5.1930517E-1,-1.4978221E-1,8.226659E-2,-2.1619616E-2,-2.6252195E-1,4.073745E-1,-5.5595197E-2,-7.5057733E-1,7.624873E-2,-2.9350141E-2,-2.565133E-1,5.530033E-1,-8.468432E-3,-9.151299E-1,2.903378E-2,-5.0739434E-2,-2.4168216E-2,8.341328E-2,-1.2662596E-2,-1.0843843E-1],"categories":[],"categories_nodes":[],"categories_segments":[],"categories_sizes":[],"default_left":[0,0,0,0,0,0,0,0,0,0,0,0,0,0,0,0,0,0,0,0,0],"id":21,"left_children":[1,3,5,-1,-1,7,9,11,13,-1,-1,15,17,-1,19,-1,-1,-1,-1,-1,-1],"loss_changes":[1.7991501E0,1.2221415E0,1.9162753E0,0E0,0E0,2.4391484E0,1.527863E0,2.3833418E0,7.151785E-1,0E0,0E0,2.131764E0,1.2888272E0,0E0,6.232271E-1,0E0,0E0,0E0,0E0,0E0,0E0],"parents":[2147483647,0,0,1,1,2,2,5,5,6,6,7,7,8,8,11,11,12,12,14,14],"right_children":[2,4,6,-1,-1,8,10,12,14,-1,-1,16,18,-1,20,-1,-1,-1,-1,-1,-1],"split_conditions":[5.5544716E-1,3.6925697E-1,2.232448E-1,8.226659E-2,-2.1619616E-2,1.4299658E-1,4.1479897E-1,1.3971972E-1,5.8045775E-1,7.624873E-2,-2.9350141E-2,7.948129E-2,5.762282E-1,-8.468432E-3,6.007269E-1,2.903378E-2,-5.0739434E-2,-2.4168216E-2,8.341328E-2,-1.2662596E-2,-1.0843843E-1],"split_indices":[51,5,43,0,0,43,41,46,0,0,0,49,45,0,45,0,0,0,0,0,0],"split_type":[0,0,0,0,0,0,0,0,0,0,0,0,0,0,0,0,0,0,0,0,0],"sum_hessian":[3.148503E1,3.680323E0,2.7804707E1,2.5217185E0,1.1586043E0,2.3565155E1,4.2395525E0,1.7331022E1,6.2341323E0,2.7555113E0,1.484041E0,1.3464479E1,3.866543E0,1.5354159E0,4.6987166E0,4.185021E0,9.279458E0,1.0470636E0,2.8194795E0,1.1392841E0,3.5594323E0],"tree_param":{"num_deleted":"0","num_feature":"59","num_nodes":"21","size_leaf_vector":"1"}},{"base_weights":[-4.222877E-2,-5.092981E-1,1.00320816E-1,2.256686E-2,-6.918429E-1,-5.2967127E-2,5.4925716E-1,5.88445E-3,-9.0654284E-1,2.0814376E-1,-5.100741E-1,9.895778E-2,-4.336093E-2,-1.06355034E-1,-1.8573215E-2,-2.7340955E-1,4.6414056E-1,-6.708126E-1,2.561134E-2,-8.395872E-2,5.6463756E-2,6.874952E-2,-2.2664124E-2,-6.8345936E-3,-1.0343452E-1],"categories":[],"categories_nodes":[],"categories_segments":[],"categories_sizes":[],"default_left":[0,0,0,0,0,0,0,0,0,0,0,0,0,0,0,0,0,0,0,0,0,0,0,0,0],"id":22,"left_children":[1,3,5,-1,7,9,11,-1,13,15,17,-1,-1,-1,-1,19,21,23,-1,-1,-1,-1,-1,-1,-1],"loss_changes":[2.3721118E0,1.2718496E0,1.9245911E0,0E0,1.1666453E0,2.6657817E0,3.5013509E0,0E0,4.1724682E-1,1.8970162E0,1.1676807E0,0E0,0E0,0E0,0E0,3.1374147E0,1.6594863E0,1.4537413E0,0E0,0E0,0E0,0E0,0E0,0E0,0E0],"parents":[2147483647,0,0,1,1,2,2,4,4,5,5,6,6,8,8,9,9,10,10,15,15,16,16,17,17],"right_children":[2,4,6,-1,8,10,12,-1,14,16,18,-1,-1,-1,-1,20,22,24,-1,-1,-1,-1,-1,-1,-1],"split_conditions":[2.0297295E-1,1.8340564E-1,6.9928175E-1,2.256686E-2,7.216063E-2,6.4095545E-1,5.9419614E-1,5.88445E-3,8.7220573E-1,8.4084734E-2,6.894592E-1,9.895778E-2,-4.336093E-2,-1.06355034E-1,-1.8573215E-2,6.8596244E-1,2.4289519E-1,5.0943255E-1,2.561134E-2,-8.395872E-2,5.6463756E-2,6.874952E-2,-2.2664124E-2,-6.8345936E-3,-1.0343452E-1],"split_indices":[35,22,45,0,49,45,19,0,15,36,18,0,0,0,0,54,39,18,0,0,0,0,0,0,0],"split_type":[0,0,0,0,0,0,0,0,0,0,0,0,0,0,0,0,0,0,0,0,0,0,0,0,0],"sum_hessian":[3.3860317E1,7.3160877E0,2.6544228E1,1.408582E0,5.907506E0,2.044527E1,6.0989585E0,1.4752593E0,4.4322467E0,1.33589525E1,7.086317E0,4.207283E0,1.8916757E0,3.2490454E0,1.1832012E0,4.61316E0,8.745793E0,5.9603705E0,1.1259464E0,2.752056E0,1.861104E0,6.612494E0,2.1332989E0,2.690134E0,3.2702365E0],"tree_param":{"num_deleted":"0","num_feature":"59","num_nodes":"25","size_leaf_vector":"1"}},{"base_weights":[2.7991619E-2,-1.5024154E-1,3.399711E-1,2.2325245E-1,-3.5593578E-1,5.020803E-1,-5.9994854E-2,-5.5268552E-2,4.194783E-1,9.854382E-2,-6.513715E-1,9.1801643E-1,1.1369221E-1,-3.2328974E-2,7.3875135E-1,7.987719E-2,-3.6939287E-1,-1.0891618E-1,-1.8732134E-1,1.9330075E-2,1.0700846E-1,4.3165645E-1,-4.3537992E-1,9.5869295E-2,-3.07242E-3,2.9080097E-2,-6.5766856E-2,-6.504676E-2,6.687129E-2,8.50726E-2,-7.974856E-3,-7.2793014E-2,7.6742023E-3],"categories":[],"categories_nodes":[],"categories_segments":[],"categories_sizes":[],"default_left":[0,0,0,0,0,0,0,0,0,0,0,0,0,0,0,0,0,0,0,0,0,0,0,0,0,0,0,0,0,0,0,0,0],"id":23,"left_children":[1,3,5,7,9,11,-1,-1,13,15,17,19,21,-1,23,-1,25,-1,27,-1,-1,29,31,-1,-1,-1,-1,-1,-1,-1,-1,-1,-1],"loss_changes":[1.8949856E0,1.7540752E0,2.1849966E0,1.5040842E0,2.0032818E0,1.6869907E0,0E0,0E0,1.955228E0,2.4438922E0,1.600766E0,3.6768198E-1,1.3883356E0,0E0,9.3764806E-1,0E0,1.06954E0,0E0,2.6235793E0,0E0,0E0,1.1086339E0,5.08227E-1,0E0,0E0,0E0,0E0,0E0,0E0,0E0,0E0,0E0,0E0],"parents":[2147483647,0,0,1,1,2,2,3,3,4,4,5,5,8,8,9,9,10,10,11,11,12,12,14,14,16,16,18,18,21,21,22,22],"right_children":[2,4,6,8,10,12,-1,-1,14,16,18,20,22,-1,24,-1,26,-1,28,-1,-1,30,32,-1,-1,-1,-1,-1,-1,-1,-1,-1,-1],"split_conditions":[4.4402337E-1,1.74963E-1,9.780653E-1,5.5151796E-1,4.9974617E-1,1.22304216E-1,-5.9994854E-2,-5.5268552E-2,7.9411566E-2,3.8615084E-1,3.2613444E-1,5.439725E-1,5.8350194E-1,-3.2328974E-2,8.003455E-1,7.987719E-2,1.4189887E-1,-1.0891618E-1,1.4694609E-1,1.9330075E-2,1.0700846E-1,1.8622324E-1,6.7987597E-1,9.5869295E-2,-3.07242E-3,2.9080097E-2,-6.5766856E-2,-6.504676E-2,6.687129E-2,8.50726E-2,-7.974856E-3,-7.2793014E-2,7.6742023E-3],"split_indices":[24,28,20,54,15,36,0,0,46,47,30,29,20,0,26,0,15,0,36,0,0,46,20,0,0,0,0,0,0,0,0,0,0],"split_type":[0,0,0,0,0,0,0,0,0,0,0,0,0,0,0,0,0,0,0,0,0,0,0,0,0,0,0,0,0,0,0,0,0],"sum_hessian":[3.2160774E1,2.0797585E1,1.1363188E1,7.3557878E0,1.3441798E1,1.0088958E1,1.2742296E0,1.1180587E0,6.2377286E0,5.558066E0,7.883732E0,4.2132297E0,5.875728E0,1.8714172E0,4.3663116E0,1.9432083E0,3.6148574E0,3.3634944E0,4.520238E0,1.1246407E0,3.088589E0,3.8563714E0,2.0193567E0,3.2044652E0,1.1618465E0,1.096029E0,2.5188284E0,3.0890732E0,1.4311646E0,1.7548537E0,2.1015177E0,1.0169965E0,1.0023603E0],"tree_param":{"num_deleted":"0","num_feature":"59","num_nodes":"33","size_leaf_vector":"1"}},{"base_weights":[1.2040564E-1,-2.2755237E-1,2.5377348E-1,5.759818E-1,-6.2141913E-1,5.612306E-1,3.4664482E-2,-5.467064E-3,8.422484E-2,3.8871058E-5,-1.01540744E-1,1.573158E-1,8.9304453E-1,6.4701587E-1,-1.4393625E-1,4.7206875E-2,-4.819472E-2,5.9138983E-1,-3.6868736E-1,2.168742E-2,1.0009437E-1,8.6619094E-2,4.48995E-3,-4.6094725E-1,3.9193663E-1,5.4028565E-3,7.82723E-2,-7.7925675E-2,2.2155982E-2,-6.785284E-2,2.5677344E-2,6.521123E-2,-2.0157455E-2],"categories":[],"categories_nodes":[],"categories_segments":[],"categories_sizes":[],"default_left":[0,0,0,0,0,0,0,0,0,0,0,0,0,0,0,0,0,0,0,0,0,0,0,0,0,0,0,0,0,0,0,0,0],"id":24,"left_children":[1,3,5,7,9,11,13,-1,-1,15,-1,17,19,21,23,-1,-1,25,27,-1,-1,-1,-1,29,31,-1,-1,-1,-1,-1,-1,-1,-1],"loss_changes":[1.5951003E0,3.4298913E0,1.6257421E0,6.693343E-1,1.7126775E0,1.2126482E0,1.769207E0,0E0,0E0,1.072464E0,0E0,1.5348327E0,1.717143E-1,4.4180703E-1,2.3351908E0,0E0,0E0,3.2205975E-1,9.5382094E-1,0E0,0E0,0E0,0E0,1.4904051E0,9.4284624E-1,0E0,0E0,0E0,0E0,0E0,0E0,0E0,0E0],"parents":[2147483647,0,0,1,1,2,2,3,3,4,4,5,5,6,6,9,9,11,11,12,12,13,13,14,14,17,17,18,18,23,23,24,24],"right_children":[2,4,6,8,10,12,14,-1,-1,16,-1,18,20,22,24,-1,-1,26,28,-1,-1,-1,-1,30,32,-1,-1,-1,-1,-1,-1,-1,-1],"split_conditions":[9.230983E-2,6.3933626E-2,1.2807642E-1,8.722025E-2,4.5292553E-1,1.2180157E-1,1.2753314E-1,-5.467064E-3,8.422484E-2,6.059815E-1,-1.01540744E-1,1.0841526E-1,1.1919522E-1,1.3358432E-1,2.232448E-1,4.7206875E-2,-4.819472E-2,1.3641119E-1,6.4337283E-1,2.168742E-2,1.0009437E-1,8.6619094E-2,4.48995E-3,9.0086603E-1,3.333333E-1,5.4028565E-3,7.82723E-2,-7.7925675E-2,2.2155982E-2,-6.785284E-2,2.5677344E-2,6.521123E-2,-2.0157455E-2],"split_indices":[43,43,43,52,40,52,11,0,0,8,0,49,11,49,43,0,0,11,42,0,0,0,0,4,43,0,0,0,0,0,0,0,0],"split_type":[0,0,0,0,0,0,0,0,0,0,0,0,0,0,0,0,0,0,0,0,0,0,0,0,0,0,0,0,0,0,0,0,0],"sum_hessian":[3.212804E1,8.706499E0,2.3421543E1,2.7117782E0,5.994721E0,9.096197E0,1.4325345E1,1.0409546E0,1.6708236E0,2.71388E0,3.2808409E0,4.767212E0,4.328985E0,2.6425138E0,1.1682832E1,1.3814965E0,1.3323835E0,2.543735E0,2.223477E0,1.0099448E0,3.3190403E0,1.6157801E0,1.0267336E0,7.428254E0,4.254577E0,1.0046221E0,1.5391128E0,1.1224748E0,1.101002E0,5.742108E0,1.6861461E0,2.8892772E0,1.3652999E0],"tree_param":{"num_deleted":"0","num_feature":"59","num_nodes":"33","size_leaf_vector":"1"}},{"base_weights":[-2.0173034E-3,4.2390713E-1,-2.0433825E-1,-7.062851E-2,7.3848486E-1,-2.7907118E-1,6.845068E-2,5.0423974E-1,-7.559921E-2,-1.7054621E-2,9.414526E-1,6.62418E-2,-3.6138135E-1,-2.2671497E-3,7.457893E-2,1.04412034E-1,2.5018424E-2,2.2132692E-1,-4.845534E-1,8.1308596E-2,-5.736493E-2,3.5413016E-2,-6.0574688E-2],"categories":[],"categories_nodes":[],"categories_segments":[],"categories_sizes":[],"default_left":[0,0,0,0,0,0,0,0,0,0,0,0,0,0,0,0,0,0,0,0,0,0,0],"id":25,"left_children":[1,3,5,7,9,11,-1,13,-1,-1,15,-1,17,-1,-1,-1,-1,19,21,-1,-1,-1,-1],"loss_changes":[2.8524678E0,1.7107797E0,1.6812737E0,2.373966E0,1.3789744E0,1.8981556E0,0E0,4.4334948E-1,0E0,0E0,1.3279057E-1,0E0,1.5664856E0,0E0,0E0,0E0,0E0,2.458308E0,1.952311E0,0E0,0E0,0E0,0E0],"parents":[2147483647,0,0,1,1,2,2,3,3,4,4,5,5,7,7,10,10,12,12,17,17,18,18],"right_children":[2,4,6,8,10,12,-1,14,-1,-1,16,-1,18,-1,-1,-1,-1,20,22,-1,-1,-1,-1],"split_conditions":[4.3209586E-1,6.388408E-1,9.8314947E-1,4.84591E-1,2.6622152E-1,2.2039375E-1,6.845068E-2,3.0335537E-1,-7.559921E-2,-1.7054621E-2,7.229256E-1,6.62418E-2,2.6614094E-1,-2.2671497E-3,7.457893E-2,1.04412034E-1,2.5018424E-2,5.446536E-1,6.3933626E-2,8.1308596E-2,-5.736493E-2,3.5413016E-2,-6.0574688E-2],"split_indices":[40,54,15,20,47,15,0,33,0,0,31,0,41,0,0,0,0,40,43,0,0,0,0],"split_type":[0,0,0,0,0,0,0,0,0,0,0,0,0,0,0,0,0,0,0,0,0,0,0],"sum_hessian":[3.1096289E1,9.661583E0,2.1434708E1,4.057859E0,5.6037235E0,2.0405102E1,1.0296047E0,2.3505456E0,1.7073133E0,1.0519767E0,4.551747E0,1.0738822E0,1.933122E1,1.0236715E0,1.3268743E0,3.5187047E0,1.0330421E0,3.2341335E0,1.6097086E1,1.8409781E0,1.3931553E0,1.7897341E0,1.4307352E1],"tree_param":{"num_deleted":"0","num_feature":"59","num_nodes":"23","size_leaf_vector":"1"}},{"base_weights":[-1.15915544E-1,-2.1369243E-1,5.509498E-1,5.9349727E-2,-2.9059938E-1,-7.5280243E-3,8.6283855E-2,2.8423738E-2,-5.7521003E-1,5.43756E-1,-2.550455E-1,6.740751E-2,-8.4678984E-1,7.843988E-2,-1.9203385E-2,-7.963486E-2,1.2131123E-2,5.3465206E-2,-7.380628E-2,-9.775574E-2,9.607107E-3],"categories":[],"categories_nodes":[],"categories_segments":[],"categories_sizes":[],"default_left":[0,0,0,0,0,0,0,0,0,0,0,0,0,0,0,0,0,0,0,0,0],"id":26,"left_children":[1,3,5,-1,7,-1,-1,9,11,13,15,17,19,-1,-1,-1,-1,-1,-1,-1,-1],"loss_changes":[2.1094296E0,1.8709496E0,8.8242567E-1,0E0,2.3454337E0,0E0,0E0,2.044666E0,2.4312744E0,1.026986E0,1.9500873E0,2.2641678E0,1.2820406E0,0E0,0E0,0E0,0E0,0E0,0E0,0E0,0E0],"parents":[2147483647,0,0,1,1,2,2,4,4,7,7,8,8,9,9,10,10,11,11,12,12],"right_children":[2,4,6,-1,8,-1,-1,10,12,14,16,18,20,-1,-1,-1,-1,-1,-1,-1,-1],"split_conditions":[2.629157E-1,1.6889745E-1,5.8780783E-1,5.9349727E-2,3.8659024E-1,-7.5280243E-3,8.6283855E-2,5.4933083E-1,1.04022875E-1,6.9502974E-1,6.85951E-1,6.619103E-1,7.086984E-1,7.843988E-2,-1.9203385E-2,-7.963486E-2,1.2131123E-2,5.3465206E-2,-7.380628E-2,-9.775574E-2,9.607107E-3],"split_indices":[55,15,48,0,50,0,0,16,49,42,16,42,48,0,0,0,0,0,0,0,0],"split_type":[0,0,0,0,0,0,0,0,0,0,0,0,0,0,0,0,0,0,0,0,0],"sum_hessian":[2.9545603E1,2.6360186E1,3.1854167E0,1.7087401E0,2.4651445E1,1.3112457E0,1.874171E0,1.2047456E1,1.260399E1,3.949412E0,8.098043E0,3.967591E0,8.636399E0,2.9262938E0,1.0231184E0,2.8635464E0,5.234497E0,2.7237797E0,1.2438112E0,7.552172E0,1.0842268E0],"tree_param":{"num_deleted":"0","num_feature":"59","num_nodes":"21","size_leaf_vector":"1"}},{"base_weights":[5.7371613E-3,2.4468186E-1,-1.9433053E-1,6.656784E-1,-2.9990983E-1,2.9839292E-1,-4.621472E-1,-1.9460635E-2,8.158038E-1,-4.81441E-1,3.82805E-2,5.520892E-1,-5.6712072E-2,-6.322866E-1,6.025495E-2,-1.4516616E-2,1.0037215E-1,1.8556295E-2,-6.75529E-1,8.2306683E-1,-3.0389769E-2,2.844666E-2,-7.663287E-1,-1.0649236E-2,-9.342771E-2,3.238201E-2,9.632104E-2,-8.737384E-2,-1.5665703E-3],"categories":[],"categories_nodes":[],"categories_segments":[],"categories_sizes":[],"default_left":[0,0,0,0,0,0,0,0,0,0,0,0,0,0,0,0,0,0,0,0,0,0,0,0,0,0,0,0,0],"id":27,"left_children":[1,3,5,7,9,11,13,-1,15,17,-1,19,-1,21,-1,-1,-1,-1,23,25,-1,-1,27,-1,-1,-1,-1,-1,-1],"loss_changes":[1.5437346E0,3.5712287E0,2.4593253E0,1.2700489E0,1.0643625E0,1.8067743E0,2.5166066E0,0E0,1.5034642E0,9.0888906E-1,0E0,1.5878603E0,0E0,1.5270762E0,0E0,0E0,0E0,0E0,6.2251997E-1,1.3448715E-2,0E0,0E0,7.5750875E-1,0E0,0E0,0E0,0E0,0E0,0E0],"parents":[2147483647,0,0,1,1,2,2,3,3,4,4,5,5,6,6,8,8,9,9,11,11,13,13,18,18,19,19,22,22],"right_children":[2,4,6,8,10,12,14,-1,16,18,-1,20,-1,22,-1,-1,-1,-1,24,26,-1,-1,28,-1,-1,-1,-1,-1,-1],"split_conditions":[3.8659024E-1,5.8753985E-1,1.04022875E-1,3.838727E-2,2.6601744E-1,7.9613644E-1,7.152132E-1,-1.9460635E-2,8.7847725E-2,2.5971508E-1,3.82805E-2,9.374051E-1,-5.6712072E-2,8.91888E-2,6.025495E-2,-1.4516616E-2,1.0037215E-1,1.8556295E-2,9.55867E-2,5.348851E-1,-3.0389769E-2,2.844666E-2,6.84555E-1,-1.0649236E-2,-9.342771E-2,3.238201E-2,9.632104E-2,-8.737384E-2,-1.5665703E-3],"split_indices":[50,19,49,25,3,10,48,0,43,41,0,3,0,16,0,0,0,0,52,19,0,0,18,0,0,0,0,0,0],"split_type":[0,0,0,0,0,0,0,0,0,0,0,0,0,0,0,0,0,0,0,0,0,0,0,0,0,0,0,0,0],"sum_hessian":[3.0297602E1,1.3705665E1,1.6591936E1,7.6045923E0,6.101073E0,5.8024826E0,1.07894535E1,1.0858581E0,6.5187345E0,5.052458E0,1.0486149E0,4.7672486E0,1.0352339E0,9.653027E0,1.1364269E0,1.1034473E0,5.415287E0,1.1487119E0,3.903746E0,3.6501794E0,1.1170694E0,1.0882114E0,8.564815E0,1.6614549E0,2.242291E0,1.5256922E0,2.1244872E0,7.3492775E0,1.2155373E0],"tree_param":{"num_deleted":"0","num_feature":"59","num_nodes":"29","size_leaf_vector":"1"}},{"base_weights":[-2.3359135E-2,3.9426523E-1,-1.9005029E-1,7.0929354E-1,-1.3590328E-1,-2.9833594E-1,6.469076E-2,8.460223E-2,9.004836E-3,4.667156E-2,-5.6843102E-2,1.8276615E-1,-4.6641847E-1,-4.3277282E-2,4.003593E-1,-1.1781699E-1,-8.5737526E-1,7.483371E-2,-3.3147305E-2,4.9000498E-2,-3.7498653E-2,1.0710376E-2,-1.0403025E-1],"categories":[],"categories_nodes":[],"categories_segments":[],"categories_sizes":[],"default_left":[0,0,0,0,0,0,0,0,0,0,0,0,0,0,0,0,0,0,0,0,0,0,0],"id":28,"left_children":[1,3,5,7,9,11,-1,-1,-1,-1,-1,13,15,-1,17,19,21,-1,-1,-1,-1,-1,-1],"loss_changes":[2.1853082E0,1.5951283E0,2.2178469E0,4.140153E-1,1.3558185E0,1.7402868E0,0E0,0E0,0E0,0E0,0E0,9.792421E-1,2.0045257E0,0E0,1.5125482E0,1.6415687E0,1.3681078E0,0E0,0E0,0E0,0E0,0E0,0E0],"parents":[2147483647,0,0,1,1,2,2,3,3,4,4,5,5,11,11,12,12,14,14,15,15,16,16],"right_children":[2,4,6,8,10,12,-1,-1,-1,-1,-1,14,16,-1,18,20,22,-1,-1,-1,-1,-1,-1],"split_conditions":[3.711537E-1,4.1711235E-1,9.6894276E-1,6.8571633E-1,1.6090524E-1,4.5425624E-1,6.469076E-2,8.460223E-2,9.004836E-3,4.667156E-2,-5.6843102E-2,6.296289E-2,6.423929E-1,-4.3277282E-2,1.9305585E-1,7.453114E-2,9.469943E-2,7.483371E-2,-3.3147305E-2,4.9000498E-2,-3.7498653E-2,1.0710376E-2,-1.0403025E-1],"split_indices":[14,44,15,1,15,19,0,0,0,0,0,36,54,0,43,49,36,0,0,0,0,0,0],"split_type":[0,0,0,0,0,0,0,0,0,0,0,0,0,0,0,0,0,0,0,0,0,0,0],"sum_hessian":[2.9315298E1,7.9734774E0,2.1341822E1,4.7896085E0,3.1838691E0,1.9466757E1,1.8750632E0,3.623359E0,1.1662492E0,1.2973273E0,1.886542E0,5.0175834E0,1.4449174E1,1.0521886E0,3.965395E0,8.32629E0,6.122884E0,2.6722283E0,1.2931664E0,2.2063024E0,6.119988E0,1.0422342E0,5.08065E0],"tree_param":{"num_deleted":"0","num_feature":"59","num_nodes":"23","size_leaf_vector":"1"}},{"base_weights":[1.7489407E-2,-4.8581872E-2,7.719749E-2,3.8941422E-1,-1.7076991E-1,8.312092E-2,-3.9907292E-1,-2.4322446E-1,4.4980686E-2,-6.748291E-2,8.219146E-3,5.8239445E-2,-4.5150706E-1,-2.8423265E-2,4.1560676E-2,1.0756814E-2,-6.408451E-2],"categories":[],"categories_nodes":[],"categories_segments":[],"categories_sizes":[],"default_left":[0,0,0,0,0,0,0,0,0,0,0,0,0,0,0,0,0],"id":29,"left_children":[1,3,-1,5,7,-1,9,11,-1,-1,-1,13,15,-1,-1,-1,-1],"loss_changes":[1.5642638E0,1.6239711E0,0E0,2.649138E0,1.163769E0,0E0,4.621695E-1,1.3854901E0,0E0,0E0,0E0,1.3090445E0,1.4361632E0,0E0,0E0,0E0,0E0],"parents":[2147483647,0,0,1,1,3,3,4,4,6,6,7,7,11,11,12,12],"right_children":[2,4,-1,6,8,-1,10,12,-1,-1,-1,14,16,-1,-1,-1,-1],"split_conditions":[9.689428E-1,5.8045775E-1,7.719749E-2,6.471268E-1,7.31143E-1,8.312092E-2,5.5544716E-1,6.287076E-1,4.4980686E-2,-6.748291E-2,8.219146E-3,1.2730949E-1,9.509866E-2,-2.8423265E-2,4.1560676E-2,1.0756814E-2,-6.408451E-2],"split_indices":[17,0,0,8,48,0,0,48,0,0,0,52,52,0,0,0,0],"split_type":[0,0,0,0,0,0,0,0,0,0,0,0,0,0,0,0,0],"sum_hessian":[2.9627188E1,2.8101877E1,1.5253087E0,5.652583E0,2.2449295E1,3.588012E0,2.064571E0,2.0646778E1,1.8025175E0,1.0568268E0,1.0077442E0,8.730629E0,1.1916148E1,4.562727E0,4.1679025E0,3.1238754E0,8.792273E0],"tree_param":{"num_deleted":"0","num_feature":"59","num_nodes":"17","size_leaf_vector":"1"}},{"base_weights":[5.444664E-3,-6.4479396E-2,7.901248E-2,-1.8391263E-1,3.1690383E-1,3.665948E-1,-4.032045E-1,9.3894266E-2,8.787988E-2,-3.318275E-2,7.6674126E-2,2.168248E-1,-6.5688616E-1,-5.0461747E-2,2.7276668E-1,-1.9911591E-2,5.5245366E-2,1.45088835E-2,-8.3987586E-2,4.432526E-2,-3.491731E-2],"categories":[],"categories_nodes":[],"categories_segments":[],"categories_sizes":[],"default_left":[0,0,0,0,0,0,0,0,0,0,0,0,0,0,0,0,0,0,0,0,0],"id":30,"left_children":[1,-1,3,5,7,9,11,13,-1,-1,-1,15,17,-1,19,-1,-1,-1,-1,-1,-1],"loss_changes":[1.4534483E0,0E0,1.7614201E0,1.7856402E0,1.7548132E0,1.4809083E0,1.7433864E0,1.3812377E0,0E0,0E0,0E0,6.2752277E-1,1.2182863E0,0E0,1.1718795E0,0E0,0E0,0E0,0E0,0E0,0E0],"parents":[2147483647,0,0,2,2,3,3,4,4,5,5,6,6,7,7,11,11,12,12,14,14],"right_children":[2,-1,4,6,8,10,12,14,-1,-1,-1,16,18,-1,20,-1,-1,-1,-1,-1,-1],"split_conditions":[5.346613E-1,-6.4479396E-2,1.17269754E-1,4.4851536E-1,8.9153737E-1,3.6076507E-1,8.338563E-2,2.3859245E-1,8.787988E-2,-3.318275E-2,7.6674126E-2,5.290265E-1,2.5E-1,-5.0461747E-2,7.683545E-1,-1.9911591E-2,5.5245366E-2,1.45088835E-2,-8.3987586E-2,4.432526E-2,-3.491731E-2],"split_indices":[54,0,55,16,15,10,52,35,0,0,0,33,56,0,35,0,0,0,0,0,0],"split_type":[0,0,0,0,0,0,0,0,0,0,0,0,0,0,0,0,0,0,0,0,0],"sum_hessian":[2.8318565E1,2.089107E0,2.6229458E1,1.2566958E1,1.3662499E1,3.388583E0,9.178375E0,1.0616169E1,3.046331E0,1.296458E0,2.092125E0,2.707122E0,6.471253E0,2.023703E0,8.592465E0,1.3905582E0,1.316564E0,1.2407281E0,5.230525E0,6.9693394E0,1.623126E0],"tree_param":{"num_deleted":"0","num_feature":"59","num_nodes":"21","size_leaf_vector":"1"}},{"base_weights":[6.2445212E-2,-6.838157E-2,3.6795613E-1,9.844632E-2,-6.698827E-1,-9.972495E-2,7.493716E-1,4.2803103E-1,-1.6137195E-1,-9.739134E-2,-2.799562E-3,-3.857177E-1,3.874555E-2,8.58991E-2,1.6630324E-2,6.1587214E-1,-3.310267E-2,-6.7092013E-1,7.468279E-2,2.8523167E-3,-5.6132622E-2,7.4730344E-2,-4.77636E-3,-8.875368E-2,-1.0390953E-2,-6.890173E-2,2.9979575E-2],"categories":[],"categories_nodes":[],"categories_segments":[],"categories_sizes":[],"default_left":[0,0,0,0,0,0,0,0,0,0,0,0,0,0,0,0,0,0,0,0,0,0,0,0,0,0,0],"id":31,"left_children":[1,3,5,7,9,11,13,15,17,-1,-1,19,-1,-1,-1,21,-1,23,25,-1,-1,-1,-1,-1,-1,-1,-1],"loss_changes":[1.2279749E0,2.2649531E0,1.7122079E0,1.6128181E0,9.263184E-1,8.4694517E-1,1.8782115E-1,1.3759913E0,1.3499838E0,0E0,0E0,2.8192562E-1,0E0,0E0,0E0,6.409724E-1,0E0,3.403144E-1,1.6309761E0,0E0,0E0,0E0,0E0,0E0,0E0,0E0,0E0],"parents":[2147483647,0,0,1,1,2,2,3,3,4,4,5,5,6,6,7,7,8,8,11,11,15,15,17,17,18,18],"right_children":[2,4,6,8,10,12,14,16,18,-1,-1,20,-1,-1,-1,22,-1,24,26,-1,-1,-1,-1,-1,-1,-1,-1],"split_conditions":[6.8562216E-1,6.535032E-1,1.17269754E-1,5.1201856E-1,2.1479866E-1,5.7586676E-1,7.2659E-1,5.680915E-1,6.646662E-1,-9.739134E-2,-2.799562E-3,9.893328E-2,3.874555E-2,8.58991E-2,1.6630324E-2,1E0,-3.310267E-2,5.3093725E-1,5.5151796E-1,2.8523167E-3,-5.6132622E-2,7.4730344E-2,-4.77636E-3,-8.875368E-2,-1.0390953E-2,-6.890173E-2,2.9979575E-2],"split_indices":[48,48,55,18,25,31,18,40,10,0,0,46,0,0,0,58,0,16,54,0,0,0,0,0,0,0,0],"split_type":[0,0,0,0,0,0,0,0,0,0,0,0,0,0,0,0,0,0,0,0,0,0,0,0,0,0,0],"sum_hessian":[2.9093653E1,2.091398E1,8.179672E0,1.702765E1,3.8863301E0,4.0060744E0,4.1735983E0,7.2206655E0,9.806984E0,2.2862017E0,1.6001283E0,2.6554773E0,1.350597E0,3.1147804E0,1.0588176E0,5.939481E0,1.2811849E0,2.52161E0,7.285374E0,1.0399432E0,1.6155341E0,4.8524013E0,1.0870795E0,1.4155371E0,1.1060729E0,1.189434E0,6.09594E0],"tree_param":{"num_deleted":"0","num_feature":"59","num_nodes":"27","size_leaf_vector":"1"}},{"base_weights":[-9.0034164E-2,2.6740235E-1,-2.6072058E-1,4.3638915E-1,-3.230289E-2,-3.6586088E-1,5.5117693E-2,6.6939235E-1,-1.5528265E-2,4.0256053E-2,-5.068635E-1,8.60322E-2,-8.449554E-4,3.4092825E-2,-4.0542375E-2,2.7840838E-1,-5.193183E-2,-7.3606575E-1,-1.9659415E-2,-5.0538518E-2,6.9894284E-2,-8.3581604E-2,2.8048763E-3,4.8011612E-2,-3.8619082E-2],"categories":[],"categories_nodes":[],"categories_segments":[],"categories_sizes":[],"default_left":[0,0,0,0,0,0,0,0,0,0,0,0,0,0,0,0,0,0,0,0,0,0,0,0,0],"id":32,"left_children":[1,3,5,7,-1,9,-1,11,13,15,17,-1,-1,-1,-1,19,-1,21,23,-1,-1,-1,-1,-1,-1],"loss_changes":[1.8000591E0,1.1047993E0,1.8834587E0,8.4602535E-1,0E0,1.0536647E0,0E0,6.878669E-1,6.492563E-1,8.8775206E-1,1.489397E0,0E0,0E0,0E0,0E0,1.8571959E0,0E0,7.1943045E-1,1.1628969E0,0E0,0E0,0E0,0E0,0E0,0E0],"parents":[2147483647,0,0,1,1,2,2,3,3,5,5,7,7,8,8,9,9,10,10,15,15,17,17,18,18],"right_children":[2,4,6,8,-1,10,-1,12,14,16,18,-1,-1,-1,-1,20,-1,22,24,-1,-1,-1,-1,-1,-1],"split_conditions":[4.3209586E-1,5.8706886E-1,9.6894276E-1,6.619103E-1,-3.230289E-2,6.400976E-1,5.5117693E-2,6.9000894E-1,6.494723E-1,5.680915E-1,6.292174E-1,8.60322E-2,-8.449554E-4,3.4092825E-2,-4.0542375E-2,5.745996E-1,-5.193183E-2,2.9568428E-1,8.7847725E-2,-5.0538518E-2,6.9894284E-2,-8.3581604E-2,2.8048763E-3,4.8011612E-2,-3.8619082E-2],"split_indices":[40,19,15,42,0,10,0,45,51,40,18,0,0,0,0,51,0,55,52,0,0,0,0,0,0],"split_type":[0,0,0,0,0,0,0,0,0,0,0,0,0,0,0,0,0,0,0,0,0,0,0,0,0],"sum_hessian":[2.7361818E1,8.660056E0,1.8701761E1,6.9358506E0,1.7242059E0,1.7043953E1,1.6578078E0,4.2588243E0,2.6770263E0,4.576674E0,1.2467279E1,3.1128204E0,1.146004E0,1.4640915E0,1.2129347E0,3.5628185E0,1.0138555E0,8.131206E0,4.336074E0,1.1736317E0,2.389187E0,7.109296E0,1.0219096E0,1.7034638E0,2.6326098E0],"tree_param":{"num_deleted":"0","num_feature":"59","num_nodes":"25","size_leaf_vector":"1"}},{"base_weights":[-6.2534064E-2,-1.6864191E-1,4.8020357E-1,3.255776E-2,-4.030832E-1,8.6837865E-2,-2.3588689E-2,-1.9677964E-1,5.7238024E-1,-5.8324414E-1,1.2656583E-1,-4.79569E-1,2.8445676E-1,8.957986E-2,-2.5591657E-2,1.6806824E-2,-7.071596E-1,-4.815638E-2,5.306802E-2,-1.0329765E-2,-9.322477E-2,-3.2956496E-2,5.9409976E-2,-8.2615845E-2,-6.926936E-3],"categories":[],"categories_nodes":[],"categories_segments":[],"categories_sizes":[],"default_left":[0,0,0,0,0,0,0,0,0,0,0,0,0,0,0,0,0,0,0,0,0,0,0,0,0],"id":33,"left_children":[1,3,5,7,9,-1,-1,11,13,15,17,19,21,-1,-1,-1,23,-1,-1,-1,-1,-1,-1,-1,-1],"loss_changes":[1.7318007E0,1.1790571E0,1.5801435E0,1.8739924E0,1.1702812E0,0E0,0E0,1.5965593E0,1.4341847E0,9.336977E-1,1.1742337E0,1.1182235E0,1.0701817E0,0E0,0E0,0E0,5.276685E-1,0E0,0E0,0E0,0E0,0E0,0E0,0E0,0E0],"parents":[2147483647,0,0,1,1,2,2,3,3,4,4,7,7,8,8,9,9,10,10,11,11,12,12,16,16],"right_children":[2,4,6,8,10,-1,-1,12,14,16,18,20,22,-1,-1,-1,24,-1,-1,-1,-1,-1,-1,-1,-1],"split_conditions":[7.123127E-1,4.1729212E-1,5.8391577E-1,3.7177086E-1,6.963253E-1,8.6837865E-2,-2.3588689E-2,6.562808E-1,6.574011E-1,6.156313E-2,6.353436E-1,5.354466E-1,2.680683E-1,8.957986E-2,-2.5591657E-2,1.6806824E-2,2.1390225E-1,-4.815638E-2,5.306802E-2,-1.0329765E-2,-9.322477E-2,-3.2956496E-2,5.9409976E-2,-8.2615845E-2,-6.926936E-3],"split_indices":[45,44,19,27,33,0,0,51,51,49,48,40,47,0,0,0,49,0,0,0,0,0,0,0,0],"split_type":[0,0,0,0,0,0,0,0,0,0,0,0,0,0,0,0,0,0,0,0,0,0,0,0,0],"sum_hessian":[2.7665648E1,2.3717949E1,3.947699E0,1.3227292E1,1.0490657E1,2.422082E0,1.5256172E0,9.729359E0,3.4979331E0,7.752457E0,2.7382002E0,6.130407E0,3.5989516E0,2.457053E0,1.0408803E0,1.0471516E0,6.7053056E0,1.0166487E0,1.7215514E0,4.018434E0,2.111973E0,1.1849192E0,2.4140325E0,5.402351E0,1.3029549E0],"tree_param":{"num_deleted":"0","num_feature":"59","num_nodes":"25","size_leaf_vector":"1"}},{"base_weights":[7.759625E-3,4.192621E-1,-1.0040993E-1,6.683275E-1,-3.5799783E-2,5.577402E-2,-5.014258E-1,8.276536E-2,1.3163094E-2,2.5033746E-2,-3.0490786E-2,-6.2979974E-2,1.801727E-1,3.4401312E-2,-7.444626E-1,-4.395882E-2,2.8914276E-1,-9.746223E-2,-1.786537E-2,-3.225183E-2,4.6549864E-2],"categories":[],"categories_nodes":[],"categories_segments":[],"categories_sizes":[],"default_left":[0,0,0,0,0,0,0,0,0,0,0,0,0,0,0,0,0,0,0,0,0],"id":34,"left_children":[1,3,5,7,9,11,13,-1,-1,-1,-1,-1,15,-1,17,-1,19,-1,-1,-1,-1],"loss_changes":[1.3101504E0,7.1790266E-1,1.4913622E0,2.3377585E-1,3.161892E-1,1.6243366E0,1.6223572E0,0E0,0E0,0E0,0E0,0E0,1.1922932E0,0E0,5.3961134E-1,0E0,1.6621495E0,0E0,0E0,0E0,0E0],"parents":[2147483647,0,0,1,1,2,2,3,3,4,4,5,5,6,6,12,12,14,14,16,16],"right_children":[2,4,6,8,10,12,14,-1,-1,-1,-1,-1,16,-1,18,-1,20,-1,-1,-1,-1],"split_conditions":[2.3419224E-1,4.9188852E-1,6.9502974E-1,6.245311E-1,6.447435E-1,2.839868E-1,2.0764351E-1,8.276536E-2,1.3163094E-2,2.5033746E-2,-3.0490786E-2,-6.2979974E-2,7.677215E-2,3.4401312E-2,1.2272848E-1,-4.395882E-2,4.4538844E-1,-9.746223E-2,-1.786537E-2,-3.225183E-2,4.6549864E-2],"split_indices":[32,7,42,18,48,32,47,0,0,0,0,0,21,0,36,0,18,0,0,0,0],"split_type":[0,0,0,0,0,0,0,0,0,0,0,0,0,0,0,0,0,0,0,0,0],"sum_hessian":[2.7487848E1,5.122954E0,2.2364895E1,3.0079722E0,2.1149814E0,1.6715582E1,5.649312E0,1.9013913E0,1.106581E0,1.0588639E0,1.0561175E0,1.9432702E0,1.4772312E1,1.1686199E0,4.4806924E0,1.7552732E0,1.3017038E1,2.6714647E0,1.8092275E0,2.7276933E0,1.0289346E1],"tree_param":{"num_deleted":"0","num_feature":"59","num_nodes":"21","size_leaf_vector":"1"}},{"base_weights":[2.9183162E-2,-1.3480978E-1,3.3364892E-1,8.795562E-2,-5.015863E-1,7.321835E-2,7.2556384E-2,7.3968583E-1,-2.2464365E-1,1.6412092E-2,-6.5123385E-1,-2.831558E-1,6.7265056E-2,2.1432718E-2,8.513373E-2,-4.5852268E-1,4.680438E-2,-2.4418123E-3,-9.005898E-2,2.6475767E-2,-6.315111E-1,1.8108461E-2,-6.220829E-2,-7.5703844E-2,-1.8243955E-2],"categories":[],"categories_nodes":[],"categories_segments":[],"categories_sizes":[],"default_left":[0,0,0,0,0,0,0,0,0,0,0,0,0,0,0,0,0,0,0,0,0,0,0,0,0],"id":35,"left_children":[1,3,5,7,9,-1,11,13,15,-1,17,19,-1,-1,-1,21,-1,-1,-1,-1,23,-1,-1,-1,-1],"loss_changes":[1.3888485E0,1.5315653E0,9.572296E-1,2.6469662E0,8.0704045E-1,0E0,1.6796777E0,6.273627E-2,1.6721102E0,0E0,9.06363E-1,1.137553E0,0E0,0E0,0E0,8.691046E-1,0E0,0E0,0E0,0E0,5.3734064E-2,0E0,0E0,0E0,0E0],"parents":[2147483647,0,0,1,1,2,2,3,3,4,4,6,6,7,7,8,8,10,10,11,11,15,15,20,20],"right_children":[2,4,6,8,10,-1,12,14,16,-1,18,20,-1,-1,-1,22,-1,-1,-1,-1,24,-1,-1,-1,-1],"split_conditions":[4.4402337E-1,3.8659024E-1,9.660651E-2,4.4258112E-1,1.0095517E-1,7.321835E-2,1.4425156E-1,2.522149E-1,6.456108E-1,1.6412092E-2,6.000254E-1,7.2927564E-2,6.7265056E-2,2.1432718E-2,8.513373E-2,5.798445E-1,4.680438E-2,-2.4418123E-3,-9.005898E-2,2.6475767E-2,6.3519657E-1,1.8108461E-2,-6.220829E-2,-7.5703844E-2,-1.8243955E-2],"split_indices":[24,50,36,19,49,0,52,22,33,0,0,49,0,0,0,0,0,0,0,0,51,0,0,0,0],"split_type":[0,0,0,0,0,0,0,0,0,0,0,0,0,0,0,0,0,0,0,0,0,0,0,0,0],"sum_hessian":[2.5914944E1,1.7205078E1,8.709865E0,1.1176881E1,6.028198E0,2.7333465E0,5.976518E0,3.180239E0,7.996642E0,1.0886445E0,4.9395533E0,4.0838943E0,1.8926239E0,1.0691464E0,2.1110926E0,6.230895E0,1.7657471E0,1.7182491E0,3.2213042E0,1.6805717E0,2.4033225E0,1.247065E0,4.98383E0,1.3423223E0,1.061E0],"tree_param":{"num_deleted":"0","num_feature":"59","num_nodes":"25","size_leaf_vector":"1"}},{"base_weights":[7.744004E-2,1.965636E-1,-3.7614024E-1,3.033978E-1,-3.0691475E-1,-5.93938E-1,2.6397878E-2,-9.9016756E-2,4.4660187E-1,-6.1454233E-2,2.8744593E-2,-8.488431E-2,-9.300899E-3,-3.873549E-1,3.7887845E-2,7.374422E-2,6.9285613E-1,1.659616E-2,-6.351742E-2,-2.7095849E-2,5.0058104E-2,8.353518E-2,4.3273885E-3],"categories":[],"categories_nodes":[],"categories_segments":[],"categories_sizes":[],"default_left":[0,0,0,0,0,0,0,0,0,0,0,0,0,0,0,0,0,0,0,0,0,0,0],"id":36,"left_children":[1,3,5,7,9,11,-1,13,15,-1,-1,-1,-1,17,-1,19,21,-1,-1,-1,-1,-1,-1],"loss_changes":[1.4882493E0,1.2435325E0,9.636966E-1,1.0899665E0,9.520786E-1,5.1175797E-1,0E0,9.158426E-1,1.1944458E0,0E0,0E0,0E0,0E0,6.5054667E-1,0E0,1.0941684E0,7.090318E-1,0E0,0E0,0E0,0E0,0E0,0E0],"parents":[2147483647,0,0,1,1,2,2,3,3,4,4,5,5,7,7,8,8,13,13,15,15,16,16],"right_children":[2,4,6,8,10,12,-1,14,16,-1,-1,-1,-1,18,-1,20,22,-1,-1,-1,-1,-1,-1],"split_conditions":[8.110847E-1,5.46473E-1,1.65586E-1,5.930515E-1,3.5961938E-1,1.1343512E-1,2.6397878E-2,4.77897E-1,5E-1,-6.1454233E-2,2.8744593E-2,-8.488431E-2,-9.300899E-3,6.007269E-1,3.7887845E-2,6.5370935E-1,6.153966E-1,1.659616E-2,-6.351742E-2,-2.7095849E-2,5.0058104E-2,8.353518E-2,4.3273885E-3],"split_indices":[26,40,55,54,24,46,0,14,56,0,0,0,0,51,0,42,11,0,0,0,0,0,0],"split_type":[0,0,0,0,0,0,0,0,0,0,0,0,0,0,0,0,0,0,0,0,0,0,0],"sum_hessian":[2.5175434E1,2.038767E1,4.7877636E0,1.7146675E1,3.2409952E0,3.6261325E0,1.1616315E0,4.581333E0,1.2565342E1,2.1132631E0,1.1277322E0,1.942914E0,1.6832184E0,2.9755132E0,1.6058202E0,5.514783E0,7.0505595E0,1.0226071E0,1.952906E0,3.2529647E0,2.2618182E0,5.547622E0,1.5029372E0],"tree_param":{"num_deleted":"0","num_feature":"59","num_nodes":"23","size_leaf_vector":"1"}},{"base_weights":[-5.7607633E-3,4.523283E-1,-9.919362E-2,-8.656446E-3,7.862872E-2,-3.1607008E-1,2.4248002E-1,8.1677414E-2,-5.14769E-1,-3.0415154E-1,5.233806E-1,-4.6557393E-2,3.2882982E-1,2.3885367E-2,-6.906485E-1,-7.399116E-2,1.96346E-2,7.339503E-1,-1.3689741E-2,6.903856E-2,-2.8818412E-2,-8.319723E-2,9.801945E-3,2.0845342E-2,8.856517E-2],"categories":[],"categories_nodes":[],"categories_segments":[],"categories_sizes":[],"default_left":[0,0,0,0,0,0,0,0,0,0,0,0,0,0,0,0,0,0,0,0,0,0,0,0,0],"id":37,"left_children":[1,3,5,-1,-1,7,9,11,13,15,17,-1,19,-1,21,-1,-1,23,-1,-1,-1,-1,-1,-1,-1],"loss_changes":[1.1385632E0,8.79507E-1,1.7101573E0,0E0,0E0,1.1420966E0,1.5603853E0,8.9699805E-1,1.4134269E0,9.5878446E-1,9.896555E-1,0E0,1.1749423E0,0E0,9.6136594E-1,0E0,0E0,2.1446943E-1,0E0,0E0,0E0,0E0,0E0,0E0,0E0],"parents":[2147483647,0,0,1,1,2,2,5,5,6,6,7,7,8,8,9,9,10,10,12,12,14,14,17,17],"right_children":[2,4,6,-1,-1,8,10,12,14,16,18,-1,20,-1,22,-1,-1,24,-1,-1,-1,-1,-1,-1,-1],"split_conditions":[2.6614094E-1,5E-1,4.5294023E-1,-8.656446E-3,7.862872E-2,4.3200892E-1,2.3859245E-1,2.980611E-1,7.843548E-2,7.8714356E-2,7.086984E-1,-4.6557393E-2,7.471021E-1,2.3885367E-2,7.082286E-1,-7.399116E-2,1.96346E-2,2.1843535E-1,-1.3689741E-2,6.903856E-2,-2.8818412E-2,-8.319723E-2,9.801945E-3,2.0845342E-2,8.856517E-2],"split_indices":[41,56,53,0,0,40,35,33,55,52,51,0,16,0,54,0,0,19,0,0,0,0,0,0,0],"split_type":[0,0,0,0,0,0,0,0,0,0,0,0,0,0,0,0,0,0,0,0,0,0,0,0,0],"sum_hessian":[2.4553286E1,3.5088146E0,2.1044472E1,1.6259285E0,1.882886E0,1.29190645E1,8.125407E0,4.500028E0,8.419036E0,2.7300215E0,5.3953853E0,1.1250844E0,3.3749437E0,1.5252914E0,6.8937445E0,1.2036804E0,1.526341E0,4.006191E0,1.3891948E0,2.0530124E0,1.3219315E0,5.799591E0,1.0941538E0,1.4292703E0,2.5769203E0],"tree_param":{"num_deleted":"0","num_feature":"59","num_nodes":"25","size_leaf_vector":"1"}},{"base_weights":[-3.792189E-2,6.757433E-2,-4.0470085E-1,-1.6028855E-2,7.090279E-2,3.6509734E-2,-6.3429505E-1,2.1422315E-1,-3.9692885E-1,-7.9757564E-2,-6.1489856E-3,3.5779026E-1,-1.7907329E-1,3.9302487E-2,-5.742258E-1,-1.2667551E-2,5.6898367E-2,1.5062153E-2,-4.251356E-2,-7.4003585E-2,7.2577153E-4],"categories":[],"categories_nodes":[],"categories_segments":[],"categories_sizes":[],"default_left":[0,0,0,0,0,0,0,0,0,0,0,0,0,0,0,0,0,0,0,0,0],"id":38,"left_children":[1,3,5,7,-1,-1,9,11,13,-1,-1,15,17,-1,19,-1,-1,-1,-1,-1,-1],"loss_changes":[1.0394018E0,1.1466503E0,1.2894919E0,1.8133682E0,0E0,0E0,4.163401E-1,7.9424995E-1,1.3146287E0,0E0,0E0,1.0754948E0,3.986454E-1,0E0,6.567762E-1,0E0,0E0,0E0,0E0,0E0,0E0],"parents":[2147483647,0,0,1,1,2,2,3,3,6,6,7,7,8,8,11,11,12,12,14,14],"right_children":[2,4,6,8,-1,-1,10,12,14,-1,-1,16,18,-1,20,-1,-1,-1,-1,-1,-1],"split_conditions":[7.299428E-1,9.6690565E-1,4.510994E-1,4.8778424E-1,7.090279E-2,3.6509734E-2,2.0902182E-1,1.8482883E-1,1.1195205E-1,-7.9757564E-2,-6.1489856E-3,9.035766E-2,5.0943255E-1,3.9302487E-2,6.6456705E-1,-1.2667551E-2,5.6898367E-2,1.5062153E-2,-4.251356E-2,-7.4003585E-2,7.2577153E-4],"split_indices":[31,17,3,40,0,0,55,55,25,0,0,55,18,0,51,0,0,0,0,0,0],"split_type":[0,0,0,0,0,0,0,0,0,0,0,0,0,0,0,0,0,0,0,0,0],"sum_hessian":[2.515547E1,2.0169813E1,4.9856577E0,1.8706705E1,1.4631073E0,1.0097888E0,3.9758692E0,1.1931665E1,6.77504E0,2.7885718E0,1.1872972E0,8.807056E0,3.1246092E0,1.0188318E0,5.7562084E0,2.7952054E0,6.011851E0,1.5011352E0,1.6234739E0,4.266848E0,1.4893605E0],"tree_param":{"num_deleted":"0","num_feature":"59","num_nodes":"21","size_leaf_vector":"1"}},{"base_weights":[-3.693956E-2,-2.168901E-1,2.7386054E-1,-4.2609486E-1,1.338911E-1,-8.1192434E-2,8.210817E-2,-6.876311E-1,8.5410416E-2,-2.611133E-1,4.765929E-1,-5.902835E-1,3.83452E-1,-6.5948293E-3,-7.9618967E-1,3.4415895E-1,-3.731189E-2,1.6516097E-2,-5.234396E-2,6.7283645E-2,-2.2257904E-3,-7.460051E-2,-1.801393E-2,5.886178E-2,-5.991633E-3,-1.9865347E-2,-8.986159E-2,-2.1944696E-3,5.287301E-2],"categories":[],"categories_nodes":[],"categories_segments":[],"categories_sizes":[],"default_left":[0,0,0,0,0,0,0,0,0,0,0,0,0,0,0,0,0,0,0,0,0,0,0,0,0,0,0,0,0],"id":39,"left_children":[1,3,5,7,9,11,-1,13,15,17,19,21,23,-1,25,27,-1,-1,-1,-1,-1,-1,-1,-1,-1,-1,-1,-1,-1],"loss_changes":[1.3922666E0,1.2055981E0,1.8503927E0,1.4022591E0,1.0189527E0,1.7586881E0,0E0,4.0343165E-1,6.3707167E-1,5.019599E-1,3.9600462E-1,8.819246E-2,3.984908E-1,0E0,1.679666E-1,2.3194814E-1,0E0,0E0,0E0,0E0,0E0,0E0,0E0,0E0,0E0,0E0,0E0,0E0,0E0],"parents":[2147483647,0,0,1,1,2,2,3,3,4,4,5,5,7,7,8,8,9,9,10,10,11,11,12,12,14,14,15,15],"right_children":[2,4,6,8,10,12,-1,14,16,18,20,22,24,-1,26,28,-1,-1,-1,-1,-1,-1,-1,-1,-1,-1,-1,-1,-1],"split_conditions":[4.5294023E-1,1.4299658E-1,1.4425156E-1,6.7041767E-1,4.649656E-1,5E-1,8.210817E-2,5.009489E-1,8.22463E-1,6.6022927E-1,6.7195284E-1,6.50033E-1,6.017785E-1,-6.5948293E-3,7.843548E-2,1.6888571E-1,-3.731189E-2,1.6516097E-2,-5.234396E-2,6.7283645E-2,-2.2257904E-3,-7.460051E-2,-1.801393E-2,5.886178E-2,-5.991633E-3,-1.9865347E-2,-8.986159E-2,-2.1944696E-3,5.287301E-2],"split_indices":[53,46,52,51,8,56,0,18,26,1,51,1,53,0,49,3,0,0,0,0,0,0,0,0,0,0,0,0,0],"split_type":[0,0,0,0,0,0,0,0,0,0,0,0,0,0,0,0,0,0,0,0,0,0,0,0,0,0,0,0,0],"sum_hessian":[2.2831596E1,1.46509695E1,8.180627E0,9.043033E0,5.6079373E0,5.477981E0,2.702646E0,5.755749E0,3.2872827E0,2.7157679E0,2.8921697E0,2.4849403E0,2.993041E0,1.0946285E0,4.661121E0,2.2608893E0,1.0263935E0,1.1756926E0,1.5400752E0,1.8253286E0,1.0668411E0,1.2075706E0,1.2773696E0,1.8222175E0,1.1708237E0,1.1122035E0,3.5489175E0,1.0531104E0,1.2077789E0],"tree_param":{"num_deleted":"0","num_feature":"59","num_nodes":"29","size_leaf_vector":"1"}},{"base_weights":[-1.3110871E-2,1.8309757E-1,-2.2191595E-1,5.2819085E-1,-3.24557E-1,-6.766832E-1,-2.392263E-2,-6.7563996E-2,8.1925124E-1,2.4895925E-2,-5.8674455E-1,-2.0732205E-2,-7.8518875E-2,6.345298E-2,-2.029506E-1,3.200053E-2,-5.2421805E-2,2.0629471E-2,9.053104E-2,1.0247078E-2,-8.148396E-2,1.4487264E-1,-4.518389E-1,4.870511E-2,-2.7560383E-2,1.8343333E-2,-6.6793345E-2],"categories":[],"categories_nodes":[],"categories_segments":[],"categories_sizes":[],"default_left":[0,0,0,0,0,0,0,0,0,0,0,0,0,0,0,0,0,0,0,0,0,0,0,0,0,0,0],"id":40,"left_children":[1,3,5,7,9,11,13,15,17,-1,19,-1,-1,-1,21,-1,-1,-1,-1,-1,-1,23,25,-1,-1,-1,-1],"loss_changes":[1.083177E0,2.5657473E0,1.1345196E0,1.5321808E0,1.0708833E0,3.2761812E-2,1.3005362E0,8.259815E-1,1.1907339E-1,0E0,7.938558E-1,0E0,0E0,0E0,8.0760837E-1,0E0,0E0,0E0,0E0,0E0,0E0,7.576526E-1,8.418534E-1,0E0,0E0,0E0,0E0],"parents":[2147483647,0,0,1,1,2,2,3,3,4,4,5,5,6,6,7,7,8,8,10,10,14,14,21,21,22,22],"right_children":[2,4,6,8,10,12,14,16,18,-1,20,-1,-1,-1,22,-1,-1,-1,-1,-1,-1,24,26,-1,-1,-1,-1],"split_conditions":[3.894372E-1,4.422766E-1,4.5458937E-1,1.0310614E-1,8.9242145E-2,5.088462E-1,1.2720391E-1,3.6851788E-1,1.1650398E-1,2.4895925E-2,5.125464E-1,-2.0732205E-2,-7.8518875E-2,6.345298E-2,6.3771725E-1,3.200053E-2,-5.2421805E-2,2.0629471E-2,9.053104E-2,1.0247078E-2,-8.148396E-2,4.7565812E-1,2.5E-1,4.870511E-2,-2.7560383E-2,1.8343333E-2,-6.6793345E-2],"split_indices":[5,32,2,21,52,15,11,32,39,0,16,0,0,0,51,0,0,0,0,0,0,40,56,0,0,0,0],"split_type":[0,0,0,0,0,0,0,0,0,0,0,0,0,0,0,0,0,0,0,0,0,0,0,0,0,0,0],"sum_hessian":[2.4446962E1,1.2667127E1,1.1779836E1,7.5168624E0,5.150264E0,2.839692E0,8.940144E0,2.71912E0,4.7977424E0,1.6316347E0,3.5186293E0,1.0797473E0,1.7599448E0,1.3672369E0,7.572907E0,1.6326792E0,1.0864409E0,1.0089091E0,3.788833E0,1.0118781E0,2.506751E0,3.3329735E0,4.2399335E0,1.7502835E0,1.5826899E0,1.1145463E0,3.1253874E0],"tree_param":{"num_deleted":"0","num_feature":"59","num_nodes":"27","size_leaf_vector":"1"}},{"base_weights":[2.6782963E-2,2.3197052E-1,-1.5452933E-1,-2.2134423E-1,4.3177477E-1,4.1346326E-1,-3.6878315E-1,1.6859874E-2,-5.688854E-2,-2.0868705E-1,6.7399734E-1,-5.2980497E-3,6.77795E-2,-6.187645E-1,5.198745E-2,2.638301E-2,-5.537383E-2,8.821097E-2,-1.703926E-2,-1.8023805E-1,-8.193941E-2,-4.509858E-2,4.1823128E-1,1.4812459E-2,-4.4174936E-2,6.673546E-2,-2.8714284E-3],"categories":[],"categories_nodes":[],"categories_segments":[],"categories_sizes":[],"default_left":[0,0,0,0,0,0,0,0,0,0,0,0,0,0,0,0,0,0,0,0,0,0,0,0,0,0,0],"id":41,"left_children":[1,3,5,7,9,11,13,-1,-1,15,17,-1,-1,19,21,-1,-1,-1,-1,23,-1,-1,25,-1,-1,-1,-1],"loss_changes":[9.587571E-1,1.1858406E0,1.8282251E0,6.8456185E-1,1.4893489E0,5.590556E-1,1.1394581E0,0E0,0E0,6.5955836E-1,1.3003476E0,0E0,0E0,4.4014192E-1,1.0812683E0,0E0,0E0,0E0,0E0,3.556103E-1,0E0,0E0,3.8914704E-1,0E0,0E0,0E0,0E0],"parents":[2147483647,0,0,1,1,2,2,3,3,4,4,5,5,6,6,9,9,10,10,13,13,14,14,19,19,22,22],"right_children":[2,4,6,8,10,12,14,-1,-1,16,18,-1,-1,20,22,-1,-1,-1,-1,24,-1,-1,26,-1,-1,-1,-1],"split_conditions":[6.059815E-1,2.5937262E-1,7.2927564E-2,6.4229536E-1,9.928864E-2,5E-1,1.3442098E-1,1.6859874E-2,-5.688854E-2,6.9485176E-1,7.218716E-1,-5.2980497E-3,6.77795E-2,5.463261E-1,5.49356E-1,2.638301E-2,-5.537383E-2,8.821097E-2,-1.703926E-2,5.166831E-1,-8.193941E-2,-4.509858E-2,6.7250925E-1,1.4812459E-2,-4.4174936E-2,6.673546E-2,-2.8714284E-3],"split_indices":[8,8,49,51,21,56,49,0,0,10,42,0,0,19,29,0,0,0,0,44,0,0,54,0,0,0,0],"split_type":[0,0,0,0,0,0,0,0,0,0,0,0,0,0,0,0,0,0,0,0,0,0,0,0,0,0,0],"sum_hessian":[2.3807413E1,1.103731E1,1.27701025E1,3.3435886E0,7.693721E0,3.2430112E0,9.527092E0,1.8183131E0,1.5252755E0,2.1492715E0,5.5444493E0,1.4622574E0,1.7807537E0,5.681275E0,3.8458169E0,1.0064356E0,1.1428359E0,4.4123015E0,1.1321479E0,2.3792303E0,3.3020446E0,1.5229392E0,2.3228776E0,1.2470162E0,1.1322141E0,1.1748706E0,1.148007E0],"tree_param":{"num_deleted":"0","num_feature":"59","num_nodes":"27","size_leaf_vector":"1"}},{"base_weights":[7.3515843E-3,4.0951502E-1,-9.467985E-2,-3.6723737E-2,7.234074E-2,2.7784777E-1,-2.294549E-1,5.7106507E-1,-3.2601323E-2,4.6895962E-2,-3.3049226E-1,7.952138E-3,7.8097165E-2,-5.6377834E-1,6.9448985E-2,1.6952936E-2,-6.9541164E-2,3.6828168E-2,-4.3535367E-2],"categories":[],"categories_nodes":[],"categories_segments":[],"categories_sizes":[],"default_left":[0,0,0,0,0,0,0,0,0,0,0,0,0,0,0,0,0,0,0],"id":42,"left_children":[1,3,5,-1,-1,7,9,11,-1,-1,13,-1,-1,15,17,-1,-1,-1,-1],"loss_changes":[1.0503482E0,1.5278031E0,1.0917981E0,0E0,0E0,1.229453E0,1.2546732E0,3.8462365E-1,0E0,0E0,1.3641052E0,0E0,0E0,9.9425125E-1,1.0838519E0,0E0,0E0,0E0,0E0],"parents":[2147483647,0,0,1,1,2,2,5,5,6,6,7,7,10,10,13,13,14,14],"right_children":[2,4,6,-1,-1,8,10,12,-1,-1,14,-1,-1,16,18,-1,-1,-1,-1],"split_conditions":[7.822631E-2,3.460462E-1,1.1879635E-1,-3.6723737E-2,7.234074E-2,7.329412E-1,6.372446E-2,1.157359E-1,-3.2601323E-2,4.6895962E-2,1.6670153E-1,7.952138E-3,7.8097165E-2,1.7593002E-1,5.222811E-1,1.6952936E-2,-6.9541164E-2,3.6828168E-2,-4.3535367E-2],"split_indices":[49,44,25,0,0,31,43,52,0,0,46,0,0,5,40,0,0,0,0],"split_type":[0,0,0,0,0,0,0,0,0,0,0,0,0,0,0,0,0,0,0],"sum_hessian":[2.3652544E1,4.176598E0,1.9475946E1,1.1531318E0,3.023466E0,4.8921466E0,1.4583799E1,3.3296676E0,1.5624793E0,1.3829302E0,1.3200869E1,1.409005E0,1.9206625E0,8.078828E0,5.1220407E0,1.1856838E0,6.893144E0,3.3872836E0,1.7347572E0],"tree_param":{"num_deleted":"0","num_feature":"59","num_nodes":"19","size_leaf_vector":"1"}},{"base_weights":[7.142934E-3,4.4959864E-1,-1.2356593E-1,5.689813E-1,2.6739144E-3,4.8892017E-2,-2.2441998E-1,7.574608E-2,1.1737862E-3,-3.0035073E-1,4.6933748E-2,3.7231486E-2,-3.8092446E-1,-7.101626E-2,-1.4056613E-2],"categories":[],"categories_nodes":[],"categories_segments":[],"categories_sizes":[],"default_left":[0,0,0,0,0,0,0,0,0,0,0,0,0,0,0],"id":43,"left_children":[1,3,5,7,-1,-1,9,-1,-1,11,-1,-1,13,-1,-1],"loss_changes":[1.3668965E0,2.567072E-1,1.2394154E0,4.2711186E-1,0E0,0E0,1.0042417E0,0E0,0E0,9.7546256E-1,0E0,0E0,1.026269E0,0E0,0E0],"parents":[2147483647,0,0,1,1,2,2,3,3,6,6,9,9,12,12],"right_children":[2,4,6,8,-1,-1,10,-1,-1,12,-1,-1,14,-1,-1],"split_conditions":[3.8871595E-1,5.250415E-1,6.3933626E-2,6.8442035E-1,2.6739144E-3,4.8892017E-2,6.091965E-1,7.574608E-2,1.1737862E-3,7.882118E-3,4.6933748E-2,3.7231486E-2,1.7366177E-1,-7.101626E-2,-1.4056613E-2],"split_indices":[15,21,43,10,0,0,40,0,0,3,0,0,21,0,0],"split_type":[0,0,0,0,0,0,0,0,0,0,0,0,0,0,0],"sum_hessian":[2.167467E1,4.386492E0,1.7288177E1,3.1512635E0,1.2352283E0,1.9002389E0,1.53879385E1,2.0863025E0,1.0649611E0,1.4381023E1,1.0069155E0,1.1510177E0,1.3230006E1,4.757996E0,8.47201E0],"tree_param":{"num_deleted":"0","num_feature":"59","num_nodes":"15","size_leaf_vector":"1"}},{"base_weights":[3.7878167E-2,4.9378556E-1,-3.750814E-2,5.481146E-3,6.849878E-2,-5.3368086E-1,1.04435444E-1,-5.9976997E-3,-7.315066E-2,2.9707247E-1,-2.527737E-1,-4.113808E-2,6.346126E-1,1.2928009E-1,-7.3544055E-2,-3.8080964E-2,3.3464976E-2,8.335475E-2,-1.4633528E-2,4.177163E-2,-3.498326E-2],"categories":[],"categories_nodes":[],"categories_segments":[],"categories_sizes":[],"default_left":[0,0,0,0,0,0,0,0,0,0,0,0,0,0,0,0,0,0,0,0,0],"id":44,"left_children":[1,3,5,-1,-1,7,9,-1,-1,11,13,15,17,19,-1,-1,-1,-1,-1,-1,-1],"loss_changes":[8.05047E-1,2.4092263E-1,1.5042312E0,0E0,0E0,4.001838E-1,1.2330759E0,0E0,0E0,1.3266438E0,1.2819117E0,9.7367007E-1,1.017252E0,7.601154E-1,0E0,0E0,0E0,0E0,0E0,0E0,0E0],"parents":[2147483647,0,0,1,1,2,2,5,5,6,6,9,9,10,10,11,11,12,12,13,13],"right_children":[2,4,6,-1,-1,8,10,-1,-1,12,14,16,18,20,-1,-1,-1,-1,-1,-1,-1],"split_conditions":[6.3933626E-2,6.9183147E-1,9.035766E-2,5.481146E-3,6.849878E-2,6.0526097E-1,4.496026E-1,-5.9976997E-3,-7.315066E-2,1.7080757E-1,2.9470783E-1,4.8564544E-1,4.667163E-1,5.867946E-1,-7.3544055E-2,-3.8080964E-2,3.3464976E-2,8.335475E-2,-1.4633528E-2,4.177163E-2,-3.498326E-2],"split_indices":[43,10,43,0,0,8,32,0,0,39,35,33,41,50,0,0,0,0,0,0,0],"split_type":[0,0,0,0,0,0,0,0,0,0,0,0,0,0,0,0,0,0,0,0,0],"sum_hessian":[2.1884634E1,2.3177435E0,1.956689E1,1.093617E0,1.2241265E0,3.7385933E0,1.5828297E1,1.4852548E0,2.2533383E0,1.0392269E1,5.436028E0,5.629606E0,4.762663E0,3.4429352E0,1.9930927E0,2.9498746E0,2.6797311E0,3.742072E0,1.0205908E0,2.229109E0,1.2138262E0],"tree_param":{"num_deleted":"0","num_feature":"59","num_nodes":"21","size_leaf_vector":"1"}},{"base_weights":[4.029791E-2,-1.8940888E-2,6.413405E-2,8.710759E-2,-3.2744527E-1,-8.862128E-2,3.4431916E-1,-5.7336116E-1,1.0431497E-2,1.3867946E-1,-5.457908E-1,-7.666024E-2,6.22789E-1,-7.76993E-2,-8.936397E-3,4.2896684E-2,-2.6789067E-2,-7.619719E-2,-7.0433193E-3,3.0294452E-2,-5.4187268E-2,8.017292E-2,8.665356E-3],"categories":[],"categories_nodes":[],"categories_segments":[],"categories_sizes":[],"default_left":[0,0,0,0,0,0,0,0,0,0,0,0,0,0,0,0,0,0,0,0,0,0,0],"id":45,"left_children":[1,3,-1,5,7,9,11,13,-1,15,17,19,21,-1,-1,-1,-1,-1,-1,-1,-1,-1,-1],"loss_changes":[8.304866E-1,7.447856E-1,0E0,8.026292E-1,6.7676896E-1,1.2129369E0,8.845748E-1,3.1060374E-1,0E0,1.0717323E0,3.4062707E-1,8.23284E-1,3.5322118E-1,0E0,0E0,0E0,0E0,0E0,0E0,0E0,0E0,0E0,0E0],"parents":[2147483647,0,0,1,1,3,3,4,4,5,5,6,6,7,7,9,9,10,10,11,11,12,12],"right_children":[2,4,-1,6,8,10,12,14,-1,16,18,20,22,-1,-1,-1,-1,-1,-1,-1,-1,-1,-1],"split_conditions":[8.2324445E-1,6.953721E-1,6.413405E-2,5.7880986E-1,1.389528E-1,5.7694614E-1,6.401556E-1,6.358825E-1,1.0431497E-2,4.8202136E-1,9.6911386E-2,6.471268E-1,6.423929E-1,-7.76993E-2,-8.936397E-3,4.2896684E-2,-2.6789067E-2,-7.619719E-2,-7.0433193E-3,3.0294452E-2,-5.4187268E-2,8.017292E-2,8.665356E-3],"split_indices":[33,42,0,18,46,16,9,51,0,18,55,8,45,0,0,0,0,0,0,0,0,0,0],"split_type":[0,0,0,0,0,0,0,0,0,0,0,0,0,0,0,0,0,0,0,0,0,0,0],"sum_hessian":[2.1983797E1,2.0893063E1,1.0907353E0,1.6082384E1,4.810679E0,9.944013E0,6.1383705E0,2.8560236E0,1.9546554E0,7.107087E0,2.8369257E0,2.7323797E0,3.4059908E0,1.5841557E0,1.2718679E0,4.114374E0,2.9927127E0,1.5356193E0,1.3013066E0,1.6967043E0,1.0356753E0,2.1822572E0,1.2237339E0],"tree_param":{"num_deleted":"0","num_feature":"59","num_nodes":"23","size_leaf_vector":"1"}},{"base_weights":[-2.5282562E-2,-1.23252295E-1,4.1573912E-1,4.2042132E-2,-2.0867345E-1,7.360163E-2,-3.4734625E-3,2.6884708E-1,-3.012308E-1,5.810954E-2,-1.3126862E-2,-4.4488823E-1,7.7211775E-2,-6.0240235E-2,-5.6238854E-3,-4.0467184E-2,4.6780523E-2],"categories":[],"categories_nodes":[],"categories_segments":[],"categories_sizes":[],"default_left":[0,0,0,0,0,0,0,0,0,0,0,0,0,0,0,0,0],"id":46,"left_children":[1,3,5,-1,7,-1,-1,9,11,-1,-1,13,15,-1,-1,-1,-1],"loss_changes":[1.0530022E0,1.0045893E0,6.665776E-1,0E0,8.646135E-1,0E0,0E0,5.0193727E-1,8.673978E-1,0E0,0E0,6.5510654E-1,1.1432588E0,0E0,0E0,0E0,0E0],"parents":[2147483647,0,0,1,1,2,2,4,4,7,7,8,8,11,11,12,12],"right_children":[2,4,6,-1,8,-1,-1,10,12,-1,-1,14,16,-1,-1,-1,-1],"split_conditions":[2.232448E-1,6.3933626E-2,6.382512E-1,4.2042132E-2,3.8871595E-1,7.360163E-2,-3.4734625E-3,4.0667725E-1,1.4299658E-1,5.810954E-2,-1.3126862E-2,4.4402337E-1,4.2870685E-1,-6.0240235E-2,-5.6238854E-3,-4.0467184E-2,4.6780523E-2],"split_indices":[43,43,48,0,15,0,0,50,46,0,0,24,33,0,0,0,0],"split_type":[0,0,0,0,0,0,0,0,0,0,0,0,0,0,0,0,0],"sum_hessian":[2.2185287E1,1.8742344E1,3.4429438E0,2.0124032E0,1.672994E1,1.6417927E0,1.8011513E0,2.4070203E0,1.432292E1,1.0979034E0,1.309117E0,1.0254658E1,4.068262E0,6.9058323E0,3.3488255E0,1.8051573E0,2.263105E0],"tree_param":{"num_deleted":"0","num_feature":"59","num_nodes":"17","size_leaf_vector":"1"}},{"base_weights":[-5.2092522E-2,3.2730898E-1,-1.5159559E-1,5.5590016E-1,-2.655746E-2,-4.45315E-1,1.03533216E-1,8.4381684E-4,7.4623555E-2,-6.1945015E-1,1.1213891E-2,7.120016E-2,-6.6494346E-2,-5.963624E-3,-8.061962E-1,1.0573009E-1,-5.6770265E-2,-2.1420108E-2,-8.9978464E-2,6.1771244E-2,-3.3797726E-2],"categories":[],"categories_nodes":[],"categories_segments":[],"categories_sizes":[],"default_left":[0,0,0,0,0,0,0,0,0,0,0,0,0,0,0,0,0,0,0,0,0],"id":47,"left_children":[1,3,5,7,-1,9,11,-1,-1,13,-1,-1,15,-1,17,19,-1,-1,-1,-1,-1],"loss_changes":[9.1098714E-1,8.3302885E-1,1.4518721E0,4.0772128E-1,0E0,9.3427014E-1,1.1699104E0,0E0,0E0,6.776221E-1,0E0,0E0,8.7103504E-1,0E0,9.1229916E-2,1.9887865E0,0E0,0E0,0E0,0E0,0E0],"parents":[2147483647,0,0,1,1,2,2,3,3,5,5,6,6,9,9,12,12,14,14,15,15],"right_children":[2,4,6,8,-1,10,12,-1,-1,14,-1,-1,16,-1,18,20,-1,-1,-1,-1,-1],"split_conditions":[3.7720162E-1,4.496026E-1,6.85951E-1,7.746747E-2,-2.655746E-2,1.6465257E-1,4.7759154E-1,8.4381684E-4,7.4623555E-2,4.8202136E-1,1.1213891E-2,7.120016E-2,7.115669E-1,-5.963624E-3,6.089067E-1,6.423929E-1,-5.6770265E-2,-2.1420108E-2,-8.9978464E-2,6.1771244E-2,-3.3797726E-2],"split_indices":[15,32,16,9,0,36,20,0,0,18,0,0,31,0,0,45,0,0,0,0,0],"split_type":[0,0,0,0,0,0,0,0,0,0,0,0,0,0,0,0,0,0,0,0,0],"sum_hessian":[2.1816732E1,4.05723E0,1.7759502E1,2.9732485E0,1.0839815E0,7.9088798E0,9.850622E0,1.0364473E0,1.9368013E0,5.9416413E0,1.9672384E0,1.4552461E0,8.395376E0,1.8162783E0,4.125363E0,6.835591E0,1.5597856E0,1.0120949E0,3.1132681E0,2.9915533E0,3.8440373E0],"tree_param":{"num_deleted":"0","num_feature":"59","num_nodes":"21","size_leaf_vector":"1"}},{"base_weights":[-9.705878E-3,2.5622714E-1,-1.9911484E-1,4.5117936E-1,-2.750839E-1,-5.366355E-1,8.5989915E-2,6.4997387E-1,-1.8623237E-2,1.9212101E-3,-4.42008E-2,1.2540414E-2,-7.264207E-1,-3.0490607E-1,2.8471556E-1,-1.0049702E-2,8.337693E-2,-8.8548765E-2,-1.8373562E-2,1.7282482E-2,-6.4827256E-2,4.8626634E-1,-1.6185198E-2,7.328166E-4,6.526429E-2],"categories":[],"categories_nodes":[],"categories_segments":[],"categories_sizes":[],"default_left":[0,0,0,0,0,0,0,0,0,0,0,0,0,0,0,0,0,0,0,0,0,0,0,0,0],"id":48,"left_children":[1,3,5,7,9,11,13,15,-1,-1,-1,-1,17,19,21,-1,-1,-1,-1,-1,-1,23,-1,-1,-1],"loss_changes":[1.1408991E0,1.1016856E0,1.3163277E0,1.0439271E0,1.6346438E-1,8.678744E-1,7.096044E-1,8.8027716E-1,0E0,0E0,0E0,0E0,2.6478744E-1,6.3449895E-1,6.0364354E-1,0E0,0E0,0E0,0E0,0E0,0E0,3.353325E-1,0E0,0E0,0E0],"parents":[2147483647,0,0,1,1,2,2,3,3,4,4,5,5,6,6,7,7,12,12,13,13,14,14,21,21],"right_children":[2,4,6,8,10,12,14,16,-1,-1,-1,-1,18,20,22,-1,-1,-1,-1,-1,-1,24,-1,-1,-1],"split_conditions":[3.8615084E-1,6.436305E-1,4.5294023E-1,6.2145126E-1,8.338563E-2,4.1678724E-1,2.1626607E-1,9.6657574E-2,-1.8623237E-2,1.9212101E-3,-4.42008E-2,1.2540414E-2,4.4277644E-1,5.76231E-1,5.0505686E-1,-1.0049702E-2,8.337693E-2,-8.8548765E-2,-1.8373562E-2,1.7282482E-2,-6.4827256E-2,1.3136333E-1,-1.6185198E-2,7.328166E-4,6.526429E-2],"split_indices":[50,8,53,33,49,40,25,21,0,0,0,0,24,50,40,0,0,0,0,0,0,21,0,0,0],"split_type":[0,0,0,0,0,0,0,0,0,0,0,0,0,0,0,0,0,0,0,0,0,0,0,0,0],"sum_hessian":[2.0637451E1,8.437834E0,1.2199616E1,6.283184E0,2.1546495E0,5.18231E0,7.0173063E0,4.774436E0,1.5087482E0,1.1000712E0,1.0545783E0,1.2301905E0,3.9521196E0,2.1850257E0,4.8322806E0,1.0284195E0,3.7460165E0,2.5677931E0,1.3843265E0,1.1214339E0,1.0635918E0,3.2682936E0,1.5639871E0,1.1118176E0,2.156476E0],"tree_param":{"num_deleted":"0","num_feature":"59","num_nodes":"25","size_leaf_vector":"1"}},{"base_weights":[-5.4320777E-3,2.195498E-1,-2.4464865E-1,4.9296468E-1,-9.086832E-2,9.41047E-2,-4.6991938E-1,7.001105E-2,1.5169866E-1,-5.514815E-2,2.5501224E-1,-3.021362E-1,5.4149844E-2,-5.89565E-1,1.1603089E-2,-2.1301072E-2,5.1959276E-2,6.087788E-2,-3.870837E-2,-5.3920425E-2,3.984547E-3,-6.8684065E-1,-8.700449E-3,-1.17088435E-2,-8.10688E-2],"categories":[],"categories_nodes":[],"categories_segments":[],"categories_sizes":[],"default_left":[0,0,0,0,0,0,0,0,0,0,0,0,0,0,0,0,0,0,0,0,0,0,0,0,0],"id":49,"left_children":[1,3,5,7,9,11,13,-1,15,-1,17,19,-1,21,-1,-1,-1,-1,-1,-1,-1,23,-1,-1,-1],"loss_changes":[1.2578138E0,1.0680714E0,9.0779227E-1,3.5795653E-1,1.1746938E0,1.1125501E0,5.5659366E-1,0E0,6.147345E-1,0E0,1.2330198E0,3.0366826E-1,0E0,2.309804E-1,0E0,0E0,0E0,0E0,0E0,0E0,0E0,2.4643469E-1,0E0,0E0,0E0],"parents":[2147483647,0,0,1,1,2,2,3,3,4,4,5,5,6,6,8,8,10,10,11,11,13,13,21,21],"right_children":[2,4,6,8,10,12,14,-1,16,-1,18,20,-1,22,-1,-1,-1,-1,-1,-1,-1,24,-1,-1,-1],"split_conditions":[3.7565422E-1,4.3392318E-1,6.3057953E-1,5.6067574E-1,2.6622152E-1,5.706024E-1,2.406749E-1,7.001105E-2,7.886226E-1,-5.514815E-2,3.376956E-1,1.1074361E-1,5.4149844E-2,6.822538E-1,1.1603089E-2,-2.1301072E-2,5.1959276E-2,6.087788E-2,-3.870837E-2,-5.3920425E-2,3.984547E-3,1.3439998E-1,-8.700449E-3,-1.17088435E-2,-8.10688E-2],"split_indices":[5,32,42,16,53,44,46,0,10,0,53,36,0,32,0,0,0,0,0,0,0,11,0,0,0],"split_type":[0,0,0,0,0,0,0,0,0,0,0,0,0,0,0,0,0,0,0,0,0,0,0,0,0],"sum_hessian":[2.1373001E1,1.105657E1,1.031643E1,5.565997E0,5.4905725E0,4.3529277E0,5.963503E0,2.809278E0,2.7567194E0,2.0998073E0,3.3907652E0,2.4806118E0,1.8723159E0,4.9471684E0,1.0163347E0,1.5957665E0,1.1609528E0,2.2196977E0,1.1710675E0,1.1244305E0,1.3561811E0,3.8376667E0,1.1095016E0,1.032614E0,2.8050528E0],"tree_param":{"num_deleted":"0","num_feature":"59","num_nodes":"25","size_leaf_vector":"1"}},{"base_weights":[8.864702E-3,2.063328E-1,-1.7925131E-1,-2.522188E-1,3.9817446E-1,1.1826985E-1,-4.9930832E-1,-6.6946566E-2,2.9816164E-2,6.8237895E-1,-5.944586E-2,-2.9545262E-1,3.726709E-1,-7.6008655E-2,2.2043413E-2,8.069689E-2,1.3823399E-2,-4.5057695E-2,2.9674605E-2,9.783811E-3,-5.5655677E-2,-2.6438056E-2,6.842657E-2],"categories":[],"categories_nodes":[],"categories_segments":[],"categories_sizes":[],"default_left":[0,0,0,0,0,0,0,0,0,0,0,0,0,0,0,0,0,0,0,0,0,0,0],"id":50,"left_children":[1,3,5,7,9,11,13,-1,-1,15,17,19,21,-1,-1,-1,-1,-1,-1,-1,-1,-1,-1],"loss_changes":[8.3202916E-1,1.0598794E0,1.1537465E0,1.0789788E0,1.0910941E0,8.22264E-1,1.2429867E0,0E0,0E0,2.3169279E-1,6.929902E-1,3.762998E-1,1.1003838E0,0E0,0E0,0E0,0E0,0E0,0E0,0E0,0E0,0E0,0E0],"parents":[2147483647,0,0,1,1,2,2,3,3,4,4,5,5,6,6,9,9,10,10,11,11,12,12],"right_children":[2,4,6,8,10,12,14,-1,-1,16,18,20,22,-1,-1,-1,-1,-1,-1,-1,-1,-1,-1],"split_conditions":[3.8659024E-1,5.9187084E-1,6.408537E-1,1.0787833E-1,6.194826E-1,1.0095517E-1,7.086984E-1,-6.6946566E-2,2.9816164E-2,4.9935672E-1,6.423929E-1,7.6922655E-1,4.394405E-1,-7.6008655E-2,2.2043413E-2,8.069689E-2,1.3823399E-2,-4.5057695E-2,2.9674605E-2,9.783811E-3,-5.5655677E-2,-2.6438056E-2,6.842657E-2],"split_indices":[50,45,45,36,19,52,45,0,0,11,0,4,50,0,0,0,0,0,0,0,0,0,0],"split_type":[0,0,0,0,0,0,0,0,0,0,0,0,0,0,0,0,0,0,0,0,0,0,0],"sum_hessian":[2.0402685E1,9.906672E0,1.0496015E1,2.8292654E0,7.077406E0,5.7662497E0,4.7297645E0,1.4861994E0,1.343066E0,4.062962E0,3.0144439E0,2.1341689E0,3.632081E0,3.4306955E0,1.2990687E0,2.9129877E0,1.1499746E0,1.310458E0,1.7039858E0,1.1010269E0,1.033142E0,1.2427732E0,2.389308E0],"tree_param":{"num_deleted":"0","num_feature":"59","num_nodes":"23","size_leaf_vector":"1"}},{"base_weights":[-5.449229E-2,1.0499917E-1,-2.6918977E-1,2.1104413E-1,-5.467406E-2,-4.2062098E-1,3.257655E-2,-9.773341E-2,4.6569794E-1,2.7600123E-2,-6.0214084E-1,2.3600787E-1,-3.966038E-1,1.10926226E-1,6.9632185E-1,-7.1893656E-1,-6.54793E-3,-1.4634301E-2,5.4142263E-2,2.8182077E-3,-6.272184E-2,4.7934547E-2,-1.8395027E-2,2.3130924E-2,7.998457E-2,-1.841303E-2,-8.164224E-2],"categories":[],"categories_nodes":[],"categories_segments":[],"categories_sizes":[],"default_left":[0,0,0,0,0,0,0,0,0,0,0,0,0,0,0,0,0,0,0,0,0,0,0,0,0,0,0],"id":51,"left_children":[1,3,5,7,-1,9,-1,11,13,-1,15,17,19,21,23,25,-1,-1,-1,-1,-1,-1,-1,-1,-1,-1,-1],"loss_changes":[7.863142E-1,1.0429829E0,1.012423E0,1.0098982E0,0E0,1.200756E0,0E0,7.289571E-1,4.8688793E-1,0E0,3.7943864E-1,5.038599E-1,3.8341808E-1,5.124947E-1,7.0204735E-3,1.3580585E-1,0E0,0E0,0E0,0E0,0E0,0E0,0E0,0E0,0E0,0E0,0E0],"parents":[2147483647,0,0,1,1,2,2,3,3,5,5,7,7,8,8,10,10,11,11,12,12,13,13,14,14,15,15],"right_children":[2,4,6,8,-1,10,-1,12,14,-1,16,18,20,22,24,26,-1,-1,-1,-1,-1,-1,-1,-1,-1,-1,-1],"split_conditions":[1.3267796E-1,7.3750895E-1,6.976574E-1,5.335736E-1,-5.467406E-2,1.4510152E-1,3.257655E-2,6.1512953E-1,2.3817766E-1,2.7600123E-2,9.0086603E-1,2.7052453E-1,1.2213507E-1,3.5023665E-1,4.1150928E-1,1.451079E-1,-6.54793E-3,-1.4634301E-2,5.4142263E-2,2.8182077E-3,-6.272184E-2,4.7934547E-2,-1.8395027E-2,2.3130924E-2,7.998457E-2,-1.841303E-2,-8.164224E-2],"split_indices":[43,32,54,33,0,31,0,26,25,0,4,11,11,53,47,33,0,0,0,0,0,0,0,0,0,0,0],"split_type":[0,0,0,0,0,0,0,0,0,0,0,0,0,0,0,0,0,0,0,0,0,0,0,0,0,0,0],"sum_hessian":[2.1137733E1,1.24213085E1,8.716424E0,1.126462E1,1.1566893E0,7.1815567E0,1.5348676E0,5.3697734E0,5.894846E0,1.3769001E0,5.8046565E0,2.63626E0,2.7335136E0,2.9057996E0,2.989046E0,4.488222E0,1.3164349E0,1.4019666E0,1.2342933E0,1.2707049E0,1.4628087E0,1.0137002E0,1.8920995E0,1.1332089E0,1.8558372E0,1.1373765E0,3.3508453E0],"tree_param":{"num_deleted":"0","num_feature":"59","num_nodes":"27","size_leaf_vector":"1"}},{"base_weights":[-3.304846E-2,4.1683036E-1,-1.260308E-1,6.605446E-2,8.076395E-3,-5.383447E-1,-2.913722E-2,-1.0774211E-2,-6.7877166E-2,-1.1720176E-1,3.155761E-1,2.9402882E-1,-2.3493153E-1,-8.455458E-3,5.3315252E-2,6.0799867E-2,-2.0444183E-2,-3.703547E-2,3.592532E-2],"categories":[],"categories_nodes":[],"categories_segments":[],"categories_sizes":[],"default_left":[0,0,0,0,0,0,0,0,0,0,0,0,0,0,0,0,0,0,0],"id":52,"left_children":[1,3,5,-1,-1,7,9,-1,-1,11,13,15,17,-1,-1,-1,-1,-1,-1],"loss_changes":[9.2359936E-1,2.5779432E-1,7.044111E-1,0E0,0E0,1.3080144E-1,5.121379E-1,0E0,0E0,7.0796394E-1,3.4593993E-1,6.5347695E-1,1.0033023E0,0E0,0E0,0E0,0E0,0E0,0E0],"parents":[2147483647,0,0,1,1,2,2,5,5,6,6,9,9,10,10,11,11,12,12],"right_children":[2,4,6,-1,-1,8,10,-1,-1,12,14,16,18,-1,-1,-1,-1,-1,-1],"split_conditions":[7.453114E-2,9.893328E-2,9.161264E-2,6.605446E-2,8.076395E-3,4.811111E-1,6.894592E-1,-1.0774211E-2,-6.7877166E-2,6.038096E-1,1.4690092E-1,2.302539E-1,1.9520155E-1,-8.455458E-3,5.3315252E-2,6.0799867E-2,-2.0444183E-2,-3.703547E-2,3.592532E-2],"split_indices":[55,49,55,0,0,16,18,0,0,1,55,39,36,0,0,0,0,0,0],"split_type":[0,0,0,0,0,0,0,0,0,0,0,0,0,0,0,0,0,0,0],"sum_hessian":[1.9823559E1,2.7988613E0,1.7024696E1,1.0626863E0,1.7361748E0,2.372575E0,1.46521225E1,1.0180606E0,1.3545145E0,1.2196311E1,2.4558113E0,2.381218E0,9.815093E0,1.0803639E0,1.3754475E0,1.326176E0,1.0550419E0,8.300086E0,1.5150064E0],"tree_param":{"num_deleted":"0","num_feature":"59","num_nodes":"19","size_leaf_vector":"1"}},{"base_weights":[1.5420899E-1,2.9574877E-1,-3.6783212E-1,3.786216E-1,-1.6311812E-1,2.4319468E-2,-6.088254E-1,4.5351553E-1,-1.9347759E-2,-4.3578226E-2,1.8327098E-2,-1.7121276E-2,-7.248599E-2,-3.875553E-3,5.331231E-1,5.9943534E-2,6.4862915E-3],"categories":[],"categories_nodes":[],"categories_segments":[],"categories_sizes":[],"default_left":[0,0,0,0,0,0,0,0,0,0,0,0,0,0,0,0,0],"id":53,"left_children":[1,3,5,7,9,-1,11,13,-1,-1,-1,-1,-1,-1,15,-1,-1],"loss_changes":[1.5769992E0,6.772897E-1,8.3779407E-1,6.88087E-1,3.7974012E-1,0E0,6.0958147E-2,5.179045E-1,0E0,0E0,0E0,0E0,0E0,0E0,3.0237317E-1,0E0,0E0],"parents":[2147483647,0,0,1,1,2,2,3,3,4,4,6,6,7,7,14,14],"right_children":[2,4,6,8,10,-1,12,