{"learner":{"attributes":{"scikit_learn":"{\"_estimator_type\": \"classifier\"}"},"feature_names":[],"feature_types":[],"gradient_booster":{"model":{"cats":{"enc":[],"feature_segments":[],"sorted_idx":[]},"gbtree_model_param":{"num_parallel_tree":"1","num_trees":"100"},"iteration_indptr":[0,1,2,3,4,5,6,7,8,9,10,11,12,13,14,15,16,17,18,19,20,21,22,23,24,25,26,27,28,29,30,31,32,33,34,35,36,37,38,39,40,41,42,43,44,45,46,47,48,49,50,51,52,53,54,55,56,57,58,59,60,61,62,63,64,65,66,67,68,69,70,71,72,73,74,75,76,77,78,79,80,81,82,83,84,85,86,87,88,89,90,91,92,93,94,95,96,97,98,99,100],"tree_info":[0,0,0,0,0,0,0,0,0,0,0,0,0,0,0,0,0,0,0,0,0,0,0,0,0,0,0,0,0,0,0,0,0,0,0,0,0,0,0,0,0,0,0,0,0,0,0,0,0,0,0,0,0,0,0,0,0,0,0,0,0,0,0,0,0,0,0,0,0,0,0,0,0,0,0,0,0,0,0,0,0,0,0,0,0,0,0,0,0,0,0,0,0,0,0,0,0,0,0,0],"trees":[{"base_weights":[-9.8154254E-2,1.2365098E-1,-2.0266594E-1,-9.857967E-1,2.7359616E-2,-1.2835635E0,1.3803909E-2,-4.992619E-1,3.6140692E-1,-1.8444918E-1,-3.4983096E-1,-7.5396657E-1,5.730198E-2,-9.84065E-3,1.2952153E-1,6.307085E-2,-1.1129413E-1,-9.533323E-2,5.084276E-2,1.0859779E-1,-3.553197E-2],"categories":[],"categories_nodes":[],"categories_segments":[],"categories_sizes":[],"default_left":[0,0,0,0,0,0,0,0,0,0,0,0,0,0,0,0,0,0,0,0,0],"id":0,"left_children":[1,-1,3,5,7,9,-1,11,13,-1,15,17,-1,19,-1,-1,-1,-1,-1,-1,-1],"loss_changes":[6.597805E0,0E0,7.7835064E0,3.4576387E0,6.2065344E0,3.464508E0,0E0,4.1778994E0,7.48015E0,0E0,3.8287911E0,3.3826694E0,0E0,6.596549E0,0E0,0E0,0E0,0E0,0E0,0E0,0E0],"parents":[2147483647,0,0,2,2,3,3,4,4,5,5,7,7,8,8,10,10,11,11,13,13],"right_children":[2,-1,4,6,8,10,-1,12,14,-1,16,18,-1,20,-1,-1,-1,-1,-1,-1,-1],"split_conditions":[4.2881817E-2,1.2365098E-1,8.9189336E-2,7.1138835E-1,1.065012E-1,7.1681124E-1,1.3803909E-2,1.4920479E-1,4.1262436E-1,-1.8444918E-1,1.7619431E-1,6.751261E-1,5.730198E-2,2.2092915E-1,1.2952153E-1,6.307085E-2,-1.1129413E-1,-9.533323E-2,5.084276E-2,1.0859779E-1,-3.553197E-2],"split_indices":[8,0,55,18,39,54,0,43,27,0,21,19,0,14,0,0,0,0,0,0,0],"split_type":[0,0,0,0,0,0,0,0,0,0,0,0,0,0,0,0,0,0,0,0,0],"sum_hessian":[4.450361E1,2.4452534E0,4.2058357E1,8.802912E0,3.3255444E1,6.8467093E0,1.9562026E0,1.2715317E1,2.0540127E1,3.6678798E0,3.1788292E0,1.0514589E1,2.200728E0,1.5405096E1,5.1350317E0,1.467152E0,1.7116773E0,9.291963E0,1.2226267E0,3.1788292E0,1.2226267E1],"tree_param":{"num_deleted":"0","num_feature":"59","num_nodes":"21","size_leaf_vector":"1"}},{"base_weights":[-2.4193473E-2,4.4261694E-1,-3.2687256E-1,8.6670697E-1,-2.5340986E-1,2.578713E-1,-8.379926E-1,-2.2386087E-1,1.2886031E0,8.142778E-1,-1.2451062E0,-6.047374E-1,7.567313E-1,-1.8342265E-1,-2.5471103E-1,9.073041E-2,-1.0541365E-1,7.0683695E-3,1.495595E-1,6.9646346E-3,1.10142805E-1,-1.5029351E-1,-3.4500185E-2,2.5941232E-2,-1.277484E-1,1.1035856E0,-5.8443572E-2,1.0354065E-1,-5.8578205E-1,1.4358244E-2,1.4246586E-1,-9.97759E-2,7.185148E-2],"categories":[],"categories_nodes":[],"categories_segments":[],"categories_sizes":[],"default_left":[0,0,0,0,0,0,0,0,0,0,0,0,0,0,0,0,0,0,0,0,0,0,0,0,0,0,0,0,0,0,0,0,0],"id":1,"left_children":[1,3,5,7,9,11,13,15,17,19,21,23,25,-1,27,-1,-1,-1,-1,-1,-1,-1,-1,-1,-1,29,-1,-1,31,-1,-1,-1,-1],"loss_changes":[6.2293663E0,5.345127E0,8.196046E0,5.357024E0,8.794106E0,6.1455193E0,7.948201E0,4.6425834E0,1.9340687E0,8.091588E-1,4.5734596E-1,3.4701207E0,4.747391E0,0E0,5.0039434E0,0E0,0E0,0E0,0E0,0E0,0E0,0E0,0E0,0E0,0E0,2.0618486E0,0E0,0E0,5.462521E0,0E0,0E0,0E0,0E0],"parents":[2147483647,0,0,1,1,2,2,3,3,4,4,5,5,6,6,7,7,8,8,9,9,10,10,11,11,12,12,14,14,25,25,28,28],"right_children":[2,4,6,8,10,12,14,16,18,20,22,24,26,-1,28,-1,-1,-1,-1,-1,-1,-1,-1,-1,-1,30,-1,-1,32,-1,-1,-1,-1],"split_conditions":[3.2159582E-1,3.583951E-1,7.2058874E-1,5.660614E-2,2.7999735E-1,4.0701908E-1,2.5383568E-1,5.738889E-1,7.960892E-2,1.1585477E-1,2.3218353E-1,6.7841977E-1,9.1880244E-1,-1.8342265E-1,4.5609897E-1,9.073041E-2,-1.0541365E-1,7.0683695E-3,1.495595E-1,6.9646346E-3,1.10142805E-1,-1.5029351E-1,-3.4500185E-2,2.5941232E-2,-1.277484E-1,4.578955E-1,-5.8443572E-2,1.0354065E-1,1.5259908E-1,1.4358244E-2,1.4246586E-1,-9.97759E-2,7.185148E-2],"split_indices":[31,29,48,49,19,10,34,10,53,55,52,48,16,0,8,0,0,0,0,0,0,0,0,0,0,32,0,0,43,0,0,0,0],"split_type":[0,0,0,0,0,0,0,0,0,0,0,0,0,0,0,0,0,0,0,0,0,0,0,0,0,0,0,0,0,0,0,0,0],"sum_hessian":[4.20641E1,1.6364077E1,2.5700022E1,1.0016058E1,6.348018E0,1.2217799E1,1.3482222E1,2.9248767E0,7.0911813E0,3.1430392E0,3.204979E0,4.3989944E0,7.8188047E0,4.186719E0,9.295504E0,1.1988257E0,1.726051E0,1.2249839E0,5.866197E0,1.2205303E0,1.922509E0,1.9707396E0,1.2342393E0,2.1945152E0,2.204479E0,6.352943E0,1.4658614E0,1.463825E0,7.8316784E0,1.9549292E0,4.398014E0,6.130357E0,1.7013214E0],"tree_param":{"num_deleted":"0","num_feature":"59","num_nodes":"33","size_leaf_vector":"1"}},{"base_weights":[-4.59923E-2,-2.633913E-1,7.194819E-1,1.9159323E-1,-7.560928E-1,1.2995972E-1,-3.7000942E-1,1.12511136E-1,-1.469309E-1,9.77742E-2,-9.5897293E-1,-1.16639785E-1,8.8276304E-2,1.4050704E-1,-1.1878561E-1,6.860421E-2,-1.2092763E0,9.3911536E-2,-5.6017842E-2,7.5381264E-2,-7.929452E-2,-1.3509542E-1,-1.0060617E-2],"categories":[],"categories_nodes":[],"categories_segments":[],"categories_sizes":[],"default_left":[0,0,0,0,0,0,0,0,0,0,0,0,0,0,0,0,0,0,0,0,0,0,0],"id":2,"left_children":[1,3,5,7,9,-1,11,-1,13,-1,15,-1,-1,17,-1,19,21,-1,-1,-1,-1,-1,-1],"loss_changes":[7.290294E0,7.758546E0,6.6153197E0,5.997595E0,6.7445383E0,0E0,5.170857E0,0E0,4.483931E0,0E0,4.0140142E0,0E0,0E0,7.3532114E0,0E0,2.9236665E0,1.8029594E0,0E0,0E0,0E0,0E0,0E0,0E0],"parents":[2147483647,0,0,1,1,2,2,3,3,4,4,6,6,8,8,10,10,13,13,15,15,16,16],"right_children":[2,4,6,8,10,-1,12,-1,14,-1,16,-1,-1,18,-1,20,22,-1,-1,-1,-1,-1,-1],"split_conditions":[4.7051334E-1,2.4232435E-1,9.552498E-1,1.8846118E-1,4.3018628E-2,1.2995972E-1,1.1462311E-1,1.12511136E-1,4.5702875E-1,9.77742E-2,7.881901E-2,-1.16639785E-1,8.8276304E-2,1.4174426E-1,-1.1878561E-1,4.712798E-1,6.758031E-1,9.3911536E-2,-5.6017842E-2,7.5381264E-2,-7.929452E-2,-1.3509542E-1,-1.0060617E-2],"split_indices":[4,12,5,14,49,0,39,0,11,0,52,0,0,52,0,25,25,0,0,0,0,0,0],"split_type":[0,0,0,0,0,0,0,0,0,0,0,0,0,0,0,0,0,0,0,0,0,0,0],"sum_hessian":[4.1669598E1,3.2963646E1,8.705951E0,1.7455513E1,1.5508132E1,5.555172E0,3.1507788E0,4.027009E0,1.3428505E1,1.22446E0,1.4283672E1,1.9684074E0,1.1823713E0,1.1200618E1,2.2278874E0,2.9399858E0,1.1343686E1,5.0755095E0,6.125108E0,1.7072353E0,1.2327504E0,9.864551E0,1.4791353E0],"tree_param":{"num_deleted":"0","num_feature":"59","num_nodes":"23","size_leaf_vector":"1"}},{"base_weights":[-4.2654254E-2,2.742468E-1,-4.9146083E-1,6.972956E-1,-2.1337911E-1,6.6184753E-1,-7.225384E-1,-4.5748316E-2,8.6685836E-1,-8.9547616E-1,2.7784953E-1,-1.5974621E-3,9.956457E-2,-9.273327E-1,4.9292184E-2,-1.6282855E-2,1.0636274E0,-1.3387093E-1,2.2951975E-2,-1.1052314E-1,6.7697567E-1,-1.2447858E0,-1.8815161E-1,1.403401E-1,5.06193E-2,1.1059516E-1,-7.529539E-2,-8.796967E-3,-1.444913E-1,-9.5508575E-2,7.824381E-2],"categories":[],"categories_nodes":[],"categories_segments":[],"categories_sizes":[],"default_left":[0,0,0,0,0,0,0,0,0,0,0,0,0,0,0,0,0,0,0,0,0,0,0,0,0,0,0,0,0,0,0],"id":3,"left_children":[1,3,5,7,9,11,13,-1,15,17,19,-1,-1,21,-1,-1,23,-1,-1,-1,25,27,29,-1,-1,-1,-1,-1,-1,-1,-1],"loss_changes":[6.384391E0,5.5942373E0,5.4202256E0,3.2100897E0,4.61415E0,8.343197E-1,4.4215612E0,0E0,2.781701E0,3.1451378E0,5.3504558E0,0E0,0E0,3.0456123E0,0E0,0E0,1.361989E0,0E0,0E0,0E0,5.181834E0,2.095358E0,4.750075E0,0E0,0E0,0E0,0E0,0E0,0E0,0E0,0E0],"parents":[2147483647,0,0,1,1,2,2,3,3,4,4,5,5,6,6,8,8,9,9,10,10,13,13,16,16,20,20,21,21,22,22],"right_children":[2,4,6,8,10,12,14,-1,16,18,20,-1,-1,22,-1,-1,24,-1,-1,-1,26,28,30,-1,-1,-1,-1,-1,-1,-1,-1],"split_conditions":[7.3492604E-1,5.693694E-1,4.1587514E-1,5.2831173E-2,6.814249E-1,4.059502E-1,2.6104397E-1,-4.5748316E-2,4.0696144E-2,4.8674327E-1,3.0186966E-2,-1.5974621E-3,9.956457E-2,7.5E-1,4.9292184E-2,-1.6282855E-2,1.6648245E-1,-1.3387093E-1,2.2951975E-2,-1.1052314E-1,8.9551806E-1,5.1793993E-2,7.6493144E-1,1.403401E-1,5.06193E-2,1.1059516E-1,-7.529539E-2,-8.796967E-3,-1.444913E-1,-9.5508575E-2,7.824381E-2],"split_indices":[45,9,33,24,45,19,36,0,22,33,46,0,0,56,0,0,2,0,0,0,15,36,45,0,0,0,0,0,0,0,0],"split_type":[0,0,0,0,0,0,0,0,0,0,0,0,0,0,0,0,0,0,0,0,0,0,0,0,0,0,0,0,0,0,0],"sum_hessian":[4.2941E1,2.5397114E1,1.7543888E1,1.3368793E1,1.2028321E1,2.6172101E0,1.4926678E1,1.494274E0,1.1874519E1,4.6912875E0,7.3370333E0,1.1777574E0,1.4394528E0,1.2977188E1,1.9494894E0,1.9327868E0,9.941732E0,3.2290986E0,1.462189E0,1.2469351E0,6.0900984E0,8.599843E0,4.3773456E0,5.2338996E0,4.707833E0,4.858983E0,1.2311155E0,1.4806516E0,7.1191916E0,2.4541304E0,1.9232149E0],"tree_param":{"num_deleted":"0","num_feature":"59","num_nodes":"31","size_leaf_vector":"1"}},{"base_weights":[9.145738E-2,1.1474309E-1,2.0241714E-3,-9.429628E-1,1.4985415E-1,2.6049275E-2,-1.394395E-1,-2.5394732E-1,4.4377425E-1,5.0352746E-1,-5.7811683E-1,6.1470425E-1,-5.905642E-1,-3.2485604E-2,1.1349503E-1,-8.251783E-2,6.353807E-2,7.3725395E-2,-5.398482E-2,4.8376735E-2,-1.3048172E-1],"categories":[],"categories_nodes":[],"categories_segments":[],"categories_sizes":[],"default_left":[0,0,0,0,0,0,0,0,0,0,0,0,0,0,0,0,0,0,0,0,0],"id":4,"left_children":[1,-1,3,5,7,-1,-1,9,11,13,15,17,19,-1,-1,-1,-1,-1,-1,-1,-1],"loss_changes":[4.2839456E0,0E0,6.1265826E0,3.5864425E0,4.612257E0,0E0,0E0,4.3688507E0,4.30655E0,3.251535E0,4.1505175E0,3.175705E0,3.4499147E0,0E0,0E0,0E0,0E0,0E0,0E0,0E0,0E0],"parents":[2147483647,0,0,2,2,3,3,4,4,7,7,8,8,9,9,10,10,11,11,12,12],"right_children":[2,-1,4,6,8,-1,-1,10,12,14,16,18,20,-1,-1,-1,-1,-1,-1,-1,-1],"split_conditions":[7.63824E-2,1.1474309E-1,1.3214159E-1,1.1084747E-1,4.6890065E-1,2.6049275E-2,-1.394395E-1,2.2179748E-1,8.158941E-1,4.060092E-1,7.1095145E-1,2.3832391E-1,6.984822E-1,-3.2485604E-2,1.1349503E-1,-8.251783E-2,6.353807E-2,7.3725395E-2,-5.398482E-2,4.8376735E-2,-1.3048172E-1],"split_indices":[41,0,53,50,10,0,0,26,51,22,40,49,42,0,0,0,0,0,0,0,0],"split_type":[0,0,0,0,0,0,0,0,0,0,0,0,0,0,0,0,0,0,0,0,0],"sum_hessian":[4.438658E1,2.542011E0,4.184457E1,4.932893E0,3.691168E1,1.4610087E0,3.4718843E0,1.5606593E1,2.1305086E1,4.5114865E0,1.1095106E1,1.8631784E1,2.6733005E0,2.161398E0,2.3500884E0,9.484179E0,1.6109273E0,1.7170649E1,1.4611357E0,1.1964201E0,1.4768803E0],"tree_param":{"num_deleted":"0","num_feature":"59","num_nodes":"21","size_leaf_vector":"1"}},{"base_weights":[1.1650068E-1,3.037525E-1,-6.326231E-1,9.1369635E-1,1.4132719E-1,8.8455305E-2,-9.5080787E-1,-8.890568E-4,1.1666825E0,-1.2609003E-1,3.3704215E-1,-1.398076E-1,-1.2608405E0,3.803124E-2,1.2692904E-1,-2.7970096E-2,8.2609934E-1,-7.3983945E-2,5.252173E-2,-1.5979339E-1,-2.7097965E-2,7.765517E-2,-4.2655434E-2,-3.2986082E-2,1.0472293E-1],"categories":[],"categories_nodes":[],"categories_segments":[],"categories_sizes":[],"default_left":[0,0,0,0,0,0,0,0,0,0,0,0,0,0,0,0,0,0,0,0,0,0,0,0,0],"id":5,"left_children":[1,3,5,7,9,-1,11,-1,13,-1,15,17,19,-1,-1,21,23,-1,-1,-1,-1,-1,-1,-1,-1],"loss_changes":[6.6562805E0,3.5901904E0,5.446215E0,1.8103566E0,8.885937E0,0E0,1.927681E0,0E0,6.2332153E-3,0E0,4.9934587E0,1.7608193E0,1.5453043E0,0E0,0E0,5.754042E0,3.3955717E0,0E0,0E0,0E0,0E0,0E0,0E0,0E0,0E0],"parents":[2147483647,0,0,1,1,2,2,3,3,4,4,6,6,8,8,10,10,11,11,12,12,15,15,16,16],"right_children":[2,4,6,8,10,-1,12,-1,14,-1,16,18,20,-1,-1,22,24,-1,-1,-1,-1,-1,-1,-1,-1],"split_conditions":[8.9551806E-1,2.4349956E-1,1.5699387E-2,2.1018642E-1,3.3119237E-1,8.8455305E-2,7.6238275E-1,-8.890568E-4,1.5365624E-1,-1.2609003E-1,7.2846323E-1,6.359386E-1,7.3818207E-1,3.803124E-2,1.2692904E-1,5.74172E-1,6.779505E-2,-7.3983945E-2,5.252173E-2,-1.5979339E-1,-2.7097965E-2,7.765517E-2,-4.2655434E-2,-3.2986082E-2,1.0472293E-1],"split_indices":[15,26,3,11,15,0,0,0,10,0,54,40,33,0,0,40,52,0,0,0,0,0,0,0,0],"split_type":[0,0,0,0,0,0,0,0,0,0,0,0,0,0,0,0,0,0,0,0,0,0,0,0,0],"sum_hessian":[4.5081833E1,3.654222E1,8.539614E0,6.711961E0,2.983026E1,1.1718714E0,7.367742E0,1.6520694E0,5.059891E0,2.9869928E0,2.6843267E1,2.4388945E0,4.9288473E0,1.1272554E0,3.9326358E0,1.5910861E1,1.0932406E1,1.2229577E0,1.2159367E0,3.2184982E0,1.7103492E0,4.957045E0,1.0953815E1,1.6765438E0,9.255862E0],"tree_param":{"num_deleted":"0","num_feature":"59","num_nodes":"25","size_leaf_vector":"1"}},{"base_weights":[-6.712626E-2,1.0172693E-1,-1.5441093E-1,-2.5246212E-1,7.919106E-1,-5.405421E-1,9.426581E-2,5.542112E-3,1.0765809E-1,4.1571686E-1,-7.9230183E-1,1.1173252E-1,-3.1689632E-1,9.525529E-2,-6.798344E-2,-9.279639E-2,5.3397983E-2,1.4079073E-2,-1.166411E-1],"categories":[],"categories_nodes":[],"categories_segments":[],"categories_sizes":[],"default_left":[0,0,0,0,0,0,0,0,0,0,0,0,0,0,0,0,0,0,0],"id":6,"left_children":[1,-1,3,5,7,9,11,-1,-1,13,15,-1,17,-1,-1,-1,-1,-1,-1],"loss_changes":[4.241929E0,0E0,3.9866183E0,3.820325E0,7.943101E-1,5.3273335E0,7.9158907E0,0E0,0E0,3.5779061E0,3.514267E0,0E0,5.452937E0,0E0,0E0,0E0,0E0,0E0,0E0],"parents":[2147483647,0,0,2,2,3,3,4,4,5,5,6,6,9,9,10,10,12,12],"right_children":[2,-1,4,6,8,10,12,-1,-1,14,16,-1,18,-1,-1,-1,-1,-1,-1],"split_conditions":[4.2881817E-2,1.0172693E-1,8.158941E-1,1.2575248E-1,1.6347694E-1,2.4854279E-1,1.5286398E-1,5.542112E-3,1.0765809E-1,7.5423336E-1,7.086301E-1,1.1173252E-1,7.3492604E-1,9.525529E-2,-6.798344E-2,-9.279639E-2,5.3397983E-2,1.4079073E-2,-1.166411E-1],"split_indices":[8,0,42,39,41,19,39,0,0,31,40,0,42,0,0,0,0,0,0],"split_type":[0,0,0,0,0,0,0,0,0,0,0,0,0,0,0,0,0,0,0],"sum_hessian":[4.215694E1,2.346775E0,3.9810165E1,3.6736958E1,3.0732083E0,1.9760174E1,1.6976784E1,1.1897676E0,1.8834406E0,3.9824374E0,1.5777737E1,4.3745317E0,1.2602252E1,2.7603514E0,1.2220858E0,1.4586088E1,1.1916485E0,8.732028E0,3.8702242E0],"tree_param":{"num_deleted":"0","num_feature":"59","num_nodes":"19","size_leaf_vector":"1"}},{"base_weights":[-4.8121955E-2,8.9297664E-1,-1.7342198E-1,1.158809E-1,-5.341661E-3,6.458652E-1,-2.9176626E-1,9.720282E-2,-1.2637687E-2,-6.048536E-1,1.5038791E-1,5.0999177E-1,-7.705012E-1,-1.491867E-1,1.16612606E-1,-4.140982E-3,8.207611E-2,-1.4449751E-1,-2.378078E-2,2.8754214E-2,-8.983151E-2],"categories":[],"categories_nodes":[],"categories_segments":[],"categories_sizes":[],"default_left":[0,0,0,0,0,0,0,0,0,0,0,0,0,0,0,0,0,0,0,0,0],"id":7,"left_children":[1,3,5,-1,-1,7,9,-1,-1,11,13,15,17,19,-1,-1,-1,-1,-1,-1,-1],"loss_changes":[5.2194E0,1.3724065E0,3.9445922E0,0E0,0E0,1.4328E0,4.872324E0,0E0,0E0,4.1639433E0,4.7745786E0,5.897559E-1,6.187045E0,4.368238E0,0E0,0E0,0E0,0E0,0E0,0E0,0E0],"parents":[2147483647,0,0,1,1,2,2,5,5,6,6,9,9,10,10,11,11,12,12,13,13],"right_children":[2,4,6,-1,-1,8,10,-1,-1,12,14,16,18,20,-1,-1,-1,-1,-1,-1,-1],"split_conditions":[1.8015063E-1,2.2453098E-1,5.105206E-2,1.158809E-1,-5.341661E-3,6.960355E-1,7.5E-1,9.720282E-2,-1.2637687E-2,3.027206E-1,1.7477192E-1,6.828373E-1,5.311769E-1,7.451053E-1,1.16612606E-1,-4.140982E-3,8.207611E-2,-1.4449751E-1,-2.378078E-2,2.8754214E-2,-8.983151E-2],"split_indices":[19,52,49,0,0,40,56,0,0,33,43,51,33,48,0,0,0,0,0,0,0],"split_type":[0,0,0,0,0,0,0,0,0,0,0,0,0,0,0,0,0,0,0,0,0],"sum_hessian":[4.194906E1,4.2090654E0,3.7739994E1,3.1108198E0,1.0982456E0,4.200789E0,3.3539204E1,2.7715092E0,1.4292797E0,1.9420013E1,1.411919E1,2.2433043E0,1.717671E1,1.1562232E1,2.5569582E0,1.1210185E0,1.1222856E0,6.8239403E0,1.035277E1,7.693323E0,3.8689094E0],"tree_param":{"num_deleted":"0","num_feature":"59","num_nodes":"21","size_leaf_vector":"1"}},{"base_weights":[7.2799355E-2,-2.2823659E-1,2.9017243E-1,-5.012042E-1,5.420337E-1,7.30147E-1,-3.0721415E-2,6.6173375E-2,-7.390199E-1,-2.1027798E-2,1.12826444E-1,-1.6156265E-1,1.0980781E0,4.4904485E-1,-6.49824E-1,4.5731995E-2,-1.0262201E0,-7.7198714E-2,3.7362017E-2,1.3605507E-2,1.3389729E-1,8.8272727E-1,-3.284642E-1,-1.2934552E-1,-4.0718857E-2,-1.1847035E-1,8.892912E-3,1.2280065E-1,-1.6442562E-2,-1.2725149E-1,8.932124E-2,5.3573854E-2,-6.814807E-2],"categories":[],"categories_nodes":[],"categories_segments":[],"categories_sizes":[],"default_left":[0,0,0,0,0,0,0,0,0,0,0,0,0,0,0,0,0,0,0,0,0,0,0,0,0,0,0,0,0,0,0,0,0],"id":8,"left_children":[1,3,5,7,9,11,13,-1,15,-1,-1,17,19,21,23,-1,25,-1,-1,-1,-1,27,29,-1,31,-1,-1,-1,-1,-1,-1,-1,-1],"loss_changes":[2.8525345E0,4.143342E0,3.5755072E0,4.3928432E0,2.5740328E0,3.672885E0,4.899241E0,0E0,4.658108E0,0E0,0E0,1.5898646E0,1.5954075E0,3.4362183E0,2.762634E0,0E0,1.8973236E0,0E0,0E0,0E0,0E0,2.4656386E0,5.8304543E0,0E0,2.1092885E0,0E0,0E0,0E0,0E0,0E0,0E0,0E0,0E0],"parents":[2147483647,0,0,1,1,2,2,3,3,4,4,5,5,6,6,8,8,11,11,12,12,13,13,14,14,16,16,21,21,22,22,24,24],"right_children":[2,4,6,8,10,12,14,-1,16,-1,-1,18,20,22,24,-1,26,-1,-1,-1,-1,28,30,-1,32,-1,-1,-1,-1,-1,-1,-1,-1],"split_conditions":[5E-1,8.7024623E-1,7.1095747E-1,2.1613628E-1,4.0426803E-1,3.0293775E-1,4.113102E-1,6.6173375E-2,3.3185166E-1,-2.1027798E-2,1.12826444E-1,3.073036E-1,1.5486771E-1,7.093453E-1,6.4170504E-1,4.5731995E-2,8.057342E-1,-7.7198714E-2,3.7362017E-2,1.3605507E-2,1.3389729E-1,6.077465E-1,7.593432E-1,-1.2934552E-1,7.3492604E-1,-1.1847035E-1,8.892912E-3,1.2280065E-1,-1.6442562E-2,-1.2725149E-1,8.932124E-2,5.3573854E-2,-6.814807E-2],"split_indices":[56,16,0,14,47,8,22,0,33,0,0,10,11,45,28,0,54,0,0,0,0,18,45,0,45,0,0,0,0,0,0,0,0],"split_type":[0,0,0,0,0,0,0,0,0,0,0,0,0,0,0,0,0,0,0,0,0,0,0,0,0,0,0,0,0,0,0,0,0],"sum_hessian":[4.1579914E1,1.7413837E1,2.4166077E1,1.3115347E1,4.29849E0,9.65409E0,1.4511988E1,1.9240476E0,1.1191299E1,2.1634429E0,2.1350474E0,2.9837146E0,6.670375E0,8.33081E0,6.1811786E0,2.0518653E0,9.139434E0,1.1871681E0,1.7965466E0,1.6491636E0,5.0212116E0,5.2609863E0,3.069823E0,2.4591272E0,3.7220511E0,7.9475656E0,1.1918687E0,3.8265443E0,1.434442E0,1.7081987E0,1.3616244E0,2.045623E0,1.6764281E0],"tree_param":{"num_deleted":"0","num_feature":"59","num_nodes":"33","size_leaf_vector":"1"}},{"base_weights":[7.960634E-2,9.878949E-2,1.0592185E-2,-1.2628207E-1,5.14685E-1,4.1550818E-1,-3.210599E-1,9.675125E-1,-2.9266346E-1,6.746459E-1,-7.3055215E-2,-4.1203428E-2,-9.0342206E-1,1.1860938E-1,1.7377759E-3,-7.156712E-2,4.1713614E-2,1.0153516E-1,-1.881921E-2,-4.3208595E-2,5.722745E-2,-1.10544346E-1,1.8061334E-2],"categories":[],"categories_nodes":[],"categories_segments":[],"categories_sizes":[],"default_left":[0,0,0,0,0,0,0,0,0,0,0,0,0,0,0,0,0,0,0,0,0,0,0],"id":9,"left_children":[1,-1,3,5,7,9,11,13,15,17,-1,19,21,-1,-1,-1,-1,-1,-1,-1,-1,-1,-1],"loss_changes":[2.7383003E0,0E0,2.9466574E0,3.6843622E0,3.6157317E0,3.2649672E0,4.088582E0,1.2404909E0,1.5125473E0,2.5818627E0,0E0,4.5986943E0,1.9886403E0,0E0,0E0,0E0,0E0,0E0,0E0,0E0,0E0,0E0,0E0],"parents":[2147483647,0,0,2,2,3,3,4,4,5,5,6,6,7,7,8,8,9,9,11,11,12,12],"right_children":[2,-1,4,6,8,10,12,14,16,18,-1,20,22,-1,-1,-1,-1,-1,-1,-1,-1,-1,-1],"split_conditions":[7.63824E-2,9.878949E-2,5.485177E-1,6.765796E-1,9.439688E-1,2.5038606E-1,7.538449E-1,7.5481164E-1,7.3769283E-1,3.5239962E-1,-7.3055215E-2,5.4703003E-1,3.0694246E-1,1.1860938E-1,1.7377759E-3,-7.156712E-2,4.1713614E-2,1.0153516E-1,-1.881921E-2,-4.3208595E-2,5.722745E-2,-1.10544346E-1,1.8061334E-2],"split_indices":[41,0,3,51,5,52,0,48,51,31,0,32,3,0,0,0,0,0,0,0,0,0,0],"split_type":[0,0,0,0,0,0,0,0,0,0,0,0,0,0,0,0,0,0,0,0,0,0,0],"sum_hessian":[4.2850594E1,2.085758E0,4.076484E1,3.2649216E1,8.115621E0,8.334074E0,2.4315142E1,5.0722837E0,3.043337E0,7.132636E0,1.2014383E0,1.7146214E1,7.168929E0,3.9217346E0,1.1505493E0,1.9017249E0,1.1416123E0,4.9867706E0,2.1458652E0,1.065376E1,6.4924526E0,6.026145E0,1.1427838E0],"tree_param":{"num_deleted":"0","num_feature":"59","num_nodes":"23","size_leaf_vector":"1"}},{"base_weights":[-2.310564E-2,9.174091E-1,-1.3277934E-1,2.7328197E-2,1.0169506E-1,-3.2804054E-1,2.926696E-1,5.1478966E-4,-8.214326E-1,-9.21627E-2,9.789341E-1,4.92759E-1,-3.9936408E-1,-3.5341582E-1,-1.28192E-1,2.7778894E-1,-1.1179914E-1,2.8828194E-2,1.0970565E-1,-3.5059746E-2,8.7668434E-2,-6.424871E-2,8.481026E-2,-9.268184E-2,2.4506215E-2,-8.4755905E-2,6.6913925E-2],"categories":[],"categories_nodes":[],"categories_segments":[],"categories_sizes":[],"default_left":[0,0,0,0,0,0,0,0,0,0,0,0,0,0,0,0,0,0,0,0,0,0,0,0,0,0,0],"id":10,"left_children":[1,3,5,-1,-1,7,9,11,13,15,17,19,21,23,-1,25,-1,-1,-1,-1,-1,-1,-1,-1,-1,-1,-1],"loss_changes":[4.715952E0,2.8419018E-2,3.4821599E0,0E0,0E0,4.6058583E0,3.616156E0,3.7503188E0,1.9945335E0,3.9037561E0,8.209038E-2,3.0723746E0,3.7334905E0,2.6337762E0,0E0,3.9844687E0,0E0,0E0,0E0,0E0,0E0,0E0,0E0,0E0,0E0,0E0,0E0],"parents":[2147483647,0,0,1,1,2,2,5,5,6,6,7,7,8,8,9,9,10,10,11,11,12,12,13,13,15,15],"right_children":[2,4,6,-1,-1,8,10,12,14,16,18,20,22,24,-1,26,-1,-1,-1,-1,-1,-1,-1,-1,-1,-1,-1],"split_conditions":[1.7303717E-1,3.619775E-2,5.853915E-1,2.7328197E-2,1.0169506E-1,3.8864517E-1,1.2173041E-1,7.2717196E-1,7.311859E-1,9.6116877E-1,9.3187615E-2,2.141461E-1,7.577716E-1,6.661775E-1,-1.28192E-1,8.8226065E-2,-1.1179914E-1,2.8828194E-2,1.0970565E-1,-3.5059746E-2,8.7668434E-2,-6.424871E-2,8.481026E-2,-9.268184E-2,2.4506215E-2,-8.4755905E-2,6.6913925E-2],"split_indices":[14,43,50,0,0,29,39,0,45,5,55,9,32,45,0,55,0,0,0,0,0,0,0,0,0,0,0],"split_type":[0,0,0,0,0,0,0,0,0,0,0,0,0,0,0,0,0,0,0,0,0,0,0,0,0,0,0],"sum_hessian":[4.3538544E1,3.777701E0,3.976084E1,1.0069823E0,2.7707186E0,2.7409922E1,1.235092E1,1.7053057E1,1.0356866E1,8.468049E0,3.8828712E0,7.5396285E0,9.513428E0,6.013015E0,4.343851E0,6.7595215E0,1.7085272E0,1.0695914E0,2.8132799E0,2.3857458E0,5.153883E0,8.367603E0,1.1458244E0,2.7906568E0,3.2223577E0,1.4433537E0,5.316168E0],"tree_param":{"num_deleted":"0","num_feature":"59","num_nodes":"27","size_leaf_vector":"1"}},{"base_weights":[7.7116944E-2,7.864141E-1,-5.6834534E-2,1.107788E-1,-4.9343025E-3,-5.6107765E-1,1.3903232E-1,-8.4982896E-1,3.0138493E-1,3.8325447E-1,-3.979255E-1,-1.0368844E0,1.0789494E-2,-2.5275206E-2,7.337671E-2,-7.513852E-2,5.600715E-1,9.555223E-2,-7.913568E-1,-1.3063724E-1,-3.2176305E-2,-9.968295E-3,7.5559534E-2,9.521171E-3,-1.2290583E-1],"categories":[],"categories_nodes":[],"categories_segments":[],"categories_sizes":[],"default_left":[0,0,0,0,0,0,0,0,0,0,0,0,0,0,0,0,0,0,0,0,0,0,0,0,0],"id":11,"left_children":[1,3,5,-1,-1,7,9,11,13,15,17,19,-1,-1,-1,-1,21,-1,23,-1,-1,-1,-1,-1,-1],"loss_changes":[3.7906795E0,1.7549453E0,3.445511E0,0E0,0E0,2.6811411E0,3.477973E0,1.465683E0,9.475318E-1,4.020049E0,5.2389517E0,8.162055E-1,0E0,0E0,0E0,0E0,2.1514502E0,0E0,2.8603687E0,0E0,0E0,0E0,0E0,0E0,0E0],"parents":[2147483647,0,0,1,1,2,2,5,5,6,6,7,7,8,8,9,9,10,10,11,11,16,16,18,18],"right_children":[2,4,6,-1,-1,8,10,12,14,16,18,20,-1,-1,-1,-1,22,-1,24,-1,-1,-1,-1,-1,-1],"split_conditions":[2.258082E-1,1.3493505E-1,4.3342978E-1,1.107788E-1,-4.9343025E-3,7.1095145E-1,7.6493144E-1,1.9635949E-1,2.4919741E-1,6.2315035E-1,6.845624E-2,4.490484E-1,1.0789494E-2,-2.5275206E-2,7.337671E-2,-7.513852E-2,1.5149593E-1,9.555223E-2,3.2159582E-1,-1.3063724E-1,-3.2176305E-2,-9.968295E-3,7.5559534E-2,9.521171E-3,-1.2290583E-1],"split_indices":[26,49,10,0,0,40,48,52,16,54,39,33,0,0,0,0,53,0,31,0,0,0,0,0,0],"split_type":[0,0,0,0,0,0,0,0,0,0,0,0,0,0,0,0,0,0,0,0,0,0,0,0,0],"sum_hessian":[3.8426678E1,5.3303943E0,3.3096283E1,3.6148753E0,1.7155191E0,8.737562E0,2.4358723E1,6.5569515E0,2.1806102E0,1.6940155E1,7.418567E0,5.416405E0,1.1405464E0,1.1378258E0,1.0427845E0,1.8458409E0,1.5094315E1,1.3490378E0,6.0695295E0,3.33344E0,2.0829651E0,3.5627453E0,1.1531569E1,2.2647433E0,3.8047862E0],"tree_param":{"num_deleted":"0","num_feature":"59","num_nodes":"25","size_leaf_vector":"1"}},{"base_weights":[4.0535815E-2,3.4152058E-1,-1.9127831E-1,-4.023073E-1,5.2347857E-1,-3.334606E-1,9.8131634E-2,7.5567E-2,-1.14417724E-1,8.3936644E-1,-8.961562E-2,1.0786672E-1,-9.080115E-1,-2.3780573E-2,1.0918815E0,5.3783E-1,-6.1202633E-1,-2.2404289E-1,8.0941224E-1,1.0354715E-2,-1.0579451E0,1.13930665E-2,1.2213053E-1,8.497759E-2,-4.2560007E-3,-1.0181054E-1,8.996691E-3,-6.293109E-2,4.2996928E-2,-3.9056744E-3,1.07682906E-1,-1.2929941E-2,-1.2413811E-1],"categories":[],"categories_nodes":[],"categories_segments":[],"categories_sizes":[],"default_left":[0,0,0,0,0,0,0,0,0,0,0,0,0,0,0,0,0,0,0,0,0,0,0,0,0,0,0,0,0,0,0,0,0],"id":12,"left_children":[1,3,5,7,9,11,-1,-1,-1,13,15,17,19,-1,21,23,25,27,29,-1,31,-1,-1,-1,-1,-1,-1,-1,-1,-1,-1,-1,-1],"loss_changes":[2.8737605E0,2.6294713E0,4.2251053E0,4.367947E0,2.9403195E0,5.5743237E0,0E0,0E0,0E0,2.9415512E0,2.274226E0,3.2337122E0,1.5486813E0,0E0,8.944559E-1,6.206371E-1,1.1479715E0,2.8367712E0,1.0464897E0,0E0,1.2624083E0,0E0,0E0,0E0,0E0,0E0,0E0,0E0,0E0,0E0,0E0,0E0,0E0],"parents":[2147483647,0,0,1,1,2,2,3,3,4,4,5,5,9,9,10,10,11,11,12,12,14,14,15,15,16,16,17,17,18,18,20,20],"right_children":[2,4,6,8,10,12,-1,-1,-1,14,16,18,20,-1,22,24,26,28,30,-1,32,-1,-1,-1,-1,-1,-1,-1,-1,-1,-1,-1,-1],"split_conditions":[7.27781E-1,2.9205006E-1,8.178433E-1,1.9298565E-1,5.313232E-1,7.2271866E-1,9.8131634E-2,7.5567E-2,-1.14417724E-1,6.153199E-1,5.2649856E-1,7.041502E-1,3.139218E-2,-2.3780573E-2,6.433136E-1,1.6046281E-1,4.522276E-1,6.943909E-1,2.7272728E-1,1.0354715E-2,2.6461804E-1,1.13930665E-2,1.2213053E-1,8.497759E-2,-4.2560007E-3,-1.0181054E-1,8.996691E-3,-6.293109E-2,4.2996928E-2,-3.9056744E-3,1.07682906E-1,-1.2929941E-2,-1.2413811E-1],"split_indices":[1,10,42,19,19,42,0,0,0,1,20,42,43,0,54,55,22,40,57,0,33,0,0,0,0,0,0,0,0,0,0,0,0],"split_type":[0,0,0,0,0,0,0,0,0,0,0,0,0,0,0,0,0,0,0,0,0,0,0,0,0,0,0,0,0,0,0,0,0],"sum_hessian":[3.92513E1,1.6871843E1,2.2379457E1,3.078053E0,1.3793791E1,2.0597536E1,1.781921E0,1.1946828E0,1.88337E0,8.859828E0,4.933963E0,1.2108751E1,8.488785E0,1.6935935E0,7.1662345E0,2.2282224E0,2.7057405E0,8.68189E0,3.4268622E0,1.1357299E0,7.353055E0,1.0573072E0,6.1089272E0,1.1473843E0,1.0808382E0,1.4288772E0,1.2768631E0,5.3836207E0,3.2982688E0,1.0258762E0,2.4009862E0,1.4940896E0,5.8589654E0],"tree_param":{"num_deleted":"0","num_feature":"59","num_nodes":"33","size_leaf_vector":"1"}},{"base_weights":[-1.1801161E-2,6.644526E-1,-1.3337149E-1,-1.0055414E-2,9.2156276E-2,-3.6438558E-1,2.3610921E-1,6.927342E-2,-7.451037E-1,4.6605504E-1,-8.909129E-2,-5.261156E-1,4.2120087E-1,-1.0040798E0,3.104417E-2,7.2011E-1,-3.1989858E-1,4.2954054E-2,-1.0040801E-1,-4.5946196E-2,6.938636E-2,-1.924107E-2,-1.18071534E-1,-2.870057E-2,9.497871E-2,4.7656517E-2,-9.658123E-2],"categories":[],"categories_nodes":[],"categories_segments":[],"categories_sizes":[],"default_left":[0,0,0,0,0,0,0,0,0,0,0,0,0,0,0,0,0,0,0,0,0,0,0,0,0,0,0],"id":13,"left_children":[1,3,5,-1,-1,7,9,11,13,15,-1,17,19,21,-1,23,25,-1,-1,-1,-1,-1,-1,-1,-1,-1,-1],"loss_changes":[3.3835926E0,1.3267593E0,3.0567837E0,0E0,0E0,3.652189E0,4.0424194E0,2.5495586E0,3.50949E0,2.6825993E0,0E0,2.5196676E0,2.12889E0,1.1533995E0,0E0,2.4905605E0,2.359846E0,0E0,0E0,0E0,0E0,0E0,0E0,0E0,0E0,0E0,0E0],"parents":[2147483647,0,0,1,1,2,2,5,5,6,6,7,7,8,8,9,9,11,11,12,12,13,13,15,15,16,16],"right_children":[2,4,6,-1,-1,8,10,12,14,16,-1,18,20,22,-1,24,26,-1,-1,-1,-1,-1,-1,-1,-1,-1,-1],"split_conditions":[2.258082E-1,8.916257E-2,5.73244E-1,-1.0055414E-2,9.2156276E-2,4.4296756E-1,8.7632227E-1,3.0835447E-1,7.14155E-1,1.4004172E-1,-8.909129E-2,1.743829E-1,5.474043E-2,6.651628E-1,3.104417E-2,6.64726E-1,6.2538314E-1,4.2954054E-2,-1.0040801E-1,-4.5946196E-2,6.938636E-2,-1.924107E-2,-1.18071534E-1,-2.870057E-2,9.497871E-2,4.7656517E-2,-9.658123E-2],"split_indices":[26,55,32,0,0,32,8,32,10,46,0,35,2,51,0,45,32,0,0,0,0,0,0,0,0,0,0],"split_type":[0,0,0,0,0,0,0,0,0,0,0,0,0,0,0,0,0,0,0,0,0,0,0,0,0,0,0],"sum_hessian":[3.9078793E1,5.2742696E0,3.3804523E1,1.4798934E0,3.7943761E0,2.0808197E1,1.2996326E1,1.0110185E1,1.0698013E1,1.1281117E1,1.7152092E0,3.5720518E0,6.5381327E0,8.629531E0,2.0684826E0,8.588658E0,2.6924586E0,1.2246879E0,2.347364E0,1.3837427E0,5.15439E0,1.9157326E0,6.713798E0,1.5485935E0,7.040065E0,1.3231242E0,1.3693345E0],"tree_param":{"num_deleted":"0","num_feature":"59","num_nodes":"27","size_leaf_vector":"1"}},{"base_weights":[-5.0681558E-2,-1.9810057E-1,3.67621E-1,-4.1269305E-1,1.7041942E-1,6.691421E-1,-4.3983212E-1,7.3515125E-2,-5.3558916E-1,9.462791E-2,-2.6160195E-1,8.93793E-1,-1.5744245E-2,-9.942252E-2,4.034136E-2,5.7802122E-2,-6.761929E-1,-6.9209206E-1,7.042267E-2,1.0323887E-1,8.0256015E-3,-1.0926201E-1,-7.81847E-3,-1.07286625E-1,-7.7288584E-3],"categories":[],"categories_nodes":[],"categories_segments":[],"categories_sizes":[],"default_left":[0,0,0,0,0,0,0,0,0,0,0,0,0,0,0,0,0,0,0,0,0,0,0,0,0],"id":14,"left_children":[1,3,5,7,9,11,13,-1,15,-1,17,19,-1,-1,-1,-1,21,23,-1,-1,-1,-1,-1,-1,-1],"loss_changes":[2.4861174E0,2.4101052E0,2.8624213E0,3.0726833E0,4.134406E0,1.6405342E0,2.023909E0,0E0,3.1673942E0,0E0,3.910058E0,6.5010214E-1,0E0,0E0,0E0,0E0,3.950204E0,1.3681188E0,0E0,0E0,0E0,0E0,0E0,0E0,0E0],"parents":[2147483647,0,0,1,1,2,2,3,3,4,4,5,5,6,6,8,8,10,10,11,11,16,16,17,17],"right_children":[2,4,6,8,10,12,14,-1,16,-1,18,20,-1,-1,-1,-1,22,24,-1,-1,-1,-1,-1,-1,-1],"split_conditions":[1.7991014E-1,2.5286484E-1,6.1283886E-1,4.2881817E-2,5.693694E-1,7.593432E-1,8.0970675E-1,7.3515125E-2,5.682063E-2,9.462791E-2,1.2173041E-1,2.9478362E-1,-1.5744245E-2,-9.942252E-2,4.034136E-2,5.7802122E-2,4.1159046E-1,7.2030485E-1,7.042267E-2,1.0323887E-1,8.0256015E-3,-1.0926201E-1,-7.81847E-3,-1.07286625E-1,-7.7288584E-3],"split_indices":[36,34,32,8,9,42,42,0,50,0,39,39,0,0,0,0,14,45,0,0,0,0,0,0,0],"split_type":[0,0,0,0,0,0,0,0,0,0,0,0,0,0,0,0,0,0,0,0,0,0,0,0,0],"sum_hessian":[3.8135033E1,2.8586826E1,9.548207E0,1.7990772E1,1.0596054E1,7.0768466E0,2.4713607E0,1.2581171E0,1.6732655E1,3.3641262E0,7.231928E0,5.5005794E0,1.576267E0,1.383036E0,1.0883247E0,1.5270573E0,1.5205598E1,5.19834E0,2.0335877E0,4.470042E0,1.0305376E0,8.476104E0,6.7294936E0,2.7500567E0,2.4482832E0],"tree_param":{"num_deleted":"0","num_feature":"59","num_nodes":"25","size_leaf_vector":"1"}},{"base_weights":[5.2989675E-3,2.2276133E-1,-3.2113463E-1,6.2999696E-1,-1.1229546E-1,4.1790205E-1,-8.215216E-1,9.641906E-3,9.491548E-1,6.8013275E-1,-3.7647113E-1,-3.9214173E-1,8.399084E-1,3.9233487E-2,-1.0046569E0,4.7162047E-1,-5.3858142E-2,1.1283237E-1,-4.02452E-3,-4.0339893E-3,9.712434E-2,-1.1808977E-1,-4.927781E-2,3.3235368E-3,-6.180181E-2,-9.348171E-3,1.10829465E-1,-1.8789845E-3,-1.1593118E0,-7.199429E-3,7.740891E-2,-5.044346E-2,4.8317865E-2,-1.2951796E-1,-4.1424405E-2],"categories":[],"categories_nodes":[],"categories_segments":[],"categories_sizes":[],"default_left":[0,0,0,0,0,0,0,0,0,0,0,0,0,0,0,0,0,0,0,0,0,0,0,0,0,0,0,0,0,0,0,0,0,0,0],"id":15,"left_children":[1,3,5,7,9,11,13,15,17,19,21,23,25,-1,27,29,-1,-1,-1,-1,-1,-1,31,-1,-1,-1,-1,-1,33,-1,-1,-1,-1,-1,-1],"loss_changes":[2.826335E0,3.32931E0,6.2326493E0,2.1550808E0,3.1764674E0,2.7538457E0,2.5800753E0,1.4503322E0,1.32306E0,8.454671E-1,2.8650203E0,3.194553E-1,1.3514793E0,0E0,1.3237495E0,5.6488645E-1,0E0,0E0,0E0,0E0,0E0,0E0,2.4100132E0,0E0,0E0,0E0,0E0,0E0,2.3402882E-1,0E0,0E0,0E0,0E0,0E0,0E0],"parents":[2147483647,0,0,1,1,2,2,3,3,4,4,5,5,6,6,7,7,8,8,9,9,10,10,11,11,12,12,14,14,15,15,22,22,28,28],"right_children":[2,4,6,8,10,12,14,16,18,20,22,24,26,-1,28,30,-1,-1,-1,-1,-1,-1,32,-1,-1,-1,-1,-1,34,-1,-1,-1,-1,-1,-1],"split_conditions":[7.359657E-1,2.4660265E-1,3.3047053E-1,7.0075166E-1,3.6450386E-2,1.1585477E-1,5.168659E-2,3.2188177E-1,6.167722E-1,7.125184E-1,1.4227986E-1,1.7343807E-1,2.2508776E-1,3.9233487E-2,2.7222264E-1,2.212925E-1,-5.3858142E-2,1.1283237E-1,-4.02452E-3,-4.0339893E-3,9.712434E-2,-1.1808977E-1,3.5910118E-1,3.3235368E-3,-6.180181E-2,-9.348171E-3,1.10829465E-1,-1.8789845E-3,8.1900966E-1,-7.199429E-3,7.740891E-2,-5.044346E-2,4.8317865E-2,-1.2951796E-1,-4.1424405E-2],"split_indices":[48,21,31,54,30,52,49,3,41,0,53,4,19,0,19,44,0,0,0,0,0,0,10,0,0,0,0,0,10,0,0,0,0,0,0],"split_type":[0,0,0,0,0,0,0,0,0,0,0,0,0,0,0,0,0,0,0,0,0,0,0,0,0,0,0,0,0,0,0,0,0,0,0],"sum_hessian":[3.780707E1,2.2881527E1,1.4925543E1,9.930953E0,1.2950575E1,6.0923734E0,8.83317E0,3.723569E0,6.2073836E0,2.8442729E0,1.0106302E1,2.111022E0,3.9813514E0,1.0082135E0,7.824956E0,2.0965612E0,1.6270077E0,5.136763E0,1.0706205E0,1.0664163E0,1.7778566E0,2.167698E0,7.9386044E0,1.027973E0,1.0830489E0,1.0346721E0,2.946679E0,1.2131397E0,6.6118164E0,1.0219067E0,1.0746545E0,4.308349E0,3.630255E0,4.967605E0,1.6442112E0],"tree_param":{"num_deleted":"0","num_feature":"59","num_nodes":"35","size_leaf_vector":"1"}},{"base_weights":[6.73121E-2,-1.4431155E-1,3.8976857E-1,1.5476917E-1,-4.3972537E-1,6.9494253E-1,-2.9637817E-1,6.1191046E-1,-3.2047448E-1,-5.955319E-1,4.8364352E-2,8.8894165E-1,-2.354428E-2,2.4538209E-1,-8.504691E-2,8.267108E-1,-1.266505E-2,-8.2898456E-1,3.8956645E-1,-7.9563785E-1,2.9760007E-2,-1.208062E-2,1.2034439E-1,-5.4340698E-2,8.55544E-2,1.7342439E-2,1.02196954E-1,-1.1523618E-1,8.049611E-3,8.376143E-2,-2.4077922E-2,8.1158085E-3,-9.475318E-2],"categories":[],"categories_nodes":[],"categories_segments":[],"categories_sizes":[],"default_left":[0,0,0,0,0,0,0,0,0,0,0,0,0,0,0,0,0,0,0,0,0,0,0,0,0,0,0,0,0,0,0,0,0],"id":16,"left_children":[1,3,5,7,9,11,13,15,17,19,-1,21,-1,23,-1,25,-1,27,29,31,-1,-1,-1,-1,-1,-1,-1,-1,-1,-1,-1,-1,-1],"loss_changes":[2.5476143E0,2.080074E0,3.2917216E0,2.8152518E0,1.9736948E0,2.1042943E0,1.780944E0,1.1340775E0,2.6940887E0,2.1085987E0,0E0,2.9707527E0,0E0,2.113016E0,0E0,4.809127E-1,0E0,1.3122118E0,1.1678025E0,1.2526903E0,0E0,0E0,0E0,0E0,0E0,0E0,0E0,0E0,0E0,0E0,0E0,0E0,0E0],"parents":[2147483647,0,0,1,1,2,2,3,3,4,4,5,5,6,6,7,7,8,8,9,9,11,11,13,13,15,15,17,17,18,18,19,19],"right_children":[2,4,6,8,10,12,14,16,18,20,-1,22,-1,24,-1,26,-1,28,30,32,-1,-1,-1,-1,-1,-1,-1,-1,-1,-1,-1,-1,-1],"split_conditions":[7.3706543E-1,3.455305E-1,6.519064E-1,6.5053356E-1,7.086301E-1,9.019886E-1,5.244817E-1,5.7332635E-1,1.7720461E-1,6.00913E-1,4.8364352E-2,1.23888016E-1,-2.354428E-2,2.062099E-1,-8.504691E-2,9.177685E-2,-1.266505E-2,8.057342E-1,8.8564295E-1,1.8689732E-1,2.9760007E-2,-1.208062E-2,1.2034439E-1,-5.4340698E-2,8.55544E-2,1.7342439E-2,1.02196954E-1,-1.1523618E-1,8.049611E-3,8.376143E-2,-2.4077922E-2,8.1158085E-3,-9.475318E-2],"split_indices":[51,53,26,10,40,9,25,18,2,18,0,47,0,21,0,9,0,45,15,33,0,0,0,0,0,0,0,0,0,0,0,0,0],"split_type":[0,0,0,0,0,0,0,0,0,0,0,0,0,0,0,0,0,0,0,0,0,0,0,0,0,0,0,0,0,0,0,0,0],"sum_hessian":[3.5509197E1,2.1772604E1,1.3736592E1,1.1055733E1,1.0716872E1,9.498966E0,4.237626E0,5.4886127E0,5.56712E0,9.473403E0,1.243469E0,7.8968925E0,1.6020739E0,2.4243612E0,1.813265E0,4.1595197E0,1.3290931E0,3.14631E0,2.42081E0,7.8285728E0,1.6448298E0,2.021738E0,5.8751545E0,1.1051193E0,1.319242E0,1.3916354E0,2.7678845E0,2.12403E0,1.02228E0,1.2228174E0,1.1979926E0,1.2247124E0,6.6038604E0],"tree_param":{"num_deleted":"0","num_feature":"59","num_nodes":"33","size_leaf_vector":"1"}},{"base_weights":[-4.0376097E-2,1.844061E-1,-4.4643366E-1,-1.0362786E-1,5.7908994E-1,-7.49285E-1,3.936556E-1,7.195046E-2,-3.2304046E-1,-5.8200955E-2,7.895006E-1,1.4071344E-1,-1.1070368E0,7.81977E-2,-2.512833E-2,-7.662816E-1,2.9342327E-1,1.0414369E0,-2.2916129E-2,6.35042E-2,-5.6849707E-2,-1.739573E-2,-1.4004764E-1,-1.1318614E-1,5.6681246E-4,-4.044721E-2,5.7511892E-2,1.2035384E-2,1.19424835E-1],"categories":[],"categories_nodes":[],"categories_segments":[],"categories_sizes":[],"default_left":[0,0,0,0,0,0,0,0,0,0,0,0,0,0,0,0,0,0,0,0,0,0,0,0,0,0,0,0,0],"id":17,"left_children":[1,3,5,7,9,11,13,-1,15,-1,17,19,21,-1,-1,23,25,27,-1,-1,-1,-1,-1,-1,-1,-1,-1,-1,-1],"loss_changes":[3.422558E0,2.8183267E0,3.6869392E0,2.9189434E0,2.9974475E0,3.3855581E0,1.2454195E0,0E0,3.6225002E0,0E0,2.6045918E0,1.6917071E0,1.7683325E0,0E0,0E0,2.1259456E0,1.3972644E0,9.219532E-1,0E0,0E0,0E0,0E0,0E0,0E0,0E0,0E0,0E0,0E0,0E0],"parents":[2147483647,0,0,1,1,2,2,3,3,4,4,5,5,6,6,8,8,10,10,11,11,12,12,15,15,16,16,17,17],"right_children":[2,4,6,8,10,12,14,-1,16,-1,18,20,22,-1,-1,24,26,28,-1,-1,-1,-1,-1,-1,-1,-1,-1,-1,-1],"split_conditions":[8.033403E-1,4.9694446E-1,9.5683163E-1,6.3827455E-1,6.2315035E-1,5.3400934E-1,8.3518493E-1,7.195046E-2,5.720711E-1,-5.8200955E-2,1.8303059E-1,7.7730775E-1,7.0760065E-1,7.81977E-2,-2.512833E-2,4.5268247E-1,6.712704E-1,6.433136E-1,-2.2916129E-2,6.35042E-2,-5.6849707E-2,-1.739573E-2,-1.4004764E-1,-1.1318614E-1,5.6681246E-4,-4.044721E-2,5.7511892E-2,1.2035384E-2,1.19424835E-1],"split_indices":[15,10,15,42,54,19,8,0,6,0,55,48,45,0,0,35,45,48,0,0,0,0,0,0,0,0,0,0,0],"split_type":[0,0,0,0,0,0,0,0,0,0,0,0,0,0,0,0,0,0,0,0,0,0,0,0,0,0,0,0,0],"sum_hessian":[3.5595463E1,2.3263369E1,1.2332093E1,1.3875033E1,9.388336E0,9.143838E0,3.1882553E0,2.4404366E0,1.1434597E1,1.169373E0,8.218963E0,2.7956424E0,6.3481956E0,1.8574135E0,1.3308418E0,6.510488E0,4.924109E0,6.571369E0,1.6475939E0,1.7090161E0,1.0866263E0,1.899855E0,4.4483404E0,4.101746E0,2.4087417E0,1.2906649E0,3.6334438E0,1.1894519E0,5.381917E0],"tree_param":{"num_deleted":"0","num_feature":"59","num_nodes":"29","size_leaf_vector":"1"}},{"base_weights":[4.064171E-2,-1.2560661E-1,5.0756174E-1,-1.0350585E-1,-9.403173E-3,1.0018908E-1,1.1582543E-1,2.0244011E-1,-4.5774105E-1,-3.232779E-1,6.802565E-1,-1.1990525E-1,5.829794E-1,7.7972E-2,-7.8777313E-1,2.6685072E-2,-6.2082464E-1,8.498791E-2,1.4939054E-2,-4.3932527E-2,5.6230765E-2,-4.356169E-2,8.444102E-2,1.1629338E-2,-1.0970678E-1,-1.2834633E-2,-8.201514E-2],"categories":[],"categories_nodes":[],"categories_segments":[],"categories_sizes":[],"default_left":[0,0,0,0,0,0,0,0,0,0,0,0,0,0,0,0,0,0,0,0,0,0,0,0,0,0,0],"id":18,"left_children":[1,3,5,-1,7,-1,9,11,13,15,17,19,21,-1,23,-1,25,-1,-1,-1,-1,-1,-1,-1,-1,-1,-1],"loss_changes":[2.9570484E0,2.9797757E0,1.8175101E0,0E0,2.5708299E0,0E0,1.8807739E0,2.328521E0,4.1588717E0,9.4650847E-1,1.6607714E-1,2.6000733E0,2.6618972E0,0E0,2.1826138E0,0E0,2.1445203E-1,0E0,0E0,0E0,0E0,0E0,0E0,0E0,0E0,0E0,0E0],"parents":[2147483647,0,0,1,1,2,2,4,4,6,6,7,7,8,8,9,9,10,10,11,11,12,12,14,14,16,16],"right_children":[2,4,6,-1,8,-1,10,12,14,16,18,20,22,-1,24,-1,26,-1,-1,-1,-1,-1,-1,-1,-1,-1,-1],"split_conditions":[1.7991014E-1,3.6568367E-1,4.55609E-1,-1.0350585E-1,7.538449E-1,1.0018908E-1,6.8096757E-1,1.0464577E-1,6.64726E-1,6.5006936E-1,9.367062E-1,7.3769283E-1,6.64726E-1,7.7972E-2,3.0173412E-1,2.6685072E-2,7.303512E-1,8.498791E-2,1.4939054E-2,-4.3932527E-2,5.6230765E-2,-4.356169E-2,8.444102E-2,1.1629338E-2,-1.0970678E-1,-1.2834633E-2,-8.201514E-2],"split_indices":[36,18,32,0,42,0,18,39,48,45,16,51,45,0,31,0,48,0,0,0,0,0,0,0,0,0,0],"split_type":[0,0,0,0,0,0,0,0,0,0,0,0,0,0,0,0,0,0,0,0,0,0,0,0,0,0,0],"sum_hessian":[3.6272884E1,2.7287924E1,8.984961E0,2.1957626E0,2.5092161E1,3.283709E0,5.7012515E0,1.7412893E1,7.6792684E0,3.446934E0,2.2543178E0,9.798085E0,7.6148076E0,1.3299688E0,6.3492994E0,1.1899847E0,2.2569494E0,1.253022E0,1.0012958E0,6.9159746E0,2.8821108E0,1.4191568E0,6.195651E0,1.7775463E0,4.571753E0,1.1239344E0,1.1330149E0],"tree_param":{"num_deleted":"0","num_feature":"59","num_nodes":"27","size_leaf_vector":"1"}},{"base_weights":[2.6016753E-2,1.20205045E-1,-4.6389928E-1,-3.416192E-3,6.5162265E-1,-8.81886E-1,1.8082947E-1,-1.5389392E-1,5.122101E-1,4.1648038E-2,1.077499E-1,-2.2316247E-2,-1.047095E-1,7.489147E-2,-4.8870273E-2,6.6120577E-1,-3.2582542E-1,-3.617186E-1,1.05437614E-1,5.251382E-2,-4.529394E-2,4.5586135E-3,8.6271554E-2,8.033471E-2,-4.4418905E-2,3.9935775E-2,-9.066949E-2],"categories":[],"categories_nodes":[],"categories_segments":[],"categories_sizes":[],"default_left":[0,0,0,0,0,0,0,0,0,0,0,0,0,0,0,0,0,0,0,0,0,0,0,0,0,0,0],"id":19,"left_children":[1,3,5,7,9,11,13,15,17,19,-1,-1,-1,-1,-1,21,23,25,-1,-1,-1,-1,-1,-1,-1,-1,-1],"loss_changes":[1.7645679E0,2.0948894E0,1.8241668E0,2.1611598E0,1.5181577E0,1.9268727E-1,1.6057426E0,3.2346041E0,3.3634982E0,1.0781465E0,0E0,0E0,0E0,0E0,0E0,4.6715963E-1,2.824193E0,1.6703686E0,0E0,0E0,0E0,0E0,0E0,0E0,0E0,0E0,0E0],"parents":[2147483647,0,0,1,1,2,2,3,3,4,4,5,5,6,6,7,7,8,8,9,9,15,15,16,16,17,17],"right_children":[2,4,6,8,10,12,14,16,18,20,-1,-1,-1,-1,-1,22,24,26,-1,-1,-1,-1,-1,-1,-1,-1,-1],"split_conditions":[6.9173205E-1,6.966418E-1,7.919634E-1,7.073848E-1,1.1783098E-1,8.512989E-2,8.2115555E-1,1.239475E-1,1.1314465E-1,9.651935E-2,1.077499E-1,-2.2316247E-2,-1.047095E-1,7.489147E-2,-4.8870273E-2,2.1425202E-2,7.04937E-2,7.368909E-1,1.05437614E-1,5.251382E-2,-4.529394E-2,4.5586135E-3,8.6271554E-2,8.033471E-2,-4.4418905E-2,3.9935775E-2,-9.066949E-2],"split_indices":[26,10,32,40,55,55,10,31,55,43,0,0,0,0,0,43,52,40,0,0,0,0,0,0,0,0,0],"split_type":[0,0,0,0,0,0,0,0,0,0,0,0,0,0,0,0,0,0,0,0,0,0,0,0,0,0,0],"sum_hessian":[3.603172E1,3.0854467E1,5.177252E0,2.5837564E1,5.0169024E0,2.9177759E0,2.2594757E0,2.0543728E1,5.293836E0,2.513976E0,2.5029266E0,1.056414E0,1.8613619E0,1.1582006E0,1.1012751E0,3.0828207E0,1.7460907E1,2.1542242E0,3.139612E0,1.2400143E0,1.2739618E0,1.0626401E0,2.0201805E0,1.1075853E0,1.6353321E1,1.0103878E0,1.1438365E0],"tree_param":{"num_deleted":"0","num_feature":"59","num_nodes":"27","size_leaf_vector":"1"}},{"base_weights":[-7.420854E-3,-1.458083E-1,3.9049605E-1,-2.9758686E-2,-8.8244003E-1,8.942732E-1,-2.3736314E-1,-2.84235E-1,6.1664283E-1,-2.293737E-2,-1.03561915E-1,1.0261805E-1,1.7588204E-2,-8.134333E-2,6.026235E-2,-4.042269E-1,6.1203398E-2,4.7048952E-2,1.001693E-1,2.522274E-2,-5.6771763E-2,7.856519E-2,-4.8004624E-2],"categories":[],"categories_nodes":[],"categories_segments":[],"categories_sizes":[],"default_left":[0,0,0,0,0,0,0,0,0,0,0,0,0,0,0,0,0,0,0,0,0,0,0],"id":20,"left_children":[1,3,5,7,9,11,13,15,17,-1,-1,-1,-1,-1,-1,19,-1,21,-1,-1,-1,-1,-1],"loss_changes":[2.1156704E0,2.4072819E0,3.3496478E0,4.390876E0,1.4654231E-1,3.608861E-1,3.0092988E0,2.298607E0,1.6097908E0,0E0,0E0,0E0,0E0,0E0,0E0,2.0131307E0,0E0,1.9719505E0,0E0,0E0,0E0,0E0,0E0],"parents":[2147483647,0,0,1,1,2,2,3,3,4,4,5,5,6,6,7,7,8,8,15,15,17,17],"right_children":[2,4,6,8,10,12,14,16,18,-1,-1,-1,-1,-1,-1,20,-1,22,-1,-1,-1,-1,-1],"split_conditions":[1.7991014E-1,9.1880244E-1,5.658674E-1,5.320885E-1,1.1933851E-1,5.454768E-1,7.5850266E-1,8.9312315E-1,6.0868835E-1,-2.293737E-2,-1.03561915E-1,1.0261805E-1,1.7588204E-2,-8.134333E-2,6.026235E-2,1.7303717E-1,6.1203398E-2,7.125184E-1,1.001693E-1,2.522274E-2,-5.6771763E-2,7.856519E-2,-4.8004624E-2],"split_indices":[36,16,26,14,3,32,33,3,26,0,0,0,0,0,0,14,0,0,0,0,0,0,0],"split_type":[0,0,0,0,0,0,0,0,0,0,0,0,0,0,0,0,0,0,0,0,0,0,0],"sum_hessian":[3.638617E1,2.7467203E1,8.918966E0,2.4627728E1,2.8394754E0,4.7130337E0,4.205932E0,1.8073002E1,6.5547256E0,1.0139605E0,1.8255148E0,3.6199203E0,1.0931135E0,2.5136564E0,1.6922758E0,1.6423256E1,1.6497456E0,3.0964394E0,3.458286E0,3.1664479E0,1.3256808E1,1.0852206E0,2.0112188E0],"tree_param":{"num_deleted":"0","num_feature":"59","num_nodes":"23","size_leaf_vector":"1"}},{"base_weights":[-1.4017498E-2,-9.791034E-2,6.1991006E-1,3.3540565E-1,-2.4935818E-1,9.457657E-2,-1.1411821E-2,-2.2774662E-1,1.0026544E-1,6.48404E-2,-3.4487483E-1,3.376774E-1,-7.954295E-2,1.616485E-1,-4.765636E-1,-2.5292316E-2,7.252359E-2,7.747801E-2,-5.8903623E-2,-7.142812E-2,6.015276E-3],"categories":[],"categories_nodes":[],"categories_segments":[],"categories_sizes":[],"default_left":[0,0,0,0,0,0,0,0,0,0,0,0,0,0,0,0,0,0,0,0,0],"id":21,"left_children":[1,3,5,7,9,-1,-1,11,-1,-1,13,15,-1,17,19,-1,-1,-1,-1,-1,-1],"loss_changes":[1.8603886E0,2.101526E0,1.0865318E0,3.3810291E0,2.226667E0,0E0,0E0,1.9906178E0,0E0,0E0,1.5288599E0,9.5931983E-1,0E0,2.8671606E0,2.2792566E0,0E0,0E0,0E0,0E0,0E0,0E0],"parents":[2147483647,0,0,1,1,2,2,3,3,4,4,7,7,10,10,11,11,13,13,14,14],"right_children":[2,4,6,8,10,-1,-1,12,-1,-1,14,16,-1,18,20,-1,-1,-1,-1,-1,-1],"split_conditions":[7.616713E-1,2.8947198E-1,9.3183607E-1,4.180866E-1,6.148912E-1,9.457657E-2,-1.1411821E-2,4.0892553E-1,1.0026544E-1,6.48404E-2,6.7841977E-1,1.6928948E-1,-7.954295E-2,7.56822E-1,7.278764E-1,-2.5292316E-2,7.252359E-2,7.747801E-2,-5.8903623E-2,-7.142812E-2,6.015276E-3],"split_indices":[33,26,16,18,48,0,0,50,0,0,0,20,0,54,54,0,0,0,0,0,0],"split_type":[0,0,0,0,0,0,0,0,0,0,0,0,0,0,0,0,0,0,0,0,0],"sum_hessian":[3.2840275E1,2.9748907E1,3.0913672E0,7.3900776E0,2.235883E1,1.9411689E0,1.1501983E0,4.3648553E0,3.0252223E0,1.5934637E0,2.0765366E1,2.389765E0,1.9750905E0,4.2377844E0,1.6527582E1,1.0844953E0,1.3052696E0,2.3149343E0,1.9228504E0,1.1225048E1,5.3025336E0],"tree_param":{"num_deleted":"0","num_feature":"59","num_nodes":"21","size_leaf_vector":"1"}},{"base_weights":[5.1074915E-2,4.8714393E-1,-6.070745E-2,7.515059E-1,-5.5001736E-2,-3.7145343E-1,1.8105565E-1,-1.972024E-2,1.07542984E-1,-5.526798E-1,4.9055684E-2,3.1611502E-1,-5.8624383E-2,-9.988064E-2,-1.1460418E-1,8.5813844E-1,6.557687E-2,7.003843E-2,-4.8095975E-2,1.8275727E-2,1.02458954E-1,-1.3470876E-2,8.3285145E-2],"categories":[],"categories_nodes":[],"categories_segments":[],"categories_sizes":[],"default_left":[0,0,0,0,0,0,0,0,0,0,0,0,0,0,0,0,0,0,0,0,0,0,0],"id":22,"left_children":[1,3,5,7,-1,9,11,-1,-1,13,-1,15,-1,-1,17,19,21,-1,-1,-1,-1,-1,-1],"loss_changes":[1.827829E0,2.5075765E0,2.3400834E0,2.2124124E0,0E0,2.390338E0,2.0182955E0,0E0,0E0,2.16811E0,0E0,2.0743675E0,0E0,0E0,2.4335907E0,3.6101198E-1,1.927519E0,0E0,0E0,0E0,0E0,0E0,0E0],"parents":[2147483647,0,0,1,1,2,2,3,3,5,5,6,6,9,9,11,11,14,14,15,15,16,16],"right_children":[2,4,6,8,-1,10,12,-1,-1,14,-1,16,-1,-1,18,20,22,-1,-1,-1,-1,-1,-1],"split_conditions":[1.8158278E-1,5.3865004E-1,1.00976065E-1,3.3473215E-1,-5.5001736E-2,1.23781696E-1,2.2911151E-1,-1.972024E-2,1.07542984E-1,1.0331659E-1,4.9055684E-2,1.092878E-1,-5.8624383E-2,-9.988064E-2,1.1405642E-1,9.495358E-2,1.706913E-1,7.003843E-2,-4.8095975E-2,1.8275727E-2,1.02458954E-1,-1.3470876E-2,8.3285145E-2],"split_indices":[8,18,49,18,0,46,49,0,0,36,0,52,0,0,36,55,36,0,0,0,0,0,0],"split_type":[0,0,0,0,0,0,0,0,0,0,0,0,0,0,0,0,0,0,0,0,0,0,0],"sum_hessian":[3.5891212E1,6.6380095E0,2.92532E1,5.5091925E0,1.1288171E0,1.2565683E1,1.668752E1,1.5018327E0,4.00736E0,1.067934E1,1.886343E0,1.4689841E1,1.9976768E0,4.656884E0,6.0224557E0,3.8770053E0,1.0812836E1,1.5849164E0,4.4375396E0,1.1813993E0,2.695606E0,9.228345E0,1.5844905E0],"tree_param":{"num_deleted":"0","num_feature":"59","num_nodes":"23","size_leaf_vector":"1"}},{"base_weights":[5.6304503E-3,6.8064183E-1,-1.1040134E-1,-6.543009E-3,9.523158E-2,4.5506248E-1,-2.910724E-1,7.4158186E-1,-2.682132E-2,2.8058454E-1,-4.6634543E-1,9.6440506E-1,-1.41435405E-2,-2.3743686E-1,6.667839E-1,-1.6436526E-1,-8.336431E-1,2.6791433E-2,1.10242896E-1,2.0451605E-2,-5.656903E-2,8.3234906E-2,1.3390017E-2,-4.317715E-2,8.386608E-2,-1.0424744E-1,2.0932417E-2],"categories":[],"categories_nodes":[],"categories_segments":[],"categories_sizes":[],"default_left":[0,0,0,0,0,0,0,0,0,0,0,0,0,0,0,0,0,0,0,0,0,0,0,0,0,0,0],"id":23,"left_children":[1,3,5,-1,-1,7,9,11,-1,13,15,17,-1,19,21,23,25,-1,-1,-1,-1,-1,-1,-1,-1,-1,-1],"loss_changes":[2.8191397E0,1.1321976E0,3.2745767E0,0E0,0E0,1.8230739E0,2.5273914E0,1.293184E0,0E0,1.4060949E0,1.9350677E0,1.6824198E-1,0E0,6.091267E-1,2.2696316E-1,3.4460347E0,2.0006304E0,0E0,0E0,0E0,0E0,0E0,0E0,0E0,0E0,0E0,0E0],"parents":[2147483647,0,0,1,1,2,2,5,5,6,6,7,7,9,9,10,10,11,11,13,13,14,14,15,15,16,16],"right_children":[2,4,6,-1,-1,8,10,12,-1,14,16,18,-1,20,22,24,26,-1,-1,-1,-1,-1,-1,-1,-1,-1,-1],"split_conditions":[2.258082E-1,8.916257E-2,7.13951E-2,-6.543009E-3,9.523158E-2,1.0571872E-1,6.765796E-1,6.7093146E-1,-2.682132E-2,1.2283748E-1,1.5253869E-1,7.049067E-2,-1.41435405E-2,3.5375214E-1,1.2933636E-1,1.2575248E-1,7.994763E-1,2.6791433E-2,1.10242896E-1,2.0451605E-2,-5.656903E-2,8.3234906E-2,1.3390017E-2,-4.317715E-2,8.386608E-2,-1.0424744E-1,2.0932417E-2],"split_indices":[26,55,36,0,0,43,51,40,0,39,39,46,0,4,13,39,54,0,0,0,0,0,0,0,0,0,0],"split_type":[0,0,0,0,0,0,0,0,0,0,0,0,0,0,0,0,0,0,0,0,0,0,0,0,0,0,0],"sum_hessian":[3.4034454E1,4.2784877E0,2.9755966E1,1.3447338E0,2.933754E0,6.837438E0,2.291853E1,4.879254E0,1.9581841E0,5.2370214E0,1.7681507E1,3.8225021E0,1.0567517E0,2.401291E0,2.8357306E0,1.0497941E1,7.1835666E0,1.1186557E0,2.7038465E0,1.1840583E0,1.2172325E0,1.7347721E0,1.1009586E0,8.737942E0,1.7599994E0,5.9855614E0,1.1980048E0],"tree_param":{"num_deleted":"0","num_feature":"59","num_nodes":"27","size_leaf_vector":"1"}},{"base_weights":[5.9766546E-2,5.696433E-1,-4.759949E-2,9.585109E-2,1.3359183E-2,-8.767896E-2,2.053245E-2,5.5587765E-2,-5.7301015E-2,-4.2257217E-1,1.3894139E-1,2.6650066E-2,-7.0827806E-1,-1.9393032E-2,5.986189E-1,-9.09778E-2,-1.2408442E-2,2.9419163E-2,-5.6221377E-2,-1.648594E-2,8.298235E-2],"categories":[],"categories_nodes":[],"categories_segments":[],"categories_sizes":[],"default_left":[0,0,0,0,0,0,0,0,0,0,0,0,0,0,0,0,0,0,0,0,0],"id":24,"left_children":[1,3,5,-1,7,-1,9,-1,-1,11,13,-1,15,17,19,-1,-1,-1,-1,-1,-1],"loss_changes":[1.952093E0,1.3270087E0,1.7111373E0,0E0,1.4517833E0,0E0,1.5630386E0,0E0,0E0,1.4277797E0,1.713125E0,0E0,4.4299722E-1,3.2901638E0,1.1995962E0,0E0,0E0,0E0,0E0,0E0,0E0],"parents":[2147483647,0,0,1,1,2,2,4,4,6,6,9,9,10,10,12,12,13,13,14,14],"right_children":[2,4,6,-1,8,-1,10,-1,-1,12,14,-1,16,18,20,-1,-1,-1,-1,-1,-1],"split_conditions":[5.2842055E-2,4.5917284E-1,6.35533E-2,9.585109E-2,5.14706E-1,-8.767896E-2,8.887589E-2,5.5587765E-2,-5.7301015E-2,4.1328263E-1,7.065227E-1,2.6650066E-2,6.0493755E-1,6.2717366E-1,2.4635315E-2,-9.09778E-2,-1.2408442E-2,2.9419163E-2,-5.6221377E-2,-1.648594E-2,8.298235E-2],"split_indices":[49,11,11,0,15,0,55,0,0,32,40,0,19,40,3,0,0,0,0,0,0],"split_type":[0,0,0,0,0,0,0,0,0,0,0,0,0,0,0,0,0,0,0,0,0],"sum_hessian":[3.4163628E1,5.193639E0,2.896999E1,2.6312304E0,2.5624082E0,1.2984457E0,2.7671545E1,1.357982E0,1.2044263E0,5.293541E0,2.2378004E1,1.5712295E0,3.7223115E0,1.7357187E1,5.0208154E0,2.353292E0,1.3690196E0,1.1291931E1,6.0652566E0,1.2337403E0,3.787075E0],"tree_param":{"num_deleted":"0","num_feature":"59","num_nodes":"21","size_leaf_vector":"1"}},{"base_weights":[1.0316954E-1,3.5295415E-1,-1.3402809E-1,6.136133E-1,-3.8287006E-2,1.706955E-1,-5.099238E-1,8.2607853E-1,-2.60283E-2,-5.009546E-1,3.5957092E-1,-1.3915895E-1,8.217999E-2,2.777346E-1,-8.407713E-1,1.0200689E-1,1.884128E-1,1.601144E-2,-7.918666E-2,6.886614E-1,-4.2897746E-2,4.2656144E-1,-5.2739954E-1,7.360961E-2,-3.0554578E-2,-1.1118179E-1,3.8884268E-3,-4.910178E-2,7.5216375E-2,2.0801112E-2,8.1355385E-2,-2.0651124E-2,8.1134774E-2,-7.9731055E-2,2.1821005E-2],"categories":[],"categories_nodes":[],"categories_segments":[],"categories_sizes":[],"default_left":[0,0,0,0,0,0,0,0,0,0,0,0,0,0,0,0,0,0,0,0,0,0,0,0,0,0,0,0,0,0,0,0,0,0,0],"id":25,"left_children":[1,3,5,7,9,11,13,15,-1,17,19,21,-1,23,25,-1,27,-1,-1,29,-1,31,33,-1,-1,-1,-1,-1,-1,-1,-1,-1,-1,-1,-1],"loss_changes":[2.0676265E0,1.7453489E0,2.1734731E0,2.1073587E0,1.596099E0,2.2950726E0,2.42406E0,8.5161495E-1,0E0,8.9110553E-1,1.5197526E0,2.0213623E0,0E0,1.090634E0,1.513813E0,0E0,1.593036E0,0E0,0E0,5.363667E-2,0E0,1.1130794E0,1.2400866E0,0E0,0E0,0E0,0E0,0E0,0E0,0E0,0E0,0E0,0E0,0E0,0E0],"parents":[2147483647,0,0,1,1,2,2,3,3,4,4,5,5,6,6,7,7,9,9,10,10,11,11,13,13,14,14,16,16,19,19,21,21,22,22],"right_children":[2,4,6,8,10,12,14,16,-1,18,20,22,-1,24,26,-1,28,-1,-1,30,-1,32,34,-1,-1,-1,-1,-1,-1,-1,-1,-1,-1,-1,-1],"split_conditions":[7.187915E-1,4.1706204E-1,9.521516E-2,6.690999E-1,1.0485941E-1,7.5481164E-1,1.9654536E-1,5.6304985E-1,-2.60283E-2,5.973758E-1,7.6588804E-1,6.8940437E-1,8.217999E-2,2.926325E-1,4.522276E-1,1.0200689E-1,7.3417777E-1,1.601144E-2,-7.918666E-2,2.7222264E-1,-4.2897746E-2,1.0610447E-1,7.7730775E-1,7.360961E-2,-3.0554578E-2,-1.1118179E-1,3.8884268E-3,-4.910178E-2,7.5216375E-2,2.0801112E-2,8.1355385E-2,-2.0651124E-2,8.1134774E-2,-7.9731055E-2,2.1821005E-2],"split_indices":[45,53,46,26,36,54,50,33,0,40,54,48,0,9,22,0,15,0,0,19,0,39,45,0,0,0,0,0,0,0,0,0,0,0,0],"split_type":[0,0,0,0,0,0,0,0,0,0,0,0,0,0,0,0,0,0,0,0,0,0,0,0,0,0,0,0,0,0,0,0,0,0,0],"sum_hessian":[3.3099213E1,1.588415E1,1.7215063E1,9.191835E0,6.6923137E0,9.809109E0,7.405955E0,7.438158E0,1.7536774E0,2.9743373E0,3.7179763E0,7.1789746E0,2.6301339E0,2.2381237E0,5.167831E0,5.24334E0,2.1948183E0,1.0463105E0,1.9280268E0,2.7125857E0,1.0053905E0,2.8815105E0,4.297464E0,1.1065588E0,1.1315649E0,3.7487974E0,1.4190338E0,1.0537994E0,1.1410189E0,1.109228E0,1.6033577E0,1.2644589E0,1.6170516E0,3.1043482E0,1.1931158E0],"tree_param":{"num_deleted":"0","num_feature":"59","num_nodes":"35","size_leaf_vector":"1"}},{"base_weights":[1.0726537E-2,-5.300672E-1,8.239872E-2,-8.704714E-2,6.5523856E-3,-3.6786923E-1,2.0625652E-1,-8.111426E-2,4.733071E-2,8.209216E-1,2.1161638E-2,-5.3338993E-2,6.274586E-2,1.323391E-2,9.6935906E-2,8.4107816E-2,-1.0184283E-1,3.43279E-2,-4.167829E-2],"categories":[],"categories_nodes":[],"categories_segments":[],"categories_sizes":[],"default_left":[0,0,0,0,0,0,0,0,0,0,0,0,0,0,0,0,0,0,0],"id":26,"left_children":[1,3,5,-1,-1,7,9,-1,11,13,15,-1,-1,-1,-1,-1,17,-1,-1],"loss_changes":[1.3047928E0,8.5625434E-1,1.726342E0,0E0,0E0,1.2795651E0,2.696167E0,0E0,1.8261098E0,4.332173E-1,2.0379057E0,0E0,0E0,0E0,0E0,0E0,2.6277573E0,0E0,0E0],"parents":[2147483647,0,0,1,1,2,2,5,5,6,6,8,8,9,9,10,10,16,16],"right_children":[2,4,6,-1,-1,8,10,-1,12,14,16,-1,-1,-1,-1,-1,18,-1,-1],"split_conditions":[6.2315035E-1,1.6773312E-1,3.403353E-1,-8.704714E-2,6.5523856E-3,1.2234729E-1,5.239552E-1,-8.111426E-2,5.5907714E-1,1.15290046E-1,6.5441686E-1,-5.3338993E-2,6.274586E-2,1.323391E-2,9.6935906E-2,8.4107816E-2,7.1787024E-1,3.43279E-2,-4.167829E-2],"split_indices":[54,55,10,0,0,39,15,0,40,8,54,0,0,0,0,0,48,0,0],"split_type":[0,0,0,0,0,0,0,0,0,0,0,0,0,0,0,0,0,0,0],"sum_hessian":[3.1536638E1,2.9420493E0,2.859459E1,1.5784032E0,1.363646E0,5.743779E0,2.2850811E1,2.316757E0,3.427022E0,4.493525E0,1.8357286E1,1.7528981E0,1.674124E0,1.1323314E0,3.3611937E0,1.6331744E0,1.6724112E1,6.892536E0,9.831574E0],"tree_param":{"num_deleted":"0","num_feature":"59","num_nodes":"19","size_leaf_vector":"1"}},{"base_weights":[-3.244052E-2,-1.5318221E-1,3.7547135E-1,6.9214374E-2,-2.2013113E-1,6.704661E-1,-2.714381E-1,-4.901572E-2,-6.820517E-1,1.0557832E-1,-5.8728594E-2,-6.0057342E-2,1.9125598E-2,3.202507E-1,-3.6527288E-1,-8.937711E-1,8.719574E-3,-4.9818806E-2,5.5750407E-2,-9.639184E-2,-1.3285845E-2,-2.3011455E-2,-1.03359245E-1],"categories":[],"categories_nodes":[],"categories_segments":[],"categories_sizes":[],"default_left":[0,0,0,0,0,0,0,0,0,0,0,0,0,0,0,0,0,0,0,0,0,0,0],"id":27,"left_children":[1,3,5,-1,7,9,11,13,15,-1,-1,-1,-1,17,19,21,-1,-1,-1,-1,-1,-1,-1],"loss_changes":[1.7298148E0,1.6752579E0,1.7171929E0,0E0,1.9974043E0,3.4373837E0,6.0695857E-1,2.4322667E0,1.1964352E0,0E0,0E0,0E0,0E0,2.1572006E0,1.4227835E0,2.701373E-1,0E0,0E0,0E0,0E0,0E0,0E0,0E0],"parents":[2147483647,0,0,1,1,2,2,4,4,5,5,6,6,7,7,8,8,13,13,14,14,15,15],"right_children":[2,4,6,-1,8,10,12,14,16,-1,-1,-1,-1,18,20,22,-1,-1,-1,-1,-1,-1,-1],"split_conditions":[5.485177E-1,5.682063E-2,9.552498E-1,6.9214374E-2,7.6238275E-1,7.731917E-1,9.3591785E-1,3.8864517E-1,7.057017E-1,1.0557832E-1,-5.8728594E-2,-6.0057342E-2,1.9125598E-2,6.4209604E-1,8.9189336E-2,6.6713065E-1,8.719574E-3,-4.9818806E-2,5.5750407E-2,-9.639184E-2,-1.3285845E-2,-2.3011455E-2,-1.03359245E-1],"split_indices":[3,41,5,0,0,48,44,29,32,0,0,0,0,54,55,48,0,0,0,0,0,0,0],"split_type":[0,0,0,0,0,0,0,0,0,0,0,0,0,0,0,0,0,0,0,0,0,0,0],"sum_hessian":[3.295396E1,2.5909296E1,7.044665E0,1.2160859E0,2.4693209E1,4.8133383E0,2.2313266E0,1.882553E1,5.8676796E0,3.8074815E0,1.0058568E0,1.1297159E0,1.1016107E0,8.679082E0,1.0146448E1,4.4743347E0,1.3933449E0,1.7033441E0,6.9757376E0,1.9573524E0,8.1890955E0,1.2390425E0,3.2352922E0],"tree_param":{"num_deleted":"0","num_feature":"59","num_nodes":"23","size_leaf_vector":"1"}},{"base_weights":[4.1404463E-2,-5.1717776E-1,1.6164044E-1,1.1383239E-2,-7.998869E-1,6.48689E-1,-2.8644815E-2,-9.210431E-2,-2.4046652E-2,-2.3747858E-2,8.1649923E-1,-1.8933176E-1,6.598666E-1,9.556148E-2,1.2653586E-3,-5.709258E-1,1.7494145E-1,9.059247E-2,-3.59944E-3,-8.472701E-2,5.2689828E-2,4.533435E-2,-4.0886324E-2],"categories":[],"categories_nodes":[],"categories_segments":[],"categories_sizes":[],"default_left":[0,0,0,0,0,0,0,0,0,0,0,0,0,0,0,0,0,0,0,0,0,0,0],"id":28,"left_children":[1,3,5,-1,7,9,11,-1,-1,-1,13,15,17,-1,-1,19,21,-1,-1,-1,-1,-1,-1],"loss_changes":[2.2580988E0,1.1565783E0,2.5583515E0,0E0,6.65369E-2,1.3450537E0,2.4109986E0,0E0,0E0,0E0,7.4093676E-1,2.5366673E0,7.402487E-1,0E0,0E0,3.1149766E0,1.7674692E0,0E0,0E0,0E0,0E0,0E0,0E0],"parents":[2147483647,0,0,1,1,2,2,4,4,5,5,6,6,10,10,11,11,12,12,15,15,16,16],"right_children":[2,4,6,-1,8,10,12,-1,-1,-1,14,16,18,-1,-1,20,22,-1,-1,-1,-1,-1,-1],"split_conditions":[3.007067E-1,2.4156035E-1,5.239552E-1,1.1383239E-2,1.7991014E-1,6.1853486E-1,1.721812E-1,-9.210431E-2,-2.4046652E-2,-2.3747858E-2,4.8140004E-1,5.73244E-1,2.4251953E-1,9.556148E-2,1.2653586E-3,7.4799323E-1,1.5463743E-1,9.059247E-2,-3.59944E-3,-8.472701E-2,5.2689828E-2,4.533435E-2,-4.0886324E-2],"split_indices":[10,25,15,0,36,1,43,0,0,0,31,32,39,0,0,20,39,0,0,0,0,0,0],"split_type":[0,0,0,0,0,0,0,0,0,0,0,0,0,0,0,0,0,0,0,0,0,0,0],"sum_hessian":[3.1377125E1,4.9729333E0,2.6404192E1,1.7234727E0,3.2494605E0,6.741026E0,1.9663166E1,2.139644E0,1.1098164E0,1.0071795E0,5.733846E0,1.6530289E1,3.1328776E0,4.7269793E0,1.0068672E0,7.796145E0,8.734144E0,2.0914574E0,1.0414202E0,6.410677E0,1.3854681E0,6.0652456E0,2.6688983E0],"tree_param":{"num_deleted":"0","num_feature":"59","num_nodes":"23","size_leaf_vector":"1"}},{"base_weights":[1.0708723E-2,-1.918693E-1,2.6517656E-1,6.842742E-2,-2.967749E-1,4.7290966E-1,-7.0912674E-2,-7.510733E-1,-3.4177534E-2,5.172321E-2,8.429355E-1,9.458952E-3,-9.733364E-1,-5.22652E-1,1.99472E-1,5.27672E-1,-6.023331E-1,1.1824849E-2,9.9228516E-2,-1.1334785E-1,-1.8918125E-2,-8.245718E-2,7.840543E-3,5.1310506E-2,-3.3229202E-2,-7.1199276E-3,8.851632E-2,-7.643062E-2,-1.6090458E-2],"categories":[],"categories_nodes":[],"categories_segments":[],"categories_sizes":[],"default_left":[0,0,0,0,0,0,0,0,0,0,0,0,0,0,0,0,0,0,0,0,0,0,0,0,0,0,0,0,0],"id":29,"left_children":[1,3,5,-1,7,9,-1,11,13,15,17,-1,19,21,23,25,27,-1,-1,-1,-1,-1,-1,-1,-1,-1,-1,-1,-1],"loss_changes":[1.7561767E0,1.9492661E0,3.3879325E0,0E0,2.0816479E0,1.9873757E0,0E0,1.2992852E0,1.5014143E0,2.5466797E0,6.264062E-1,0E0,4.3537188E-1,8.335651E-1,1.6722627E0,1.0643752E0,1.2602651E-1,0E0,0E0,0E0,0E0,0E0,0E0,0E0,0E0,0E0,0E0,0E0,0E0],"parents":[2147483647,0,0,1,1,2,2,4,4,5,5,7,7,8,8,9,9,10,10,12,12,13,13,14,14,15,15,16,16],"right_children":[2,4,6,-1,8,10,-1,12,14,16,18,-1,20,22,24,26,28,-1,-1,-1,-1,-1,-1,-1,-1,-1,-1,-1,-1],"split_conditions":[2.4750137E-1,4.2653024E-2,8.940351E-1,6.842742E-2,3.1408602E-1,4.6890065E-1,-7.0912674E-2,6.148912E-1,1.3214159E-1,5.14706E-1,4.7088005E-2,9.458952E-3,1.7677785E-1,7.2717196E-1,3.4077147E-1,6.9038296E-1,4.3178612E-1,1.1824849E-2,9.9228516E-2,-1.1334785E-1,-1.8918125E-2,-8.245718E-2,7.840543E-3,5.1310506E-2,-3.3229202E-2,-7.1199276E-3,8.851632E-2,-7.643062E-2,-1.6090458E-2],"split_indices":[34,8,16,0,14,10,0,0,53,17,46,0,36,48,31,51,10,0,0,0,0,0,0,0,0,0,0,0,0],"split_type":[0,0,0,0,0,0,0,0,0,0,0,0,0,0,0,0,0,0,0,0,0,0,0,0,0,0,0,0,0],"sum_hessian":[3.2080715E1,1.7998432E1,1.4082283E1,1.3340491E0,1.6664383E1,1.2031616E1,2.0506668E0,5.422751E0,1.1241632E1,6.159861E0,5.8717556E0,1.2481681E0,4.174583E0,3.2371168E0,8.004516E0,3.6772227E0,2.4826384E0,1.3094906E0,4.562265E0,3.0966916E0,1.0778913E0,1.9072226E0,1.3298942E0,5.056999E0,2.9475164E0,1.6739119E0,2.003311E0,1.2811198E0,1.2015185E0],"tree_param":{"num_deleted":"0","num_feature":"59","num_nodes":"29","size_leaf_vector":"1"}},{"base_weights":[8.1830315E-2,1.5777186E-1,-6.469532E-2,-1.2848127E-2,4.6921164E-1,5.788854E-1,-1.6493995E-1,-8.526715E-2,7.5186473E-1,1.0624713E-2,7.317167E-2,6.984032E-2,-2.766407E-1,6.0106467E-2,-5.914229E-2,-4.810607E-3,9.1019094E-1,-4.3131463E-2,2.684545E-2,1.0336258E-1,1.855582E-2],"categories":[],"categories_nodes":[],"categories_segments":[],"categories_sizes":[],"default_left":[0,0,0,0,0,0,0,0,0,0,0,0,0,0,0,0,0,0,0,0,0],"id":30,"left_children":[1,3,-1,5,7,9,11,13,15,-1,-1,-1,17,-1,-1,-1,19,-1,-1,-1,-1],"loss_changes":[1.8090961E0,1.5330322E0,0E0,1.8539455E0,1.6623433E0,2.2686219E-1,1.7672398E0,1.8636245E0,9.1218615E-1,0E0,0E0,0E0,1.3946723E0,0E0,0E0,0E0,3.2463694E-1,0E0,0E0,0E0,0E0],"parents":[2147483647,0,0,1,1,3,3,4,4,5,5,6,6,7,7,8,8,12,12,16,16],"right_children":[2,4,-1,6,8,10,12,14,16,-1,-1,-1,18,-1,-1,-1,20,-1,-1,-1,-1],"split_conditions":[9.463463E-1,5.73244E-1,-6.469532E-2,2.2179748E-1,7.0760065E-1,3.4209466E-1,5.97189E-1,6.7303467E-1,4.5974705E-1,1.0624713E-2,7.317167E-2,6.984032E-2,7.073848E-1,6.0106467E-2,-5.914229E-2,-4.810607E-3,7.247504E-1,-4.3131463E-2,2.684545E-2,1.0336258E-1,1.855582E-2],"split_indices":[16,32,0,26,51,21,51,51,10,0,0,0,40,0,0,0,40,0,0,0,0],"split_type":[0,0,0,0,0,0,0,0,0,0,0,0,0,0,0,0,0,0,0,0,0],"sum_hessian":[2.9843382E1,2.7736649E1,2.106733E0,1.8538961E1,9.197687E0,3.216926E0,1.5322036E1,3.3413382E0,5.8563495E0,1.2002587E0,2.0166674E0,1.1535692E0,1.4168467E1,1.3386544E0,2.0026839E0,1.0825809E0,4.7737684E0,1.1199328E1,2.9691381E0,3.7146044E0,1.059164E0],"tree_param":{"num_deleted":"0","num_feature":"59","num_nodes":"21","size_leaf_vector":"1"}},{"base_weights":[8.645405E-2,1.6200504E-1,-5.204361E-1,-3.7884954E-1,2.5426134E-1,2.2654606E-2,-8.8196106E-2,-7.179035E-1,4.253044E-2,4.837173E-1,2.0328237E-2,-8.5025035E-2,-2.2999706E-2,8.3624524E-1,4.2571E-2,-5.31779E-1,1.7821363E-1,5.4698666E-3,9.650544E-2,-3.6676534E-2,3.99737E-2,1.0097833E-2,-8.57436E-2,-3.3066418E-2,4.760314E-2],"categories":[],"categories_nodes":[],"categories_segments":[],"categories_sizes":[],"default_left":[0,0,0,0,0,0,0,0,0,0,0,0,0,0,0,0,0,0,0,0,0,0,0,0,0],"id":31,"left_children":[1,3,5,7,9,-1,-1,11,-1,13,15,-1,-1,17,19,21,23,-1,-1,-1,-1,-1,-1,-1,-1],"loss_changes":[1.5498521E0,1.5526805E0,1.2195008E0,1.5744431E0,1.3606749E0,0E0,0E0,3.989327E-2,0E0,1.9621093E0,1.287835E0,0E0,0E0,6.605959E-1,1.1348284E0,7.6547414E-1,1.8839109E0,0E0,0E0,0E0,0E0,0E0,0E0,0E0,0E0],"parents":[2147483647,0,0,1,1,2,2,3,3,4,4,7,7,9,9,10,10,13,13,14,14,15,15,16,16],"right_children":[2,4,6,8,10,-1,-1,12,-1,14,16,-1,-1,18,20,22,24,-1,-1,-1,-1,-1,-1,-1,-1],"split_conditions":[9.463463E-1,6.2315035E-1,3.5607338E-2,4.2904598E-1,2.967013E-1,2.2654606E-2,-8.8196106E-2,1.4850618E-1,4.253044E-2,7.338027E-1,1.3306308E-1,-8.5025035E-2,-2.2999706E-2,3.2209814E-2,5.8821166E-1,5.6653976E-2,1.3355273E-1,5.4698666E-3,9.650544E-2,-3.6676534E-2,3.99737E-2,1.0097833E-2,-8.57436E-2,-3.3066418E-2,4.760314E-2],"split_indices":[16,54,3,25,21,0,0,55,0,48,53,0,0,25,18,2,52,0,0,0,0,0,0,0,0],"split_type":[0,0,0,0,0,0,0,0,0,0,0,0,0,0,0,0,0,0,0,0,0,0,0,0,0],"sum_hessian":[3.096297E1,2.8187057E1,2.775914E0,3.6547155E0,2.4532341E1,1.0270942E0,1.7488198E0,2.6462417E0,1.008474E0,1.1845646E1,1.2686696E1,1.4974115E0,1.14883E0,6.08633E0,5.7593155E0,2.2946017E0,1.0392094E1,1.0627524E0,5.0235777E0,2.6711364E0,3.088179E0,1.014104E0,1.2804978E0,3.7958605E0,6.5962334E0],"tree_param":{"num_deleted":"0","num_feature":"59","num_nodes":"25","size_leaf_vector":"1"}},{"base_weights":[-5.4495733E-2,7.222799E-2,-1.167384E-1,-5.500172E-1,2.1808956E-2,1.5868448E-2,-7.9099774E-1,4.1572988E-1,-1.5649205E-1,-1.8070294E-2,-9.065006E-2,-5.412327E-2,7.983595E-2,-2.9326358E-1,5.096468E-1,4.9013406E-2,-4.3880183E-2,2.5901983E-2,-5.6691725E-2,6.5790914E-2,1.0136095E-2],"categories":[],"categories_nodes":[],"categories_segments":[],"categories_sizes":[],"default_left":[0,0,0,0,0,0,0,0,0,0,0,0,0,0,0,0,0,0,0,0,0],"id":32,"left_children":[1,-1,3,5,7,-1,9,11,13,-1,-1,15,-1,17,19,-1,-1,-1,-1,-1,-1],"loss_changes":[1.5308579E0,0E0,1.7264593E0,1.3138282E0,1.652565E0,0E0,2.1398807E-1,1.3585191E0,1.6332662E0,0E0,0E0,1.0986588E0,0E0,2.2848773E0,1.2335813E-1,0E0,0E0,0E0,0E0,0E0,0E0],"parents":[2147483647,0,0,2,2,3,3,4,4,6,6,7,7,8,8,11,11,13,13,14,14],"right_children":[2,-1,4,6,8,-1,10,12,14,-1,-1,16,-1,18,20,-1,-1,-1,-1,-1,-1],"split_conditions":[1.3098717E-2,7.222799E-2,1.6432452E-1,7.960892E-2,3.0934644E-1,1.5868448E-2,4.6730107E-1,2.128222E-1,7.1095145E-1,-1.8070294E-2,-9.065006E-2,4.0196203E-2,7.983595E-2,6.6672415E-2,1.2930599E-1,4.9013406E-2,-4.3880183E-2,2.5901983E-2,-5.6691725E-2,6.5790914E-2,1.0136095E-2],"split_indices":[7,0,24,50,24,0,33,50,40,0,0,46,0,49,52,0,0,0,0,0,0],"split_type":[0,0,0,0,0,0,0,0,0,0,0,0,0,0,0,0,0,0,0,0,0],"sum_hessian":[2.8918974E1,1.3586793E0,2.7560295E1,5.9579926E0,2.1602303E1,1.5984888E0,4.3595037E0,6.3162265E0,1.5286076E1,1.1018784E0,3.2576253E0,3.2203367E0,3.0958896E0,1.3146578E1,2.1394973E0,1.2200401E0,2.0002966E0,4.373509E0,8.773069E0,1.1210228E0,1.0184745E0],"tree_param":{"num_deleted":"0","num_feature":"59","num_nodes":"21","size_leaf_vector":"1"}},{"base_weights":[1.3915974E-2,-3.5233E-1,1.4579077E-1,4.9310464E-2,-5.660467E-1,-5.517747E-2,2.3040368E-1,-8.3627224E-1,2.9495928E-2,-1.8017294E-1,4.0170497E-1,-9.342007E-2,-1.8717552E-2,3.9307183E-1,-5.01673E-1,5.3196335E-1,-1.1891857E-1,6.185338E-2,-4.3682544E-3,-8.542617E-2,1.6853457E-2,-8.682293E-3,6.466244E-2,-5.445483E-2,4.9235772E-2],"categories":[],"categories_nodes":[],"categories_segments":[],"categories_sizes":[],"default_left":[0,0,0,0,0,0,0,0,0,0,0,0,0,0,0,0,0,0,0,0,0,0,0,0,0],"id":33,"left_children":[1,3,5,-1,7,-1,9,11,-1,13,15,-1,-1,17,19,21,23,-1,-1,-1,-1,-1,-1,-1,-1],"loss_changes":[1.5714091E0,1.8374546E0,1.5346593E0,0E0,1.9567447E0,0E0,1.6177775E0,1.9730997E-1,0E0,1.5165906E0,1.1356835E0,0E0,0E0,3.3553767E-1,1.3316443E0,9.665644E-1,1.3041524E0,0E0,0E0,0E0,0E0,0E0,0E0,0E0,0E0],"parents":[2147483647,0,0,1,1,2,2,4,4,6,6,7,7,9,9,10,10,13,13,14,14,15,15,16,16],"right_children":[2,4,6,-1,8,-1,10,12,-1,14,16,-1,-1,18,20,22,24,-1,-1,-1,-1,-1,-1,-1,-1],"split_conditions":[1.6432452E-1,5.682063E-2,6.2315035E-1,4.9310464E-2,8.13092E-1,-5.517747E-2,8.9189336E-2,2.4311256E-1,2.9495928E-2,3.6539936E-1,9.11579E-1,-9.342007E-2,-1.8717552E-2,7.449634E-1,1.7991014E-1,3.11679E-1,1.11394666E-1,6.185338E-2,-4.3682544E-3,-8.542617E-2,1.6853457E-2,-8.682293E-3,6.466244E-2,-5.445483E-2,4.9235772E-2],"split_indices":[24,50,54,0,54,0,55,4,0,22,9,0,0,37,36,32,39,0,0,0,0,0,0,0,0],"split_type":[0,0,0,0,0,0,0,0,0,0,0,0,0,0,0,0,0,0,0,0,0,0,0,0,0],"sum_hessian":[3.0471764E1,7.624662E0,2.2847101E1,1.274728E0,6.349934E0,1.8742496E0,2.097285E1,4.8549433E0,1.4949906E0,6.159033E0,1.4813819E1,3.8368504E0,1.0180931E0,2.1330748E0,4.025958E0,1.1831767E1,2.982052E0,1.1323345E0,1.0007403E0,2.4581373E0,1.5678207E0,1.8876351E0,9.944132E0,1.8223307E0,1.1597214E0],"tree_param":{"num_deleted":"0","num_feature":"59","num_nodes":"25","size_leaf_vector":"1"}},{"base_weights":[-1.6892465E-2,-2.371215E-1,1.5293765E-1,5.1316626E-2,-3.8202715E-1,2.9434407E-1,-4.8755893E-1,-5.0446117E-1,4.4074956E-2,-4.763828E-2,4.1423732E-1,-7.74587E-2,-1.4015308E-4,-8.6651385E-2,-7.371707E-1,2.3618567E-1,9.052414E-2,5.15151E-2,-5.8906246E-2,7.1271504E-3,-9.477032E-2,-4.043449E-2,5.0606664E-2],"categories":[],"categories_nodes":[],"categories_segments":[],"categories_sizes":[],"default_left":[0,0,0,0,0,0,0,0,0,0,0,0,0,0,0,0,0,0,0,0,0,0,0],"id":34,"left_children":[1,3,5,-1,7,9,11,13,-1,-1,15,-1,-1,17,19,21,-1,-1,-1,-1,-1,-1,-1],"loss_changes":[1.2111199E0,1.7256082E0,1.8048627E0,0E0,1.4679049E0,1.6434207E0,5.143504E-1,1.0279338E0,0E0,0E0,1.0169187E0,0E0,0E0,1.86065E0,1.2724273E0,2.2244468E0,0E0,0E0,0E0,0E0,0E0,0E0,0E0],"parents":[2147483647,0,0,1,1,2,2,4,4,5,5,6,6,7,7,10,10,13,13,14,14,15,15],"right_children":[2,4,6,-1,8,10,12,14,-1,-1,16,-1,-1,18,20,22,-1,-1,-1,-1,-1,-1,-1],"split_conditions":[1.00976065E-1,3.3185166E-1,2.3832391E-1,5.1316626E-2,7.6773435E-1,2.1396087E-1,1.07281E-1,7.041502E-1,4.4074956E-2,-4.763828E-2,1.9597505E-1,-7.74587E-2,-1.4015308E-4,2.863208E-1,2.5988173E-1,2.128222E-1,9.052414E-2,5.15151E-2,-5.8906246E-2,7.1271504E-3,-9.477032E-2,-4.043449E-2,5.0606664E-2],"split_indices":[49,33,49,0,32,16,55,0,0,0,49,0,0,25,41,53,0,0,0,0,0,0,0],"split_type":[0,0,0,0,0,0,0,0,0,0,0,0,0,0,0,0,0,0,0,0,0,0,0],"sum_hessian":[3.0411957E1,1.3068723E1,1.7343233E1,1.7040691E0,1.1364654E1,1.4649432E1,2.6938019E0,1.0229347E1,1.1353072E0,1.5718024E0,1.307763E1,1.3207469E0,1.3730551E0,4.150265E0,6.0790815E0,1.0684251E1,2.3933792E0,1.8768104E0,2.2734547E0,1.3926797E0,4.6864023E0,3.0195265E0,7.664724E0],"tree_param":{"num_deleted":"0","num_feature":"59","num_nodes":"23","size_leaf_vector":"1"}},{"base_weights":[6.8191655E-2,-9.032071E-2,4.3636957E-1,1.394011E-1,-5.625614E-1,6.7941415E-1,-2.98101E-2,4.1402826E-1,-2.3128714E-1,-8.6359656E-1,1.6625794E-2,2.4583952E-3,8.99301E-2,6.456291E-1,-2.2341475E-1,-6.3759077E-1,1.5418695E-1,-1.715172E-2,-1.01053715E-1,8.140798E-2,-1.3637943E-4,-5.6733143E-2,2.4789652E-2,-8.0040425E-2,-1.6641587E-2,5.335955E-2,-5.5402964E-2],"categories":[],"categories_nodes":[],"categories_segments":[],"categories_sizes":[],"default_left":[0,0,0,0,0,0,0,0,0,0,0,0,0,0,0,0,0,0,0,0,0,0,0,0,0,0,0],"id":35,"left_children":[1,3,5,7,9,11,-1,13,15,17,-1,-1,-1,19,21,23,25,-1,-1,-1,-1,-1,-1,-1,-1,-1,-1],"loss_changes":[1.7396538E0,2.377617E0,1.7983027E0,1.6288271E0,1.7088726E0,9.889395E-1,0E0,1.4742633E0,1.2025458E0,3.565452E-1,0E0,0E0,0E0,7.4932075E-1,6.502277E-1,1.4505708E-1,1.4841641E0,0E0,0E0,0E0,0E0,0E0,0E0,0E0,0E0,0E0,0E0],"parents":[2147483647,0,0,1,1,2,2,3,3,4,4,5,5,7,7,8,8,9,9,13,13,14,14,15,15,16,16],"right_children":[2,4,6,8,10,12,-1,14,16,18,-1,-1,-1,20,22,24,26,-1,-1,-1,-1,-1,-1,-1,-1,-1,-1],"split_conditions":[5.853915E-1,3.6153102E-1,9.552498E-1,1.6943258E-1,1.7054644E-1,4.215083E-1,-2.98101E-2,7.538449E-1,1.1021665E-1,8.887589E-2,1.6625794E-2,2.4583952E-3,8.99301E-2,1.8303059E-1,1.11751676E-1,7.1681124E-1,2.2300963E-1,-1.715172E-2,-1.01053715E-1,8.140798E-2,-1.3637943E-4,-5.6733143E-2,2.4789652E-2,-8.0040425E-2,-1.6641587E-2,5.335955E-2,-5.5402964E-2],"split_indices":[50,53,5,39,55,3,0,0,55,52,0,0,0,55,43,54,52,0,0,0,0,0,0,0,0,0,0],"split_type":[0,0,0,0,0,0,0,0,0,0,0,0,0,0,0,0,0,0,0,0,0,0,0,0,0,0,0],"sum_hessian":[2.813329E1,2.0193867E1,7.9394236E0,1.4059448E1,6.1344185E0,6.0217266E0,1.9176966E0,8.009002E0,6.0504465E0,4.2104063E0,1.9240123E0,1.7932305E0,4.2284966E0,5.8651767E0,2.1438248E0,2.6272192E0,3.4232275E0,1.116943E0,3.0934632E0,4.448672E0,1.4165049E0,1.1216354E0,1.0221893E0,1.4332289E0,1.1939903E0,2.389617E0,1.0336106E0],"tree_param":{"num_deleted":"0","num_feature":"59","num_nodes":"27","size_leaf_vector":"1"}},{"base_weights":[9.535596E-2,2.3776387E-1,-2.2997129E-1,7.775847E-2,7.443571E-1,-4.5362872E-1,2.605327E-1,-2.0577542E-1,3.5903138E-1,9.332488E-2,1.05815735E-2,9.219783E-2,-7.7206326E-1,6.1565846E-2,-1.3798731E-2,-6.904335E-2,1.0811346E-1,8.1911586E-2,1.5211525E-2,-4.2212136E-2,6.402368E-2,-9.3819216E-2,-2.024688E-2,-2.5617799E-2,5.2255597E-2,5.0176878E-2,-2.5644502E-2],"categories":[],"categories_nodes":[],"categories_segments":[],"categories_sizes":[],"default_left":[0,0,0,0,0,0,0,0,0,0,0,0,0,0,0,0,0,0,0,0,0,0,0,0,0,0,0],"id":36,"left_children":[1,3,5,7,9,11,13,15,17,-1,-1,19,21,-1,-1,-1,23,-1,25,-1,-1,-1,-1,-1,-1,-1,-1],"loss_changes":[1.3779972E0,1.592338E0,1.1279982E0,1.3968195E0,4.765904E-1,1.2334344E0,5.8282405E-1,1.4280922E0,1.3624599E0,0E0,0E0,1.2165115E0,2.1975875E-1,0E0,0E0,0E0,1.0796307E0,0E0,9.208543E-1,0E0,0E0,0E0,0E0,0E0,0E0,0E0,0E0],"parents":[2147483647,0,0,1,1,2,2,3,3,4,4,5,5,6,6,7,7,8,8,11,11,12,12,16,16,18,18],"right_children":[2,4,6,8,10,12,14,16,18,-1,-1,20,22,-1,-1,-1,24,-1,26,-1,-1,-1,-1,-1,-1,-1,-1],"split_conditions":[7.538449E-1,7.554491E-1,1.5767322E-1,1.17831625E-1,6.2717366E-1,2.714185E-1,3.0242968E-1,6.953847E-1,1.6279238E-1,9.332488E-2,1.05815735E-2,1.6452324E-1,5.2545977E-1,6.1565846E-2,-1.3798731E-2,-6.904335E-2,7.041502E-1,8.1911586E-2,6.5441686E-1,-4.2212136E-2,6.402368E-2,-9.3819216E-2,-2.024688E-2,-2.5617799E-2,5.2255597E-2,5.0176878E-2,-2.5644502E-2],"split_indices":[42,8,36,39,40,11,22,51,39,0,0,11,22,0,0,0,42,0,42,0,0,0,0,0,0,0,0],"split_type":[0,0,0,0,0,0,0,0,0,0,0,0,0,0,0,0,0,0,0,0,0,0,0,0,0,0,0],"sum_hessian":[2.756339E1,1.9358574E1,8.204817E0,1.5588502E1,3.7700715E0,5.6869087E0,2.5179083E0,7.896719E0,7.691783E0,2.553245E0,1.2168264E0,2.357094E0,3.3298147E0,1.0433263E0,1.4745821E0,2.632466E0,5.2642527E0,2.6984453E0,4.9933376E0,1.3344812E0,1.0226128E0,2.0769303E0,1.2528843E0,3.0048704E0,2.2593825E0,1.4855449E0,3.5077927E0],"tree_param":{"num_deleted":"0","num_feature":"59","num_nodes":"27","size_leaf_vector":"1"}},{"base_weights":[-8.899306E-3,2.3708244E-1,-2.1206325E-1,5.9283805E-1,-6.4789794E-2,2.4347001E-1,-4.907273E-1,8.011653E-1,-9.182512E-3,-7.348669E-1,4.7442755E-1,5.816247E-1,-1.844343E-1,-6.807946E-1,3.4142118E-3,8.913823E-2,2.3650302E-2,-8.912962E-2,-1.9048592E-2,6.9148086E-2,-7.7871527E-3,-1.0902145E-3,8.170259E-2,-5.579604E-2,3.642095E-2,1.2100277E-2,-8.560384E-1,6.6480115E-2,-5.1966835E-2,-1.7969875E-2,-9.720615E-2],"categories":[],"categories_nodes":[],"categories_segments":[],"categories_sizes":[],"default_left":[0,0,0,0,0,0,0,0,0,0,0,0,0,0,0,0,0,0,0,0,0,0,0,0,0,0,0,0,0,0,0],"id":37,"left_children":[1,3,5,7,9,11,13,15,-1,17,19,21,23,25,27,-1,-1,-1,-1,-1,-1,-1,-1,-1,-1,-1,29,-1,-1,-1,-1],"loss_changes":[1.4265113E0,1.4268723E0,2.1010027E0,9.3411636E-1,3.2014437E0,1.0612774E0,9.43099E-1,3.006959E-2,0E0,1.6343236E-1,6.5115976E-1,5.561657E-1,9.5523006E-1,1.1207595E0,1.6523663E0,0E0,0E0,0E0,0E0,0E0,0E0,0E0,0E0,0E0,0E0,0E0,3.0121613E-1,0E0,0E0,0E0,0E0],"parents":[2147483647,0,0,1,1,2,2,3,3,4,4,5,5,6,6,7,7,9,9,10,10,11,11,12,12,13,13,14,14,26,26],"right_children":[2,4,6,8,10,12,14,16,-1,18,20,22,24,26,28,-1,-1,-1,-1,-1,-1,-1,-1,-1,-1,-1,30,-1,-1,-1,-1],"split_conditions":[7.19475E-1,3.5862494E-1,6.8953246E-2,8.8564295E-1,1.0331659E-1,5.7966805E-1,5.0741625E-1,4.5702875E-1,-9.182512E-3,6.712704E-1,7.6588804E-1,6.9577193E-1,7.05825E-1,6.148912E-1,6.828373E-1,8.913823E-2,2.3650302E-2,-8.912962E-2,-1.9048592E-2,6.9148086E-2,-7.7871527E-3,-1.0902145E-3,8.170259E-2,-5.579604E-2,3.642095E-2,1.2100277E-2,9.183064E-2,6.6480115E-2,-5.1966835E-2,-1.7969875E-2,-9.720615E-2],"split_indices":[45,53,43,17,36,19,44,11,0,45,54,42,51,51,54,0,0,0,0,0,0,0,0,0,0,0,52,0,0,0,0],"split_type":[0,0,0,0,0,0,0,0,0,0,0,0,0,0,0,0,0,0,0,0,0,0,0,0,0,0,0,0,0,0,0],"sum_hessian":[2.6538673E1,1.1928831E1,1.4609842E1,5.033268E0,6.895563E0,5.59309E0,9.016751E0,3.7285852E0,1.3046826E0,2.912903E0,3.9826598E0,2.9235177E0,2.6695724E0,6.239175E0,2.7775767E0,2.7160292E0,1.0125562E0,1.7676877E0,1.1452153E0,2.6781452E0,1.3045146E0,1.1023889E0,1.8211288E0,1.5781558E0,1.0914166E0,1.1745851E0,5.06459E0,1.1069794E0,1.6705973E0,1.1148069E0,3.949783E0],"tree_param":{"num_deleted":"0","num_feature":"59","num_nodes":"31","size_leaf_vector":"1"}},{"base_weights":[-1.0133901E-2,2.2721495E-1,-2.0515537E-1,7.431071E-2,1.9897994E-2,4.8632775E-2,-3.2411182E-1,-4.9151206E-1,2.7675587E-1,4.51769E-2,-4.2814076E-1,-1.0354549E-2,-7.290468E-2,-3.0659903E-2,5.0450516E-1,-6.273523E-1,-8.1816465E-2,6.4368844E-2,-3.355128E-3,-7.723763E-2,8.108751E-3,2.9023036E-2,-4.461897E-2],"categories":[],"categories_nodes":[],"categories_segments":[],"categories_sizes":[],"default_left":[0,0,0,0,0,0,0,0,0,0,0,0,0,0,0,0,0,0,0,0,0,0,0],"id":38,"left_children":[1,3,5,-1,7,-1,9,11,13,-1,15,-1,-1,-1,17,19,21,-1,-1,-1,-1,-1,-1],"loss_changes":[1.3593041E0,1.404046E0,1.4813917E0,0E0,1.5140698E0,0E0,1.3501424E0,2.8093046E-1,1.1674621E0,0E0,8.5592866E-1,0E0,0E0,0E0,4.604839E-1,9.0492034E-1,9.363732E-1,0E0,0E0,0E0,0E0,0E0,0E0],"parents":[2147483647,0,0,1,1,2,2,4,4,6,6,7,7,8,8,10,10,14,14,15,15,16,16],"right_children":[2,4,6,-1,8,-1,10,12,14,-1,16,-1,-1,-1,18,20,22,-1,-1,-1,-1,-1,-1],"split_conditions":[2.9892087E-1,4.9672973E-1,6.6672415E-2,7.431071E-2,6.4531475E-1,4.8632775E-2,1.239475E-1,5.933385E-1,4.7088005E-2,4.51769E-2,6.652689E-1,-1.0354549E-2,-7.290468E-2,-3.0659903E-2,7.960425E-1,8.790226E-1,7.235565E-1,6.4368844E-2,-3.355128E-3,-7.723763E-2,8.108751E-3,2.9023036E-2,-4.461897E-2],"split_indices":[21,18,49,0,16,0,31,27,46,0,21,0,0,0,10,3,42,0,0,0,0,0,0],"split_type":[0,0,0,0,0,0,0,0,0,0,0,0,0,0,0,0,0,0,0,0,0,0,0],"sum_hessian":[2.7359106E1,1.226592E1,1.5093185E1,2.7753284E0,9.490591E0,1.7620813E0,1.3331104E1,2.8675919E0,6.622999E0,1.1808946E0,1.2150209E1,1.634262E0,1.23333E0,1.7624538E0,4.8605456E0,7.198217E0,4.951993E0,3.7056534E0,1.1548921E0,5.900153E0,1.2980638E0,2.5508764E0,2.4011166E0],"tree_param":{"num_deleted":"0","num_feature":"59","num_nodes":"23","size_leaf_vector":"1"}},{"base_weights":[-8.3993144E-2,2.743004E-1,-2.5146163E-1,4.2595813E-1,-2.87088E-2,-5.879625E-1,-4.4975146E-3,6.014302E-1,-2.1519719E-2,2.6232047E-2,-7.7319807E-1,-5.598645E-1,2.5618386E-1,1.699177E-1,8.657777E-2,-9.073076E-2,-3.3116979E-3,-2.4148568E-3,-7.6013856E-2,4.8089626E-1,-2.9589948E-1,-2.240437E-2,5.1553894E-2,7.642995E-3,7.815762E-2,3.4146009E-3,-4.785455E-2],"categories":[],"categories_nodes":[],"categories_segments":[],"categories_sizes":[],"default_left":[0,0,0,0,0,0,0,0,0,0,0,0,0,0,0,0,0,0,0,0,0,0,0,0,0,0,0],"id":39,"left_children":[1,3,5,7,-1,9,11,13,-1,-1,15,17,19,21,-1,-1,-1,-1,-1,23,25,-1,-1,-1,-1,-1,-1],"loss_changes":[1.5888975E0,8.49951E-1,1.4752731E0,9.317647E-1,0E0,1.387208E0,1.7741989E0,5.2164483E-1,0E0,0E0,6.079378E-1,4.0138662E-1,1.1784501E0,5.8816695E-1,0E0,0E0,0E0,0E0,0E0,7.0848966E-1,1.9930458E-1,0E0,0E0,0E0,0E0,0E0,0E0],"parents":[2147483647,0,0,1,1,2,2,3,3,5,5,6,6,7,7,10,10,11,11,12,12,13,13,19,19,20,20],"right_children":[2,4,6,8,-1,10,12,14,-1,-1,16,18,20,22,-1,-1,-1,-1,-1,24,26,-1,-1,-1,-1,-1,-1],"split_conditions":[4.2615122E-1,5.376938E-1,1.1314465E-1,5.196854E-1,-2.87088E-2,1.5501404E-1,5.790943E-1,1.21791035E-1,-2.1519719E-2,2.6232047E-2,6.819303E-1,2.1613628E-1,1.910998E-1,3.3814013E-1,8.657777E-2,-9.073076E-2,-3.3116979E-3,-2.4148568E-3,-7.6013856E-2,2.8356203E-1,1.2707663E-1,-2.240437E-2,5.1553894E-2,7.642995E-3,7.815762E-2,3.4146009E-3,-4.785455E-2],"split_indices":[32,16,55,8,0,21,17,55,0,0,19,14,55,19,0,0,0,0,0,35,13,0,0,0,0,0,0],"split_type":[0,0,0,0,0,0,0,0,0,0,0,0,0,0,0,0,0,0,0,0,0,0,0,0,0,0,0],"sum_hessian":[2.4330809E1,7.546783E0,1.6784027E1,6.1315904E0,1.4151926E0,6.519764E0,1.0264263E1,4.8627157E0,1.2688744E0,1.0918269E0,5.427937E0,2.912228E0,7.3520346E0,2.471348E0,2.3913677E0,4.4039445E0,1.0239925E0,1.0973879E0,1.8148403E0,5.316871E0,2.0351634E0,1.3192953E0,1.1520529E0,2.8019524E0,2.5149188E0,1.0146736E0,1.0204899E0],"tree_param":{"num_deleted":"0","num_feature":"59","num_nodes":"27","size_leaf_vector":"1"}},{"base_weights":[1.6979227E-2,6.993949E-2,-4.7192235E-2,-1.5640508E-1,3.8290745E-1,2.5321186E-1,-3.2236132E-1,-6.142958E-2,8.0184184E-2,-1.5600285E-1,7.035135E-2,-6.4063364E-1,-2.9505517E-2,-4.7246773E-2,4.385194E-2,3.4707226E-2,-4.7109473E-2,-1.9261064E-3,-7.4773684E-2,-1.877653E-2,6.256788E-2],"categories":[],"categories_nodes":[],"categories_segments":[],"categories_sizes":[],"default_left":[0,0,0,0,0,0,0,0,0,0,0,0,0,0,0,0,0,0,0,0,0],"id":40,"left_children":[1,-1,3,5,7,9,11,13,-1,15,-1,17,19,-1,-1,-1,-1,-1,-1,-1,-1],"loss_changes":[1.2239586E0,0E0,1.2715479E0,1.5283105E0,1.0756066E0,1.3436614E0,1.4337702E0,9.479102E-1,0E0,8.4934276E-1,0E0,4.7942424E-1,1.0677954E0,0E0,0E0,0E0,0E0,0E0,0E0,0E0,0E0],"parents":[2147483647,0,0,2,2,3,3,4,4,5,5,6,6,7,7,9,9,11,11,12,12],"right_children":[2,-1,4,6,8,10,12,14,-1,16,-1,18,20,-1,-1,-1,-1,-1,-1,-1,-1],"split_conditions":[5.948886E-2,6.993949E-2,6.443496E-1,6.765796E-1,1.3355273E-1,6.4209604E-1,7.382871E-1,7.338027E-1,8.0184184E-2,8.610582E-2,7.035135E-2,2.6273257E-1,8.057342E-1,-4.7246773E-2,4.385194E-2,3.4707226E-2,-4.7109473E-2,-1.9261064E-3,-7.4773684E-2,-1.877653E-2,6.256788E-2],"split_indices":[52,0,47,51,52,51,51,51,0,5,0,26,54,0,0,0,0,0,0,0,0],"split_type":[0,0,0,0,0,0,0,0,0,0,0,0,0,0,0,0,0,0,0,0,0],"sum_hessian":[2.6195908E1,1.4007826E0,2.4795126E1,2.0281506E1,4.51362E0,5.6962123E0,1.4585294E1,2.6045291E0,1.9090909E0,3.3266528E0,2.3695598E0,6.4202747E0,8.165019E0,1.4595299E0,1.1449991E0,1.2420703E0,2.0845823E0,1.1173965E0,5.3028784E0,7.151089E0,1.0139297E0],"tree_param":{"num_deleted":"0","num_feature":"59","num_nodes":"21","size_leaf_vector":"1"}},{"base_weights":[1.1780428E-2,6.174019E-2,-3.6929946E-2,1.00954644E-1,-3.4721875E-1,3.4212068E-1,-1.2643406E-1,-8.2482144E-2,8.024698E-2,6.6463166E-1,-3.1982202E-2,1.9206734E-1,-4.4706157E-1,6.466897E-2,-5.535347E-2,1.0064653E-2,8.185609E-2,-6.575083E-2,5.1518347E-2,-4.8942268E-2,4.3728586E-2,2.5192557E-2,-6.812786E-2],"categories":[],"categories_nodes":[],"categories_segments":[],"categories_sizes":[],"default_left":[0,0,0,0,0,0,0,0,0,0,0,0,0,0,0,0,0,0,0,0,0,0,0],"id":41,"left_children":[1,-1,3,5,7,9,11,-1,13,15,17,19,21,-1,-1,-1,-1,-1,-1,-1,-1,-1,-1],"loss_changes":[8.1484187E-1,0E0,1.138611E0,1.0650469E0,1.7323114E0,1.1448044E0,1.1397963E0,0E0,2.2311723E0,3.557539E-1,2.1409037E0,1.196128E0,1.0628268E0,0E0,0E0,0E0,0E0,0E0,0E0,0E0,0E0,0E0,0E0],"parents":[2147483647,0,0,2,2,3,3,4,4,5,5,6,6,8,8,9,9,10,10,11,11,12,12],"right_children":[2,-1,4,6,8,10,12,-1,14,16,18,20,22,-1,-1,-1,-1,-1,-1,-1,-1,-1,-1],"split_conditions":[1.7940044E-2,6.174019E-2,7.538449E-1,2.9892087E-1,5.545834E-1,5.164133E-1,6.921765E-1,-8.2482144E-2,7.4373186E-1,3.2846266E-1,5.9349984E-1,2.0472525E-1,2.1170883E-1,6.466897E-2,-5.535347E-2,1.0064653E-2,8.185609E-2,-6.575083E-2,5.1518347E-2,-4.8942268E-2,4.3728586E-2,2.5192557E-2,-6.812786E-2],"split_indices":[7,0,42,21,32,18,51,0,8,33,18,25,25,0,0,0,0,0,0,0,0,0,0],"split_type":[0,0,0,0,0,0,0,0,0,0,0,0,0,0,0,0,0,0,0,0,0,0,0],"sum_hessian":[2.5848814E1,1.0551434E0,2.479367E1,1.7632757E1,7.160913E0,8.31228E0,9.3204775E0,2.9430807E0,4.2178326E0,4.0468884E0,4.265391E0,4.87689E0,4.4435873E0,2.216483E0,2.0013494E0,1.2223043E0,2.8245842E0,1.8960932E0,2.3692975E0,1.0269675E0,3.849923E0,1.0962825E0,3.3473048E0],"tree_param":{"num_deleted":"0","num_feature":"59","num_nodes":"23","size_leaf_vector":"1"}},{"base_weights":[-1.07975565E-2,-1.3500871E-1,3.2587498E-1,3.271483E-1,-2.4321377E-1,-3.7253324E-2,5.5752796E-1,6.9846354E-2,-1.6901342E-2,-3.8653657E-1,1.8613406E-1,7.99891E-2,-1.848169E-2,3.301852E-2,-4.9571788E-1,-3.1286377E-2,5.6925643E-2,3.31778E-3,-7.015453E-2],"categories":[],"categories_nodes":[],"categories_segments":[],"categories_sizes":[],"default_left":[0,0,0,0,0,0,0,0,0,0,0,0,0,0,0,0,0,0,0],"id":42,"left_children":[1,3,5,7,9,-1,11,-1,-1,13,15,-1,-1,-1,17,-1,-1,-1,-1],"loss_changes":[1.1433511E0,1.0752615E0,1.4013591E0,8.925184E-1,1.1000218E0,0E0,1.2166891E0,0E0,0E0,1.1692871E0,1.1065063E0,0E0,0E0,0E0,1.2808139E0,0E0,0E0,0E0,0E0],"parents":[2147483647,0,0,1,1,2,2,3,3,4,4,6,6,9,9,10,10,14,14],"right_children":[2,4,6,8,10,-1,12,-1,-1,14,16,-1,-1,-1,18,-1,-1,-1,-1],"split_conditions":[5.720711E-1,2.4633205E-1,7.514946E-2,2.694885E-1,1.418565E-1,-3.7253324E-2,9.6116877E-1,6.9846354E-2,-1.6901342E-2,6.378991E-1,5E-1,7.99891E-2,-1.848169E-2,3.301852E-2,5.4424256E-2,-3.1286377E-2,5.6925643E-2,3.31778E-3,-7.015453E-2],"split_indices":[6,19,55,8,43,0,5,0,0,48,56,0,0,0,36,0,0,0,0],"split_type":[0,0,0,0,0,0,0,0,0,0,0,0,0,0,0,0,0,0,0],"sum_hessian":[2.5288734E1,1.8910814E1,6.3779197E0,3.203759E0,1.5707056E1,1.4370924E0,4.9408274E0,1.5992132E0,1.6045457E0,1.1850794E1,3.8562622E0,3.6663172E0,1.27451E0,1.2990402E0,1.0551754E1,1.7544988E0,2.1017635E0,3.1909842E0,7.3607693E0],"tree_param":{"num_deleted":"0","num_feature":"59","num_nodes":"19","size_leaf_vector":"1"}},{"base_weights":[1.702743E-2,8.026065E-2,-4.6633605E-2,-5.205289E-2,5.9418535E-1,-3.667668E-1,9.477843E-2,6.749421E-3,7.681419E-2,2.515492E-1,-7.6030314E-1,4.0526152E-1,-1.2688838E-1,5.7671197E-2,-1.7343372E-2,-2.2539215E-2,-8.85704E-2,-1.7974861E-2,8.158589E-2,4.785795E-2,-2.7979452E-2],"categories":[],"categories_nodes":[],"categories_segments":[],"categories_sizes":[],"default_left":[0,0,0,0,0,0,0,0,0,0,0,0,0,0,0,0,0,0,0,0,0],"id":43,"left_children":[1,3,-1,5,7,9,11,-1,-1,13,15,17,19,-1,-1,-1,-1,-1,-1,-1,-1],"loss_changes":[7.917315E-1,1.5729554E0,0E0,9.1060334E-1,3.8093376E-1,1.7084262E0,9.9558365E-1,0E0,0E0,5.3895986E-1,7.261801E-2,1.5765553E0,9.4542384E-1,0E0,0E0,0E0,0E0,0E0,0E0,0E0,0E0],"parents":[2147483647,0,0,1,1,3,3,4,4,5,5,6,6,9,9,10,10,11,11,12,12],"right_children":[2,4,-1,6,8,10,12,-1,-1,14,16,18,20,-1,-1,-1,-1,-1,-1,-1,-1],"split_conditions":[2.3832391E-1,1.5775064E-1,-4.6633605E-2,3.394387E-1,4.466845E-1,1.6772191E-1,7.041502E-1,6.749421E-3,7.681419E-2,1.479125E-1,1.05442405E-1,6.7942575E-2,6.64726E-1,5.7671197E-2,-1.7343372E-2,-2.2539215E-2,-8.85704E-2,-1.7974861E-2,8.158589E-2,4.785795E-2,-2.7979452E-2],"split_indices":[49,49,0,8,32,8,0,0,0,13,52,46,51,0,0,0,0,0,0,0,0],"split_type":[0,0,0,0,0,0,0,0,0,0,0,0,0,0,0,0,0,0,0,0,0],"sum_hessian":[2.3678955E1,2.1677124E1,2.00183E0,1.7953568E1,3.7235575E0,5.2350454E0,1.2718521E1,1.2690941E0,2.4544635E0,2.1763725E0,3.0586731E0,4.952889E0,7.765632E0,1.0307227E0,1.1456499E0,1.1121308E0,1.9465424E0,2.2744825E0,2.6784062E0,1.1362985E0,6.6293335E0],"tree_param":{"num_deleted":"0","num_feature":"59","num_nodes":"21","size_leaf_vector":"1"}},{"base_weights":[5.8667872E-2,-8.112177E-2,3.802459E-1,2.128265E-1,-3.0985117E-1,5.285208E-1,-1.4394941E-2,-6.069152E-2,5.576844E-1,1.5298161E-1,-4.9077258E-1,-7.4100844E-3,7.1651864E-1,-3.7428686E-1,4.602325E-2,4.8419833E-3,7.215751E-2,5.939415E-2,-4.3318294E-2,-1.4076173E-2,-7.516822E-1,8.818362E-2,1.1419814E-2,-8.875385E-4,-6.2957205E-2,-4.962797E-2,5.0715327E-2,-8.528852E-2,-2.014429E-2],"categories":[],"categories_nodes":[],"categories_segments":[],"categories_sizes":[],"default_left":[0,0,0,0,0,0,0,0,0,0,0,0,0,0,0,0,0,0,0,0,0,0,0,0,0,0,0,0,0],"id":44,"left_children":[1,3,5,7,9,11,-1,13,15,17,19,-1,21,23,-1,-1,-1,-1,-1,25,27,-1,-1,-1,-1,-1,-1,-1,-1],"loss_changes":[1.137456E0,1.2749839E0,6.6947126E-1,8.3203363E-1,9.5600975E-1,7.515596E-1,0E0,1.0905064E0,2.8565204E-1,1.2185527E0,9.597032E-1,0E0,3.7654805E-1,3.7316942E-1,0E0,0E0,0E0,0E0,0E0,1.2013974E0,1.078856E-1,0E0,0E0,0E0,0E0,0E0,0E0,0E0,0E0],"parents":[2147483647,0,0,1,1,2,2,3,3,4,4,5,5,7,7,8,8,9,9,10,10,12,12,13,13,19,19,20,20],"right_children":[2,4,6,8,10,12,-1,14,16,18,20,-1,22,24,-1,-1,-1,-1,-1,26,28,-1,-1,-1,-1,-1,-1,-1,-1],"split_conditions":[5.834899E-1,7.1269107E-1,7.514573E-1,6.814249E-1,9.495358E-2,3.11679E-1,-1.4394941E-2,1.2660019E-1,2.4711943E-1,4.5917284E-1,7.079697E-1,-7.4100844E-3,7.4669677E-1,7.449634E-1,4.602325E-2,4.8419833E-3,7.215751E-2,5.939415E-2,-4.3318294E-2,5E-1,1.5398656E-1,8.818362E-2,1.1419814E-2,-8.875385E-4,-6.2957205E-2,-4.962797E-2,5.0715327E-2,-8.528852E-2,-2.014429E-2],"split_indices":[50,45,42,45,52,32,0,43,29,11,0,0,0,0,0,0,0,0,0,56,49,0,0,0,0,0,0,0,0],"split_type":[0,0,0,0,0,0,0,0,0,0,0,0,0,0,0,0,0,0,0,0,0,0,0,0,0,0,0,0,0],"sum_hessian":[2.3616886E1,1.6982395E1,6.6344914E0,7.4621053E0,9.52029E0,5.1652007E0,1.4692909E0,4.6210275E0,2.8410776E0,2.7189946E0,6.8012958E0,1.3722699E0,3.7929308E0,3.060254E0,1.5607735E0,1.0071028E0,1.8339747E0,1.5441179E0,1.1748767E0,2.7785966E0,4.022699E0,2.6119657E0,1.1809652E0,1.6842333E0,1.3760209E0,1.4681958E0,1.3104008E0,2.933186E0,1.0895128E0],"tree_param":{"num_deleted":"0","num_feature":"59","num_nodes":"29","size_leaf_vector":"1"}},{"base_weights":[4.3731026E-2,1.13298684E-1,-4.9484596E-2,-6.7306086E-3,4.3356887E-1,4.2496592E-1,-3.0470195E-1,-3.2583598E-2,6.6385466E-1,-2.1724071E-2,5.884026E-1,2.7169254E-1,-4.7191688E-1,6.368754E-3,8.0424614E-2,-1.3538512E-3,7.504403E-2,4.959664E-2,-8.523383E-3,-6.3106045E-2,3.5691827E-3],"categories":[],"categories_nodes":[],"categories_segments":[],"categories_sizes":[],"default_left":[0,0,0,0,0,0,0,0,0,0,0,0,0,0,0,0,0,0,0,0,0],"id":45,"left_children":[1,3,-1,5,7,9,11,-1,13,-1,15,17,19,-1,-1,-1,-1,-1,-1,-1,-1],"loss_changes":[9.535109E-1,8.4964865E-1,0E0,2.3170831E0,1.2690576E0,9.0058804E-1,1.1541051E0,0E0,3.6571908E-1,0E0,6.088927E-1,2.8467363E-1,7.185366E-1,0E0,0E0,0E0,0E0,0E0,0E0,0E0,0E0],"parents":[2147483647,0,0,1,1,3,3,4,4,5,5,6,6,8,8,10,10,11,11,12,12],"right_children":[2,4,-1,6,8,10,12,-1,14,-1,16,18,20,-1,-1,-1,-1,-1,-1,-1,-1],"split_conditions":[8.0288106E-1,7.0276654E-1,-4.9484596E-2,6.628659E-2,4.1674994E-2,6.8751574E-1,1.7177129E-1,-3.2583598E-2,1.3121986E-1,-2.1724071E-2,6.7841977E-1,5.134681E-1,5.9159964E-1,6.368754E-3,8.0424614E-2,-1.3538512E-3,7.504403E-2,4.959664E-2,-8.523383E-3,-6.3106045E-2,3.5691827E-3],"split_indices":[10,40,0,43,43,51,50,0,53,0,42,33,18,0,0,0,0,0,0,0,0],"split_type":[0,0,0,0,0,0,0,0,0,0,0,0,0,0,0,0,0,0,0,0,0],"sum_hessian":[2.2952616E1,2.1026295E1,1.9263202E0,1.6006458E1,5.0198374E0,6.362444E0,9.644013E0,1.0714935E0,3.9483438E0,1.2239321E0,5.1385117E0,2.028142E0,7.6158714E0,1.024082E0,2.9242616E0,1.2842393E0,3.8542724E0,1.0062923E0,1.0218496E0,5.612926E0,2.0029454E0],"tree_param":{"num_deleted":"0","num_feature":"59","num_nodes":"21","size_leaf_vector":"1"}},{"base_weights":[2.5821852E-2,3.8824987E-1,-7.712733E-2,-6.298875E-3,6.001534E-1,4.099732E-1,-1.6868132E-1,7.104519E-2,1.4160647E-2,6.303616E-2,5.6602643E-3,-3.433526E-2,-5.653565E-1,-5.1785064E-1,1.10356286E-1,-7.33583E-2,-3.1068904E-4,-7.263258E-2,-9.229834E-5,2.3940915E-2,-5.264507E-2],"categories":[],"categories_nodes":[],"categories_segments":[],"categories_sizes":[],"default_left":[0,0,0,0,0,0,0,0,0,0,0,0,0,0,0,0,0,0,0,0,0],"id":46,"left_children":[1,3,5,-1,7,9,11,-1,-1,-1,-1,13,15,17,19,-1,-1,-1,-1,-1,-1],"loss_changes":[9.602985E-1,5.81081E-1,9.723562E-1,0E0,9.973729E-2,2.3657662E-1,9.2689323E-1,0E0,0E0,0E0,0E0,1.0596317E0,4.165256E-1,3.7393165E-1,1.1001548E0,0E0,0E0,0E0,0E0,0E0,0E0],"parents":[2147483647,0,0,1,1,2,2,4,4,5,5,6,6,11,11,12,12,13,13,14,14],"right_children":[2,4,6,-1,8,10,12,-1,-1,-1,-1,14,16,18,20,-1,-1,-1,-1,-1,-1],"split_conditions":[2.8947198E-1,3.6568367E-1,6.378991E-1,-6.298875E-3,7.4293673E-1,2.3402065E-1,2.0465422E-1,7.104519E-2,1.4160647E-2,6.303616E-2,5.6602643E-3,4.1025835E-1,1.5262693E-1,6.148701E-1,8.465669E-1,-7.33583E-2,-3.1068904E-4,-7.263258E-2,-9.229834E-5,2.3940915E-2,-5.264507E-2],"split_indices":[26,18,48,0,48,11,55,0,0,0,0,10,46,53,14,0,0,0,0,0,0],"split_type":[0,0,0,0,0,0,0,0,0,0,0,0,0,0,0,0,0,0,0,0,0],"sum_hessian":[2.3934662E1,4.681693E0,1.925297E1,1.7205693E0,2.9611237E0,2.4959054E0,1.6757063E1,1.9441295E0,1.0169941E0,1.0544299E0,1.4414756E0,1.3329262E1,3.4278011E0,2.476051E0,1.0853211E1,2.4038384E0,1.0239629E0,1.4757886E0,1.0002625E0,9.543259E0,1.3099527E0],"tree_param":{"num_deleted":"0","num_feature":"59","num_nodes":"21","size_leaf_vector":"1"}},{"base_weights":[2.9530678E-2,-1.3626632E-1,2.7714813E-1,3.3008477E-1,-2.643368E-1,-1.0711127E-1,4.8195794E-1,6.259888E-2,-2.3229033E-2,-6.353007E-1,-5.9805658E-2,3.3059478E-2,-5.791069E-2,6.436362E-1,-1.7262692E-2,-1.902791E-2,-7.702083E-2,-3.6521405E-1,2.7242827E-1,1.5960898E-2,7.348929E-2,8.907601E-3,-6.3362375E-2,4.824819E-2,-2.689114E-2],"categories":[],"categories_nodes":[],"categories_segments":[],"categories_sizes":[],"default_left":[0,0,0,0,0,0,0,0,0,0,0,0,0,0,0,0,0,0,0,0,0,0,0,0,0],"id":47,"left_children":[1,3,5,7,9,11,13,-1,-1,15,17,-1,-1,19,-1,-1,-1,21,23,-1,-1,-1,-1,-1,-1],"loss_changes":[1.0614995E0,1.0193375E0,8.646007E-1,7.78944E-1,9.331103E-1,1.102487E0,8.434999E-1,0E0,0E0,1.2029934E-1,1.048631E0,0E0,0E0,1.3717508E-1,0E0,0E0,0E0,7.028315E-1,7.043301E-1,0E0,0E0,0E0,0E0,0E0,0E0],"parents":[2147483647,0,0,1,1,2,2,3,3,4,4,5,5,6,6,9,9,10,10,13,13,17,17,18,18],"right_children":[2,4,6,8,10,12,14,-1,-1,16,18,-1,-1,20,-1,-1,-1,22,24,-1,-1,-1,-1,-1,-1],"split_conditions":[5.545834E-1,5.2990913E-2,7.0760065E-1,5.104985E-1,1.1021665E-1,1.361864E-1,7.8955764E-1,6.259888E-2,-2.3229033E-2,6.976283E-1,4.1706204E-1,3.3059478E-2,-5.791069E-2,7.03328E-1,-1.7262692E-2,-1.902791E-2,-7.702083E-2,7.1596867E-1,8.838519E-1,1.5960898E-2,7.348929E-2,8.907601E-3,-6.3362375E-2,4.824819E-2,-2.689114E-2],"split_indices":[32,5,51,15,52,52,48,0,0,0,47,0,0,16,0,0,0,45,9,0,0,0,0,0,0],"split_type":[0,0,0,0,0,0,0,0,0,0,0,0,0,0,0,0,0,0,0,0,0,0,0,0,0],"sum_hessian":[2.3936127E1,1.4606054E1,9.330072E0,2.8070815E0,1.1798973E1,3.4097672E0,5.9203053E0,1.7651823E0,1.0418992E0,3.4448388E0,8.354134E0,1.9245826E0,1.4851847E0,4.761076E0,1.1592293E0,1.3621001E0,2.0827389E0,4.3010736E0,4.05306E0,1.1913173E0,3.5697587E0,1.8455569E0,2.4555168E0,2.9983501E0,1.0547101E0],"tree_param":{"num_deleted":"0","num_feature":"59","num_nodes":"25","size_leaf_vector":"1"}},{"base_weights":[2.107371E-2,2.623082E-1,-1.188564E-1,-2.7856052E-2,3.990276E-1,6.443801E-2,-2.2368138E-1,-2.3406332E-2,5.662464E-1,3.7005924E-2,-3.2831353E-1,1.7095858E-1,8.560487E-2,-6.1521494E-1,-3.7317142E-2,5.3190738E-2,-2.750503E-2,8.965355E-3,-8.82683E-2,-5.4330178E-2,1.9045262E-2],"categories":[],"categories_nodes":[],"categories_segments":[],"categories_sizes":[],"default_left":[0,0,0,0,0,0,0,0,0,0,0,0,0,0,0,0,0,0,0,0,0],"id":48,"left_children":[1,3,5,-1,7,-1,9,-1,11,-1,13,15,-1,17,19,-1,-1,-1,-1,-1,-1],"loss_changes":[8.322231E-1,7.7842176E-1,1.4007881E0,0E0,9.385874E-1,0E0,1.0255611E0,0E0,5.771308E-1,0E0,1.0542039E0,7.7754533E-1,0E0,1.291795E0,9.643659E-1,0E0,0E0,0E0,0E0,0E0,0E0],"parents":[2147483647,0,0,1,1,2,2,4,4,6,6,8,8,10,10,11,11,13,13,14,14],"right_children":[2,4,6,-1,8,-1,10,-1,12,-1,14,16,-1,18,20,-1,-1,-1,-1,-1,-1],"split_conditions":[7.02475E-1,1.3306308E-1,2.3787022E-2,-2.7856052E-2,3.9421535E-1,6.443801E-2,4.7930777E-2,-2.3406332E-2,7.219387E-1,3.7005924E-2,4.1235566E-1,6.953847E-1,8.560487E-2,2.6040956E-1,5.8877878E-2,5.3190738E-2,-2.750503E-2,8.965355E-3,-8.82683E-2,-5.4330178E-2,1.9045262E-2],"split_indices":[48,53,3,0,18,0,36,0,54,0,47,54,0,35,39,0,0,0,0,0,0],"split_type":[0,0,0,0,0,0,0,0,0,0,0,0,0,0,0,0,0,0,0,0,0],"sum_hessian":[2.2730503E1,8.023577E0,1.4706926E1,1.4096134E0,6.6139636E0,1.1544092E0,1.3552517E1,1.2984157E0,5.315548E0,1.6504109E0,1.1902106E1,2.9211025E0,2.3944452E0,5.4321914E0,6.469915E0,1.5080584E0,1.4130442E0,1.6771476E0,3.7550435E0,1.5783468E0,4.8915677E0],"tree_param":{"num_deleted":"0","num_feature":"59","num_nodes":"21","size_leaf_vector":"1"}},{"base_weights":[6.1803614E-3,8.8938326E-2,-4.1468677E-1,2.1033293E-1,-1.976873E-1,-5.104659E-1,-5.9843003E-3,-1.1460937E-1,4.777106E-1,1.6920227E-1,-4.507211E-1,-8.313033E-3,-6.816625E-2,2.6301476E-1,-4.2212343E-1,2.6477527E-2,6.23243E-1,-2.5995845E-2,5.000433E-2,2.095732E-3,-6.460255E-2,6.417436E-2,-2.9587388E-2,-6.236539E-2,6.0227006E-3,3.8928308E-2,-3.279635E-2,-1.171103E-2,7.865705E-2],"categories":[],"categories_nodes":[],"categories_segments":[],"categories_sizes":[],"default_left":[0,0,0,0,0,0,0,0,0,0,0,0,0,0,0,0,0,0,0,0,0,0,0,0,0,0,0,0,0],"id":49,"left_children":[1,3,5,7,9,11,-1,13,15,17,19,-1,-1,21,23,25,27,-1,-1,-1,-1,-1,-1,-1,-1,-1,-1,-1,-1],"loss_changes":[8.920712E-1,7.8416705E-1,1.12579644E-1,1.3994043E0,7.135931E-1,1.7622447E-1,0E0,1.0159638E0,5.5376196E-1,6.310813E-1,4.129703E-1,0E0,0E0,1.060633E0,4.9239993E-1,5.342953E-1,8.80733E-1,0E0,0E0,0E0,0E0,0E0,0E0,0E0,0E0,0E0,0E0,0E0,0E0],"parents":[2147483647,0,0,1,1,2,2,3,3,4,4,5,5,7,7,8,8,9,9,10,10,13,13,14,14,15,15,16,16],"right_children":[2,4,6,8,10,12,-1,14,16,18,20,-1,-1,22,24,26,28,-1,-1,-1,-1,-1,-1,-1,-1,-1,-1,-1,-1],"split_conditions":[6.632407E-1,7.593432E-1,9.324935E-1,1.09713025E-1,6.984822E-1,8.0985653E-1,-5.9843003E-3,1.9687319E-1,1.5149593E-1,4.5974705E-1,1.0362483E-1,-8.313033E-3,-6.816625E-2,4.8140004E-1,3.316728E-1,1.5149593E-1,1.7526437E-1,-2.5995845E-2,5.000433E-2,2.095732E-3,-6.460255E-2,6.417436E-2,-2.9587388E-2,-6.236539E-2,6.0227006E-3,3.8928308E-2,-3.279635E-2,-1.171103E-2,7.865705E-2],"split_indices":[19,42,15,39,48,15,0,21,41,10,39,0,0,31,25,50,15,0,0,0,0,0,0,0,0,0,0,0,0],"split_type":[0,0,0,0,0,0,0,0,0,0,0,0,0,0,0,0,0,0,0,0,0,0,0,0,0,0,0,0,0],"sum_hessian":[2.3553175E1,2.0341888E1,3.2112854E0,1.4476731E1,5.8651576E0,2.183383E0,1.0279025E0,6.79282E0,7.6839113E0,2.5292072E0,3.3359506E0,1.0494249E0,1.1339581E0,3.1138055E0,3.6790147E0,2.1621022E0,5.521809E0,1.194271E0,1.3349361E0,1.2382218E0,2.0977287E0,1.7676884E0,1.3461171E0,2.388239E0,1.2907759E0,1.0198665E0,1.1422358E0,1.0491321E0,4.472677E0],"tree_param":{"num_deleted":"0","num_feature":"59","num_nodes":"29","size_leaf_vector":"1"}},{"base_weights":[1.0253823E-3,1.5760836E-1,-3.2774872E-1,-3.4723368E-1,2.9482117E-1,1.3348605E-1,-5.161417E-1,2.2485986E-2,-6.903214E-2,-1.44637795E-2,4.8960075E-1,2.7168496E-2,-7.163614E-3,-6.1255455E-4,-6.567928E-1,4.6344448E-2,-3.4795308E-1,6.109382E-1,-1.4375432E-2,-7.961946E-2,-1.0116911E-2,1.6434886E-2,-7.619891E-2,-2.3241004E-3,7.404465E-2],"categories":[],"categories_nodes":[],"categories_segments":[],"categories_sizes":[],"default_left":[0,0,0,0,0,0,0,0,0,0,0,0,0,0,0,0,0,0,0,0,0,0,0,0,0],"id":50,"left_children":[1,3,5,7,9,11,13,-1,-1,15,17,-1,-1,-1,19,-1,21,23,-1,-1,-1,-1,-1,-1,-1],"loss_changes":[1.2290952E0,1.2223538E0,7.382741E-1,9.235499E-1,8.055165E-1,1.0531399E-1,4.03062E-1,0E0,0E0,1.132307E0,7.149899E-1,0E0,0E0,0E0,2.632544E-1,0E0,1.0075681E0,5.9535813E-1,0E0,0E0,0E0,0E0,0E0,0E0,0E0],"parents":[2147483647,0,0,1,1,2,2,3,3,4,4,5,5,6,6,9,9,10,10,14,14,16,16,17,17],"right_children":[2,4,6,8,10,12,14,-1,-1,16,18,-1,-1,-1,20,-1,22,24,-1,-1,-1,-1,-1,-1,-1],"split_conditions":[7.538449E-1,6.863642E-2,1.1771393E-1,5.1049846E-1,7.313432E-2,1.5002209E-1,7.566549E-2,2.2485986E-2,-6.903214E-2,4.8801398E-1,9.424248E-1,2.7168496E-2,-7.163614E-3,-6.1255455E-4,6.3752675E-1,4.6344448E-2,2.9652336E-1,2.1470451E-1,-1.4375432E-2,-7.961946E-2,-1.0116911E-2,1.6434886E-2,-7.619891E-2,-2.3241004E-3,7.404465E-2],"split_indices":[42,2,2,17,46,39,52,0,0,8,5,0,0,0,19,0,35,47,0,0,0,0,0,0,0],"split_type":[0,0,0,0,0,0,0,0,0,0,0,0,0,0,0,0,0,0,0,0,0,0,0,0,0],"sum_hessian":[2.1871592E1,1.516817E1,6.7034216E0,2.914465E0,1.2253705E1,2.0285223E0,4.674899E0,1.2217741E0,1.6926907E0,5.0927753E0,7.16093E0,1.0180912E0,1.0104312E0,1.2361257E0,3.4387734E0,1.9329994E0,3.159776E0,6.039318E0,1.121612E0,2.402924E0,1.0358495E0,1.6818357E0,1.4779403E0,1.1633149E0,4.8760033E0],"tree_param":{"num_deleted":"0","num_feature":"59","num_nodes":"25","size_leaf_vector":"1"}},{"base_weights":[-1.796299E-2,-2.9989168E-1,8.7762855E-2,2.4612125E-2,-5.638987E-1,4.107217E-1,-9.4912104E-2,-6.6223205E-4,-7.1198575E-2,-2.2149263E-2,7.213116E-1,-3.506097E-1,2.598082E-1,8.036534E-2,2.2418752E-2,1.2680992E-1,-5.912241E-1,-4.9149495E-2,5.2984965E-1,4.04095E-2,-1.832497E-2,-8.131533E-2,-1.0834786E-2,9.598899E-3,7.741423E-2],"categories":[],"categories_nodes":[],"categories_segments":[],"categories_sizes":[],"default_left":[0,0,0,0,0,0,0,0,0,0,0,0,0,0,0,0,0,0,0,0,0,0,0,0,0],"id":51,"left_children":[1,3,5,-1,7,9,11,-1,-1,-1,13,15,17,-1,-1,19,21,-1,23,-1,-1,-1,-1,-1,-1],"loss_changes":[7.36035E-1,1.1075146E0,1.106231E0,0E0,3.9419317E-1,1.4799409E0,1.2127714E0,0E0,0E0,0E0,1.3994694E-2,9.4940376E-1,1.4279461E0,0E0,0E0,3.6414808E-1,4.7320962E-1,0E0,4.253633E-1,0E0,0E0,0E0,0E0,0E0,0E0],"parents":[2147483647,0,0,1,1,2,2,4,4,5,5,6,6,10,10,11,11,12,12,15,15,16,16,18,18],"right_children":[2,4,6,-1,8,10,12,-1,-1,-1,14,16,18,-1,-1,20,22,-1,24,-1,-1,-1,-1,-1,-1],"split_conditions":[5.323927E-2,2.4498296E-1,9.874666E-2,2.4612125E-2,4.6217978E-1,2.6761016E-1,7.5E-1,-6.6223205E-4,-7.1198575E-2,-2.2149263E-2,6.809113E-1,1.5382099E-1,2.6296932E-1,8.036534E-2,2.2418752E-2,3.7168753E-1,3.1893826E-1,-4.9149495E-2,1.21410206E-1,4.04095E-2,-1.832497E-2,-8.131533E-2,-1.0834786E-2,9.598899E-3,7.741423E-2],"split_indices":[46,53,46,0,20,35,56,0,0,0,11,27,20,0,0,14,27,0,49,0,0,0,0,0,0],"split_type":[0,0,0,0,0,0,0,0,0,0,0,0,0,0,0,0,0,0,0,0,0,0,0,0,0],"sum_hessian":[2.2810246E1,5.7202134E0,1.7090033E1,1.88645E0,3.8337631E0,5.723261E0,1.1366771E1,1.0242096E0,2.8095536E0,1.979928E0,3.7433329E0,6.6120853E0,4.754686E0,2.6824217E0,1.0609112E0,2.3742151E0,4.23787E0,1.0403037E0,3.714382E0,1.093247E0,1.280968E0,2.4348414E0,1.8030287E0,1.8398168E0,1.8745652E0],"tree_param":{"num_deleted":"0","num_feature":"59","num_nodes":"25","size_leaf_vector":"1"}},{"base_weights":[-3.2638054E-2,1.5827334E-1,-2.5091943E-1,4.819072E-1,-1.0070972E-1,-5.254669E-1,9.732007E-2,-5.0319433E-3,6.35774E-1,3.1462973E-1,-3.1085876E-1,-6.771314E-1,1.0965991E-2,4.8876226E-2,-1.9552241E-1,7.589505E-2,9.7635E-3,6.1306227E-2,-1.6200997E-2,-5.649713E-1,3.5824712E-2,-7.802242E-3,-8.19906E-2,-5.5701878E-2,2.1337409E-2,1.72541E-3,-7.482638E-2],"categories":[],"categories_nodes":[],"categories_segments":[],"categories_sizes":[],"default_left":[0,0,0,0,0,0,0,0,0,0,0,0,0,0,0,0,0,0,0,0,0,0,0,0,0,0,0],"id":52,"left_children":[1,3,5,7,9,11,13,-1,15,17,19,21,-1,-1,23,-1,-1,-1,-1,25,-1,-1,-1,-1,-1,-1,-1],"loss_changes":[9.847226E-1,1.1138434E0,1.0996677E0,5.0882757E-1,7.862447E-1,6.800076E-1,7.4647963E-1,0E0,2.3016894E-1,5.469621E-1,1.1784381E0,3.8217044E-1,0E0,0E0,7.045761E-1,0E0,0E0,0E0,0E0,4.983107E-1,0E0,0E0,0E0,0E0,0E0,0E0,0E0],"parents":[2147483647,0,0,1,1,2,2,3,3,4,4,5,5,6,6,8,8,9,9,10,10,11,11,14,14,19,19],"right_children":[2,4,6,8,10,12,14,-1,16,18,20,22,-1,-1,24,-1,-1,-1,-1,26,-1,-1,-1,-1,-1,-1,-1],"split_conditions":[7.3492604E-1,7.419331E-1,2.4477196E-1,4.3604277E-2,4.3208677E-1,8.7725425E-1,1.1476995E-1,-5.0319433E-3,1.5527128E-1,5.3876525E-1,1E0,1.4135742E-1,1.0965991E-2,4.8876226E-2,7.550692E-1,7.589505E-2,9.7635E-3,6.1306227E-2,-1.6200997E-2,1.8612224E-1,3.5824712E-2,-7.802242E-3,-8.19906E-2,-5.5701878E-2,2.1337409E-2,1.72541E-3,-7.482638E-2],"split_indices":[45,1,34,46,33,16,36,0,49,9,56,44,0,0,45,0,0,0,0,11,0,0,0,0,0,0,0],"split_type":[0,0,0,0,0,0,0,0,0,0,0,0,0,0,0,0,0,0,0,0,0,0,0,0,0,0,0],"sum_hessian":[2.1677086E1,1.1710159E1,9.966928E0,4.822738E0,6.8874207E0,5.2885666E0,4.678361E0,1.2324951E0,3.590243E0,2.1469686E0,4.7404523E0,4.2157383E0,