{"learner":{"attributes":{"scikit_learn":"{\"_estimator_type\": \"classifier\"}"},"feature_names":[],"feature_types":[],"gradient_booster":{"model":{"cats":{"enc":[],"feature_segments":[],"sorted_idx":[]},"gbtree_model_param":{"num_parallel_tree":"1","num_trees":"100"},"iteration_indptr":[0,1,2,3,4,5,6,7,8,9,10,11,12,13,14,15,16,17,18,19,20,21,22,23,24,25,26,27,28,29,30,31,32,33,34,35,36,37,38,39,40,41,42,43,44,45,46,47,48,49,50,51,52,53,54,55,56,57,58,59,60,61,62,63,64,65,66,67,68,69,70,71,72,73,74,75,76,77,78,79,80,81,82,83,84,85,86,87,88,89,90,91,92,93,94,95,96,97,98,99,100],"tree_info":[0,0,0,0,0,0,0,0,0,0,0,0,0,0,0,0,0,0,0,0,0,0,0,0,0,0,0,0,0,0,0,0,0,0,0,0,0,0,0,0,0,0,0,0,0,0,0,0,0,0,0,0,0,0,0,0,0,0,0,0,0,0,0,0,0,0,0,0,0,0,0,0,0,0,0,0,0,0,0,0,0,0,0,0,0,0,0,0,0,0,0,0,0,0,0,0,0,0,0,0],"trees":[{"base_weights":[-2.6153352E-3,-2.3865937E-1,8.8251746E-1,4.2710193E-2,-1.0720767E0,1.1591135E0,-2.6819983E-2,9.22106E-1,-2.3954204E-1,-1.2748065E0,1.4785548E-2,-8.093719E-3,1.4465319E-1,-4.8202604E-2,1.3722572E-1,-8.8176143E-1,3.5772225E-1,-4.2429924E-2,-1.4786241E0,1.0389843E-1,-1.2260689E-1,7.107662E-2,-8.650761E-2,-2.9770896E-2,-1.7138267E-1],"categories":[],"categories_nodes":[],"categories_segments":[],"categories_sizes":[],"default_left":[0,0,0,0,0,0,0,0,0,0,0,0,0,0,0,0,0,0,0,0,0,0,0,0,0],"id":0,"left_children":[1,3,5,7,9,11,-1,13,15,17,-1,-1,-1,-1,-1,19,21,-1,23,-1,-1,-1,-1,-1,-1],"loss_changes":[9.882869E0,8.800747E0,3.4807506E0,7.3875694E0,2.5284824E0,3.0457993E0,0E0,5.2261095E0,9.004004E0,7.9705906E-1,0E0,0E0,0E0,0E0,0E0,8.683126E0,5.9886723E0,0E0,1.2191439E0,0E0,0E0,0E0,0E0,0E0,0E0],"parents":[2147483647,0,0,1,1,2,2,3,3,4,4,5,5,7,7,8,8,9,9,15,15,16,16,18,18],"right_children":[2,4,6,8,10,12,-1,14,16,18,-1,-1,-1,-1,-1,20,22,-1,24,-1,-1,-1,-1,-1,-1],"split_conditions":[1E0,7.4505365E-1,8.430917E-1,7.1865745E-2,9.2804825E-1,3.3121085E-1,-2.6819983E-2,2.5457782E-1,1.4106874E-1,5.6390405E-1,1.4785548E-2,-8.093719E-3,1.4465319E-1,-4.8202604E-2,1.3722572E-1,8.245683E-2,4.0865237E-1,-4.2429924E-2,8.178491E-1,1.0389843E-1,-1.2260689E-1,7.107662E-2,-8.650761E-2,-2.9770896E-2,-1.7138267E-1],"split_indices":[56,14,2,49,16,3,0,21,55,19,0,0,0,0,0,47,51,0,15,0,0,0,0,0,0],"split_type":[0,0,0,0,0,0,0,0,0,0,0,0,0,0,0,0,0,0,0,0,0,0,0,0,0],"sum_hessian":[4.5294132E1,3.6334854E1,8.959279E0,2.7873314E1,8.461541E0,7.217197E0,1.7420821E0,6.2217216E0,2.1651592E1,7.217197E0,1.2443444E0,1.4932132E0,5.723984E0,1.4932132E0,4.7285085E0,1.0203624E1,1.1447968E1,1.990951E0,5.2262464E0,1.2443444E0,8.959279E0,9.208148E0,2.2398198E0,1.2443444E0,3.981902E0],"tree_param":{"num_deleted":"0","num_feature":"59","num_nodes":"25","size_leaf_vector":"1"}},{"base_weights":[7.146731E-2,-1.5918986E-1,9.020164E-1,1.92148E-1,-7.7305466E-1,-3.1635407E-2,1.2080007E0,-8.0214924E-1,6.491262E-1,-1.2577242E0,-9.35202E-2,1.5084645E-1,8.963997E-3,1.4692183E-1,-1.4296097E-1,-1.05354235E-1,1.1513791E0,-1.5034649E-1,-3.8612764E-2,6.471689E-1,-9.114743E-1,-7.179696E-2,8.03538E-2,7.380083E-2,-9.22982E-2,3.626747E-3,1.3818572E-1,-2.726774E-2,1.1659278E-1,-1.1794579E-1,-2.3848789E-2],"categories":[],"categories_nodes":[],"categories_segments":[],"categories_sizes":[],"default_left":[0,0,0,0,0,0,0,0,0,0,0,0,0,0,0,0,0,0,0,0,0,0,0,0,0,0,0,0,0,0,0],"id":1,"left_children":[1,3,5,7,9,-1,11,13,15,17,19,-1,-1,21,-1,23,25,-1,-1,27,29,-1,-1,-1,-1,-1,-1,-1,-1,-1,-1],"loss_changes":[8.511332E0,7.704774E0,3.9774113E0,1.1009112E1,4.1481557E0,0E0,2.5246325E0,4.8048134E0,6.323624E0,1.0215225E0,4.511195E0,0E0,0E0,2.83585E0,0E0,5.8235054E0,2.4968662E0,0E0,0E0,2.2177727E0,3.483131E-1,0E0,0E0,0E0,0E0,0E0,0E0,0E0,0E0,0E0,0E0],"parents":[2147483647,0,0,1,1,2,2,3,3,4,4,6,6,7,7,8,8,9,9,10,10,13,13,15,15,16,16,19,19,20,20],"right_children":[2,4,6,8,10,-1,12,14,16,18,20,-1,-1,22,-1,24,26,-1,-1,28,30,-1,-1,-1,-1,-1,-1,-1,-1,-1,-1],"split_conditions":[1E0,6.298778E-1,3.2308015E-1,3.2625654E-1,3.5753584E-1,-3.1635407E-2,4.467216E-1,9.443779E-2,3.6604095E-1,1.8223387E-1,6.719732E-1,1.5084645E-1,8.963997E-3,1.1523874E-1,-1.4296097E-1,1.1690098E-1,4.4141814E-2,-1.5034649E-1,-3.8612764E-2,3.620475E-1,7.199088E-1,-7.179696E-2,8.03538E-2,7.380083E-2,-9.22982E-2,3.626747E-3,1.3818572E-1,-2.726774E-2,1.1659278E-1,-1.1794579E-1,-2.3848789E-2],"split_indices":[56,26,45,48,54,0,1,46,10,52,19,0,0,39,0,55,43,0,0,45,26,0,0,0,0,0,0,0,0,0,0],"split_type":[0,0,0,0,0,0,0,0,0,0,0,0,0,0,0,0,0,0,0,0,0,0,0,0,0,0,0,0,0,0,0],"sum_hessian":[4.2679317E1,3.4035446E1,8.643872E0,2.208332E1,1.19521265E1,1.7282846E0,6.915588E0,6.7157645E0,1.5367556E1,6.4796996E0,5.4724264E0,5.1761284E0,1.7394595E0,2.9776857E0,3.7380788E0,6.4574547E0,8.910101E0,4.4890795E0,1.9906203E0,2.9814258E0,2.491001E0,1.2447149E0,1.7329707E0,3.2266374E0,3.230817E0,1.724395E0,7.1857057E0,1.2461532E0,1.7352724E0,1.243332E0,1.2476689E0],"tree_param":{"num_deleted":"0","num_feature":"59","num_nodes":"31","size_leaf_vector":"1"}},{"base_weights":[1.0195732E-1,7.8305125E-1,-2.6002046E-1,1.0708348E0,-9.1960214E-2,1.0154414E-1,-9.1167855E-1,1.4715071E-1,2.039733E-1,3.49393E-1,-1.1390265E-1,-1.2345998E0,4.544483E-2,8.100575E-1,-8.3733305E-2,-3.781303E-2,1.1368394E0,1.6566096E-2,-1.489301E0,1.1133379E-1,7.7429856E-3,-4.7654543E-2,6.0994353E-2,1.3734938E-1,1.5976777E-2,-1.6765818E-1,-3.016339E-2],"categories":[],"categories_nodes":[],"categories_segments":[],"categories_sizes":[],"default_left":[0,0,0,0,0,0,0,0,0,0,0,0,0,0,0,0,0,0,0,0,0,0,0,0,0,0,0],"id":2,"left_children":[1,3,5,7,-1,9,11,-1,13,15,-1,17,-1,19,-1,21,23,-1,25,-1,-1,-1,-1,-1,-1,-1,-1],"loss_changes":[1.0849007E1,8.449199E0,6.9125667E0,4.386409E0,0E0,6.3986516E0,5.161935E0,0E0,4.102852E0,5.2359734E0,0E0,3.351121E0,0E0,7.888143E-1,0E0,3.810429E0,1.0861626E0,0E0,1.1546726E0,0E0,0E0,0E0,0E0,0E0,0E0,0E0,0E0],"parents":[2147483647,0,0,1,1,2,2,3,3,5,5,6,6,8,8,9,9,11,11,13,13,15,15,16,16,18,18],"right_children":[2,4,6,8,-1,10,12,-1,14,16,-1,18,-1,20,-1,22,24,-1,26,-1,-1,-1,-1,-1,-1,-1,-1],"split_conditions":[3.4875733E-1,4.371945E-1,3.8424337E-1,6.8103886E-1,-9.1960214E-2,8.016678E-1,3.8507387E-1,1.4715071E-1,3.5949153E-1,1.7810796E-1,-1.1390265E-1,3.4438944E-1,4.544483E-2,9.2450166E-1,-8.3733305E-2,4.1848117E-1,4.532426E-1,1.6566096E-2,8.244102E-1,1.1133379E-1,7.7429856E-3,-4.7654543E-2,6.0994353E-2,1.3734938E-1,1.5976777E-2,-1.6765818E-1,-3.016339E-2],"split_indices":[0,45,42,27,0,19,45,0,42,55,0,19,0,22,0,18,0,0,19,0,0,0,0,0,0,0,0],"split_type":[0,0,0,0,0,0,0,0,0,0,0,0,0,0,0,0,0,0,0,0,0,0,0,0,0,0,0],"sum_hessian":[4.2179035E1,1.4233728E1,2.7945307E1,1.24932E1,1.7405288E0,1.8516068E1,9.42924E0,8.067025E0,4.4261746E0,1.6031546E1,2.4845204E0,7.704378E0,1.7248621E0,2.9381328E0,1.4880416E0,1.1385169E1,4.6463776E0,1.2395178E0,6.46486E0,1.7104291E0,1.2277038E0,6.9453344E0,4.4398346E0,3.4138029E0,1.2325745E0,5.2286983E0,1.2361621E0],"tree_param":{"num_deleted":"0","num_feature":"59","num_nodes":"27","size_leaf_vector":"1"}},{"base_weights":[1.2033966E-1,2.8841087E-1,-1.0115503E0,5.9237677E-1,-4.6740454E-1,-1.5130198E-1,3.0287042E-2,7.695433E-1,-5.362988E-1,1.2539427E-1,-1.028295E0,8.692681E-1,-4.881854E-2,-1.3420402E-1,6.608316E-2,9.0251577E-1,-8.515789E-1,-1.36488E-1,1.86645E-2,1.2319465E-1,3.961994E-2,1.2052425E-1,9.480027E-3,-2.391197E-2,-1.0776031E-1],"categories":[],"categories_nodes":[],"categories_segments":[],"categories_sizes":[],"default_left":[0,0,0,0,0,0,0,0,0,0,0,0,0,0,0,0,0,0,0,0,0,0,0,0,0],"id":3,"left_children":[1,3,5,7,9,-1,-1,11,13,15,17,19,-1,-1,-1,21,23,-1,-1,-1,-1,-1,-1,-1,-1],"loss_changes":[8.723684E0,9.321996E0,4.3817034E0,6.1155615E0,4.0694275E0,0E0,0E0,3.567668E0,5.1875362E0,5.8197365E0,2.7893853E0,3.5574665E0,0E0,0E0,0E0,9.1051626E-1,2.2157598E-1,0E0,0E0,0E0,0E0,0E0,0E0,0E0,0E0],"parents":[2147483647,0,0,1,1,2,2,3,3,4,4,7,7,8,8,9,9,10,10,11,11,15,15,16,16],"right_children":[2,4,6,8,10,-1,-1,12,14,16,18,20,-1,-1,-1,22,24,-1,-1,-1,-1,-1,-1,-1,-1],"split_conditions":[4.4831187E-1,4.0620834E-1,1.5316439E-1,8.690073E-1,4.3702173E-1,-1.5130198E-1,3.0287042E-2,9.8495364E-1,3.3782884E-1,1.8432438E-1,7.526338E-1,9.143485E-2,-4.881854E-2,-1.3420402E-1,6.608316E-2,7.5E-1,3.7690184E-1,-1.36488E-1,1.86645E-2,1.2319465E-1,3.961994E-2,1.2052425E-1,9.480027E-3,-2.391197E-2,-1.0776031E-1],"split_indices":[45,0,55,16,53,0,0,12,25,36,2,46,0,0,0,56,11,0,0,0,0,0,0,0,0],"split_type":[0,0,0,0,0,0,0,0,0,0,0,0,0,0,0,0,0,0,0,0,0,0,0,0,0],"sum_hessian":[4.3323105E1,3.8370735E1,4.9523683E0,2.7519482E1,1.0851254E1,3.4753735E0,1.476995E0,2.4060871E1,3.45861E0,5.6530485E0,5.1982064E0,2.2579416E1,1.4814539E0,1.9948846E0,1.4637254E0,3.1910102E0,2.4620383E0,3.9738765E0,1.2243298E0,1.1872895E1,1.0706522E1,1.9630929E0,1.2279173E0,1.2184191E0,1.2436191E0],"tree_param":{"num_deleted":"0","num_feature":"59","num_nodes":"25","size_leaf_vector":"1"}},{"base_weights":[1.6008992E-2,5.344942E-1,-2.8851873E-1,1.2303914E0,-1.2640525E-1,-1.465737E-1,-1.2662156E-1,1.4059709E-1,9.94464E-3,1.0741027E-1,-7.309007E-1,-3.2158458E-1,7.201934E-1,-1.0728332E0,3.4644533E-2,1.1098217E-1,-5.064709E-1,1.2434255E-1,-2.417331E-2,-1.5092983E-2,-1.5121925E-1,-7.200343E-2,6.0270052E-2],"categories":[],"categories_nodes":[],"categories_segments":[],"categories_sizes":[],"default_left":[0,0,0,0,0,0,0,0,0,0,0,0,0,0,0,0,0,0,0,0,0,0,0],"id":4,"left_children":[1,3,5,7,9,-1,11,-1,-1,-1,13,15,17,19,-1,-1,21,-1,-1,-1,-1,-1,-1],"loss_changes":[7.405432E0,8.13211E0,5.45227E0,1.5562181E0,7.898577E0,0E0,4.70568E0,0E0,0E0,0E0,2.9925342E0,6.5747147E0,3.0085034E0,2.0580983E0,0E0,0E0,5.362731E0,0E0,0E0,0E0,0E0,0E0,0E0],"parents":[2147483647,0,0,1,1,2,2,3,3,4,4,6,6,10,10,11,11,12,12,13,13,16,16],"right_children":[2,4,6,8,10,-1,12,-1,-1,-1,14,16,18,20,-1,-1,22,-1,-1,-1,-1,-1,-1],"split_conditions":[5.24611E-1,3.5041377E-1,2.2104862E-1,6.724746E-1,3.660696E-1,-1.465737E-1,2.3644678E-1,1.4059709E-1,9.94464E-3,1.0741027E-1,6.452721E-1,2.838974E-1,7.0100534E-1,1.0820247E-1,3.4644533E-2,1.1098217E-1,3.6635616E-1,1.2434255E-1,-2.417331E-2,-1.5092983E-2,-1.5121925E-1,-7.200343E-2,6.0270052E-2],"split_indices":[31,0,18,32,16,0,52,0,0,0,40,42,9,52,0,0,25,0,0,0,0,0,0],"split_type":[0,0,0,0,0,0,0,0,0,0,0,0,0,0,0,0,0,0,0,0,0,0,0],"sum_hessian":[4.4924862E1,1.6343483E1,2.8581379E1,7.541225E0,8.8022585E0,2.4817913E0,2.6099588E1,6.317282E0,1.2239426E0,2.687706E0,6.114553E0,2.171936E1,4.380227E0,4.6446147E0,1.4699382E0,1.912202E0,1.980716E1,2.6475003E0,1.732727E0,1.932723E0,2.7118917E0,1.6903368E1,2.9037914E0],"tree_param":{"num_deleted":"0","num_feature":"59","num_nodes":"23","size_leaf_vector":"1"}},{"base_weights":[-7.6180615E-2,1.2005884E-1,-8.260364E-1,9.820487E-1,-6.885372E-2,4.6309095E-2,-1.0537483E0,1.2780175E-1,1.5145575E-2,-3.4548926E-1,5.450148E-1,-1.3039738E0,2.5555134E-2,6.9061834E-1,-6.8069994E-1,-6.0362723E-2,9.265615E-1,1.1193597E-2,-1.5990572E-1,-4.665503E-3,1.0570842E-1,4.2176735E-2,-8.845435E-2,1.3058883E-1,-6.7427926E-2],"categories":[],"categories_nodes":[],"categories_segments":[],"categories_sizes":[],"default_left":[0,0,0,0,0,0,0,0,0,0,0,0,0,0,0,0,0,0,0,0,0,0,0,0,0],"id":5,"left_children":[1,3,5,7,9,-1,11,-1,-1,13,15,17,-1,19,21,-1,23,-1,-1,-1,-1,-1,-1,-1,-1],"loss_changes":[6.949473E0,6.2180905E0,3.359746E0,1.4916272E0,5.607992E0,0E0,3.1571732E0,0E0,0E0,8.323731E0,5.074392E0,3.2709694E0,0E0,1.6768789E0,4.3257704E0,0E0,5.816161E0,0E0,0E0,0E0,0E0,0E0,0E0,0E0,0E0],"parents":[2147483647,0,0,1,1,2,2,3,3,4,4,6,6,9,9,10,10,11,11,13,13,14,14,16,16],"right_children":[2,4,6,8,10,-1,12,-1,-1,14,16,18,-1,20,22,-1,24,-1,-1,-1,-1,-1,-1,-1,-1],"split_conditions":[7.951057E-1,4.6909812E-1,3.2273978E-1,1.0040657E-1,1.6413157E-1,4.6309095E-2,7.542161E-1,1.2780175E-1,1.5145575E-2,8.543351E-2,3.7988743E-1,2.5725946E-2,2.5555134E-2,4.681272E-1,2.834777E-1,-6.0362723E-2,7.8039825E-1,1.1193597E-2,-1.5990572E-1,-4.665503E-3,1.0570842E-1,4.2176735E-2,-8.845435E-2,1.3058883E-1,-6.7427926E-2],"split_indices":[31,40,42,46,55,0,26,0,0,55,8,36,0,32,51,0,19,0,0,0,0,0,0,0,0],"split_type":[0,0,0,0,0,0,0,0,0,0,0,0,0,0,0,0,0,0,0,0,0,0,0,0,0],"sum_hessian":[4.555277E1,3.6769875E1,8.782893E0,5.855116E0,3.0914759E1,1.1633333E0,7.61956E0,3.9197087E0,1.9354069E0,2.1612453E1,9.302306E0,6.4004173E0,1.2191423E0,5.0238647E0,1.6588589E1,2.1743617E0,7.127945E0,1.2108774E0,5.18954E0,1.9577864E0,3.0660782E0,2.421746E0,1.4166842E1,5.911448E0,1.2164972E0],"tree_param":{"num_deleted":"0","num_feature":"59","num_nodes":"25","size_leaf_vector":"1"}},{"base_weights":[7.158465E-4,-2.1135724E-1,7.5841635E-1,6.4606225E-1,-3.4492138E-1,1.0135332E0,-2.7712617E-2,-2.434796E-2,9.892759E-2,2.1459098E-1,-5.484518E-1,3.9549768E-1,1.2341779E-1,6.7504245E-1,-7.186034E-1,-8.9411455E-1,4.1781557E-1,-4.065471E-2,9.643715E-2,9.960812E-2,-1.469277E-2,-9.549806E-3,-1.01057254E-1,8.3376365E-3,-1.0977342E-1,-5.907448E-2,1.10717736E-1],"categories":[],"categories_nodes":[],"categories_segments":[],"categories_sizes":[],"default_left":[0,0,0,0,0,0,0,0,0,0,0,0,0,0,0,0,0,0,0,0,0,0,0,0,0,0,0],"id":6,"left_children":[1,3,5,7,9,11,-1,-1,-1,13,15,17,-1,19,21,23,25,-1,-1,-1,-1,-1,-1,-1,-1,-1,-1],"loss_changes":[7.139314E0,4.1985703E0,2.8476448E0,1.7756577E0,3.6125114E0,6.04187E-1,0E0,0E0,0E0,4.311339E0,7.983673E0,2.024981E0,0E0,1.8558602E0,5.268513E-1,3.4950142E0,5.3016973E0,0E0,0E0,0E0,0E0,0E0,0E0,0E0,0E0,0E0,0E0],"parents":[2147483647,0,0,1,1,2,2,3,3,4,4,5,5,9,9,10,10,11,11,13,13,14,14,15,15,16,16],"right_children":[2,4,6,8,10,12,-1,-1,-1,14,16,18,-1,20,22,24,26,-1,-1,-1,-1,-1,-1,-1,-1,-1,-1],"split_conditions":[1E0,8.543351E-2,8.430917E-1,3.2804108E-1,3.3924663E-1,3.4125972E-1,-2.7712617E-2,-2.434796E-2,9.892759E-2,3.5731494E-1,3.7278417E-1,1.14961445E-1,1.2341779E-1,6.1598194E-1,6.6981363E-1,4.740799E-1,3.406691E-1,-4.065471E-2,9.643715E-2,9.960812E-2,-1.469277E-2,-9.549806E-3,-1.01057254E-1,8.3376365E-3,-1.0977342E-1,-5.907448E-2,1.10717736E-1],"split_indices":[56,55,2,48,45,2,0,0,0,54,54,55,0,32,47,40,48,0,0,0,0,0,0,0,0,0,0],"split_type":[0,0,0,0,0,0,0,0,0,0,0,0,0,0,0,0,0,0,0,0,0,0,0,0,0,0,0],"sum_hessian":[4.243213E1,3.3716312E1,8.7158165E0,4.0271025E0,2.968921E1,7.0100665E0,1.7057503E0,1.2020961E0,2.8250062E0,7.904663E0,2.1784548E1,2.578904E0,4.431163E0,5.478249E0,2.426414E0,1.6099829E1,5.684719E0,1.1885443E0,1.3903595E0,3.7872374E0,1.6910115E0,1.1976131E0,1.228801E0,2.8773634E0,1.3222465E1,2.3660948E0,3.318624E0],"tree_param":{"num_deleted":"0","num_feature":"59","num_nodes":"27","size_leaf_vector":"1"}},{"base_weights":[-2.3609463E-2,2.1188869E-1,-7.696831E-1,5.081731E-1,-3.2009923E-1,4.8915096E-2,-9.772981E-1,7.307291E-1,-4.1309598E-1,-9.570755E-1,4.602652E-1,2.1620704E-2,-1.1769276E0,-3.259304E-1,9.513098E-1,5.7232764E-2,-1.2494894E-1,-1.2285717E0,3.0427841E-2,9.791093E-1,-7.517593E-2,-1.4324121E-1,-1.0869348E-2,8.2721435E-2,-1.1176322E-1,2.23705E-2,1.2570454E-1,-1.4474843E-1,-3.1928226E-2,7.1694227E-3,1.258605E-1],"categories":[],"categories_nodes":[],"categories_segments":[],"categories_sizes":[],"default_left":[0,0,0,0,0,0,0,0,0,0,0,0,0,0,0,0,0,0,0,0,0,0,0,0,0,0,0,0,0,0,0],"id":7,"left_children":[1,3,5,7,9,-1,11,13,15,17,19,-1,21,23,25,-1,-1,27,-1,29,-1,-1,-1,-1,-1,-1,-1,-1,-1,-1,-1],"loss_changes":[7.690482E0,5.4189587E0,3.220848E0,4.772707E0,6.67508E0,0E0,2.4803696E0,4.4877224E0,4.7385063E0,2.8499188E0,4.705424E0,0E0,2.071002E0,4.4304934E0,3.0742006E0,0E0,0E0,7.6169586E-1,0E0,1.1409078E0,0E0,0E0,0E0,0E0,0E0,0E0,0E0,0E0,0E0,0E0,0E0],"parents":[2147483647,0,0,1,1,2,2,3,3,4,4,6,6,7,7,8,8,9,9,10,10,12,12,13,13,14,14,17,17,19,19],"right_children":[2,4,6,8,10,-1,12,14,16,18,20,-1,22,24,26,-1,-1,28,-1,30,-1,-1,-1,-1,-1,-1,-1,-1,-1,-1,-1],"split_conditions":[8.1846523E-1,7.425194E-1,7.591218E-2,4.202065E-1,8.684273E-1,4.8915096E-2,3.604207E-1,3.2273978E-1,5E-1,1E0,9.885247E-1,2.1620704E-2,9.6002275E-1,1.4377269E-1,6.959875E-2,5.7232764E-2,-1.2494894E-1,3.6061764E-1,3.0427841E-2,4.8000836E-1,-7.517593E-2,-1.4324121E-1,-1.0869348E-2,8.2721435E-2,-1.1176322E-1,2.23705E-2,1.2570454E-1,-1.4474843E-1,-3.1928226E-2,7.1694227E-3,1.258605E-1],"split_indices":[15,3,55,51,44,0,44,48,56,56,12,0,15,39,43,0,0,33,0,40,0,0,0,0,0,0,0,0,0,0,0],"split_type":[0,0,0,0,0,0,0,0,0,0,0,0,0,0,0,0,0,0,0,0,0,0,0,0,0,0,0,0,0,0,0],"sum_hessian":[4.184257E1,3.234794E1,9.494633E0,2.080539E1,1.1542551E1,1.1522336E0,8.342399E0,1.692383E1,3.8815584E0,6.2304606E0,5.3120904E0,1.1835264E0,7.1588726E0,2.8402805E0,1.408355E1,1.926964E0,1.9545945E0,5.148317E0,1.082144E0,3.854307E0,1.4577835E0,5.502056E0,1.6568166E0,1.1379523E0,1.7023282E0,4.679274E0,9.404276E0,3.6723168E0,1.4759998E0,1.2035043E0,2.6508029E0],"tree_param":{"num_deleted":"0","num_feature":"59","num_nodes":"31","size_leaf_vector":"1"}},{"base_weights":[-7.0191376E-2,-2.392727E-1,6.2856793E-1,-6.2766933E-1,1.3257134E-1,9.391611E-1,-6.870694E-2,-2.419558E-1,-1.367987E-1,-2.7214533E-1,5.977134E-1,1.1490617E0,-1.3022159E-2,2.7676958E-1,-6.5851235E-1,8.801212E-2,-6.656268E-1,-1.13661654E-1,9.823285E-1,3.2356225E-2,1.2510699E-1,7.9106286E-2,-4.743153E-2,4.571634E-2,-1.2970808E-1,4.4629358E-2,-9.914329E-2,5.5142928E-2,-9.283783E-2,8.538179E-3,1.1746756E-1],"categories":[],"categories_nodes":[],"categories_segments":[],"categories_sizes":[],"default_left":[0,0,0,0,0,0,0,0,0,0,0,0,0,0,0,0,0,0,0,0,0,0,0,0,0,0,0,0,0,0,0],"id":8,"left_children":[1,3,5,7,9,11,-1,13,-1,15,17,19,-1,21,23,-1,25,27,29,-1,-1,-1,-1,-1,-1,-1,-1,-1,-1,-1,-1],"loss_changes":[5.1730824E0,5.1313367E0,4.142445E0,4.600676E0,3.6797574E0,1.7986078E0,0E0,2.8982873E0,0E0,5.4269915E0,2.575596E0,1.2088585E-1,0E0,2.8096752E0,5.7704535E0,0E0,3.5322356E0,2.7100315E0,9.260359E-1,0E0,0E0,0E0,0E0,0E0,0E0,0E0,0E0,0E0,0E0,0E0,0E0],"parents":[2147483647,0,0,1,1,2,2,3,3,4,4,5,5,7,7,9,9,10,10,11,11,13,13,14,14,16,16,17,17,18,18],"right_children":[2,4,6,8,10,12,-1,14,-1,16,18,20,-1,22,24,-1,26,28,30,-1,-1,-1,-1,-1,-1,-1,-1,-1,-1,-1,-1],"split_conditions":[1E0,4.1240877E-1,8.000641E-1,3.8507387E-1,3.8434112E-1,4.2076218E-1,-6.870694E-2,7.048981E-1,-1.367987E-1,3.8087976E-1,3.2874936E-1,5.1374897E-2,-1.3022159E-2,3.5115016E-1,1.3854045E-1,8.801212E-2,4.3716425E-1,4.417088E-1,5.348803E-1,3.2356225E-2,1.2510699E-1,7.9106286E-2,-4.743153E-2,4.571634E-2,-1.2970808E-1,4.4629358E-2,-9.914329E-2,5.5142928E-2,-9.283783E-2,8.538179E-3,1.1746756E-1],"split_indices":[56,21,9,0,48,48,0,22,0,15,45,39,0,0,35,0,21,33,26,0,0,0,0,0,0,0,0,0,0,0,0],"split_type":[0,0,0,0,0,0,0,0,0,0,0,0,0,0,0,0,0,0,0,0,0,0,0,0,0,0,0,0,0,0,0],"sum_hessian":[4.1512096E1,3.395376E1,7.558338E0,1.6270739E1,1.768302E1,6.3462763E0,1.2120618E0,1.1569652E1,4.701087E0,9.677563E0,8.005456E0,5.242716E0,1.1035604E0,5.3023596E0,6.267292E0,2.1486702E0,7.528893E0,3.056572E0,4.9488845E0,1.0354315E0,4.2072845E0,3.1157043E0,2.1866555E0,2.3847876E0,3.8825047E0,1.622333E0,5.90656E0,1.8607333E0,1.1958386E0,1.1288348E0,3.8200498E0],"tree_param":{"num_deleted":"0","num_feature":"59","num_nodes":"31","size_leaf_vector":"1"}},{"base_weights":[-2.555252E-2,1.0097171E-1,-1.3829948E-1,-5.512207E-1,1.6516782E-1,2.0661032E-1,-8.995561E-1,-7.8731936E-1,3.9400235E-1,1.0874523E-1,-9.1454156E-2,2.4788398E-2,-1.0688447E0,-1.129209E-1,2.780711E-3,6.974562E-1,-1.9798875E-1,-1.2500028E-1,2.0039106E-2,1.2725195E-1,2.7599001E-2,8.301967E-2,-5.1073916E-2],"categories":[],"categories_nodes":[],"categories_segments":[],"categories_sizes":[],"default_left":[0,0,0,0,0,0,0,0,0,0,0,0,0,0,0,0,0,0,0,0,0,0,0],"id":9,"left_children":[1,-1,3,5,7,9,11,13,15,-1,-1,-1,17,-1,-1,19,21,-1,-1,-1,-1,-1,-1],"loss_changes":[5.213727E0,0E0,5.113544E0,4.728742E0,5.513386E0,7.1494384E0,2.5914183E0,1.4130502E0,3.7155118E0,0E0,0E0,0E0,2.6935682E0,0E0,0E0,2.8933163E0,2.8446083E0,0E0,0E0,0E0,0E0,0E0,0E0],"parents":[2147483647,0,0,2,2,3,3,4,4,5,5,6,6,7,7,8,8,12,12,15,15,16,16],"right_children":[2,-1,4,6,8,10,12,14,16,-1,-1,-1,18,-1,-1,20,22,-1,-1,-1,-1,-1,-1],"split_conditions":[6.687276E-2,1.0097171E-1,4.1240877E-1,5.1642585E-1,2.9805094E-1,3.9264137E-1,3.1750968E-1,1.5955897E-1,7.219322E-1,1.0874523E-1,-9.1454156E-2,2.4788398E-2,4.073556E-1,-1.129209E-1,2.780711E-3,1.4909723E-1,4.2291224E-1,-1.2500028E-1,2.0039106E-2,1.2725195E-1,2.7599001E-2,8.301967E-2,-5.1073916E-2],"split_indices":[55,0,21,31,48,48,42,55,14,0,0,0,42,0,0,52,31,0,0,0,0,0,0],"split_type":[0,0,0,0,0,0,0,0,0,0,0,0,0,0,0,0,0,0,0,0,0,0,0],"sum_hessian":[4.2470966E1,3.3897612E0,3.9081203E1,1.620924E1,2.2871964E1,5.232465E0,1.0976775E1,3.9577792E0,1.8914185E1,2.9471054E0,2.2853591E0,1.3515668E0,9.625209E0,2.5168257E0,1.4409535E0,1.2386651E1,6.5275335E0,8.4362545E0,1.1889542E0,4.3847184E0,8.001933E0,1.1365515E0,5.390982E0],"tree_param":{"num_deleted":"0","num_feature":"59","num_nodes":"23","size_leaf_vector":"1"}},{"base_weights":[5.031027E-2,7.512547E-1,-8.89604E-2,1.04352914E-1,1.08010024E-1,-4.069213E-1,2.046837E-1,7.529562E-2,-4.9789555E-2,-9.8661447E-1,-2.1367254E-4,4.155471E-1,-5.932422E-1,-6.0639214E-3,-1.1700093E0,7.189603E-1,-6.4695543E-1,5.758057E-1,-5.6401636E-2,3.441279E-2,-1.0870478E-1,-2.0641776E-2,-1.3369521E-1,-1.3004893E-2,1.2581706E-1,-9.464185E-2,2.8432727E-2,-3.397977E-2,7.484148E-2],"categories":[],"categories_nodes":[],"categories_segments":[],"categories_sizes":[],"default_left":[0,0,0,0,0,0,0,0,0,0,0,0,0,0,0,0,0,0,0,0,0,0,0,0,0,0,0,0,0],"id":10,"left_children":[1,3,5,-1,7,9,11,-1,-1,13,15,17,19,-1,21,23,25,27,-1,-1,-1,-1,-1,-1,-1,-1,-1,-1,-1],"loss_changes":[4.357096E0,1.2767415E0,3.5899448E0,0E0,1.7130711E0,4.330061E0,3.6436844E0,0E0,0E0,1.2150402E0,5.950825E0,2.9241662E0,2.5182884E0,0E0,7.320347E-1,2.9369433E0,2.147699E0,2.5814939E0,0E0,0E0,0E0,0E0,0E0,0E0,0E0,0E0,0E0,0E0,0E0],"parents":[2147483647,0,0,1,1,2,2,4,4,5,5,6,6,9,9,10,10,11,11,12,12,14,14,15,15,16,16,17,17],"right_children":[2,4,6,-1,8,10,12,-1,-1,14,16,18,20,-1,22,24,26,28,-1,-1,-1,-1,-1,-1,-1,-1,-1,-1,-1],"split_conditions":[8.543351E-2,6.6330314E-1,1.4106874E-1,1.04352914E-1,3.5319588E-1,1.1656009E-1,8.336258E-1,7.529562E-2,-4.9789555E-2,6.061924E-2,1.2728906E-1,8.1850266E-1,4.7173476E-1,-6.0639214E-3,2.968709E-1,8.591587E-2,7.434904E-1,1.7498074E-1,-5.6401636E-2,3.441279E-2,-1.0870478E-1,-2.0641776E-2,-1.3369521E-1,-1.3004893E-2,1.2581706E-1,-9.464185E-2,2.8432727E-2,-3.397977E-2,7.484148E-2],"split_indices":[55,31,55,0,42,52,31,0,0,52,49,14,19,0,15,49,21,32,0,0,0,0,0,0,0,0,0,0,0],"split_type":[0,0,0,0,0,0,0,0,0,0,0,0,0,0,0,0,0,0,0,0,0,0,0,0,0,0,0,0,0],"sum_hessian":[4.2948166E1,6.390549E0,3.6557617E1,3.9661424E0,2.4244068E0,1.7366848E1,1.9190767E1,1.0568087E0,1.367598E0,6.572706E0,1.0794143E1,1.5558441E1,3.632326E0,1.306538E0,5.266168E0,5.0580015E0,5.7361407E0,1.3725158E1,1.8332834E0,1.3578631E0,2.274463E0,1.1078916E0,4.1582766E0,2.2593603E0,2.7986414E0,4.3281345E0,1.4080064E0,2.0234077E0,1.1701751E1],"tree_param":{"num_deleted":"0","num_feature":"59","num_nodes":"29","size_leaf_vector":"1"}},{"base_weights":[2.9602537E-2,5.046519E-1,-1.84759E-1,1.0623802E-1,5.7816245E-2,-7.358868E-1,2.8480295E-2,-4.906071E-1,7.6630884E-1,-3.8242113E-2,-1.261869E-1,-9.312472E-2,1.837644E-1,2.7673518E-2,-1.09125935E-1,1.2389637E-2,9.7723305E-2,8.285885E-2,-5.822921E-1,-3.210825E-1,4.3365073E-1,-8.805322E-2,-8.40159E-5,8.933804E-2,-7.785648E-2,6.359743E-2,-3.697789E-2],"categories":[],"categories_nodes":[],"categories_segments":[],"categories_sizes":[],"default_left":[0,0,0,0,0,0,0,0,0,0,0,0,0,0,0,0,0,0,0,0,0,0,0,0,0,0,0],"id":11,"left_children":[1,3,5,-1,7,9,11,13,15,17,-1,-1,19,-1,-1,-1,-1,-1,21,23,25,-1,-1,-1,-1,-1,-1],"loss_changes":[4.0798836E0,3.0389833E0,3.2772973E0,0E0,3.470639E0,2.8019018E0,3.2919948E0,2.6522098E0,4.0269876E-1,2.5433764E0,0E0,0E0,2.518497E0,0E0,0E0,0E0,0E0,0E0,5.666959E-1,4.4841285E0,2.3550155E0,0E0,0E0,0E0,0E0,0E0,0E0],"parents":[2147483647,0,0,1,1,2,2,4,4,5,5,6,6,7,7,8,8,9,9,12,12,18,18,19,19,20,20],"right_children":[2,4,6,-1,8,10,12,14,16,18,-1,-1,20,-1,-1,-1,-1,-1,22,24,26,-1,-1,-1,-1,-1,-1],"split_conditions":[4.1658688E-1,3.4965962E-1,3.406691E-1,1.0623802E-1,3.9264137E-1,3.14274E-1,3.9878082E-1,3.1002983E-1,3.7093058E-1,5.661135E-1,-1.261869E-1,-9.312472E-2,6.826411E-2,2.7673518E-2,-1.09125935E-1,1.2389637E-2,9.7723305E-2,8.285885E-2,7.70885E-1,3.2569095E-2,7.77766E-1,-8.805322E-2,-8.40159E-5,8.933804E-2,-7.785648E-2,6.359743E-2,-3.697789E-2],"split_indices":[44,0,48,0,45,48,53,54,9,31,0,0,43,0,0,0,0,0,31,49,9,0,0,0,0,0,0],"split_type":[0,0,0,0,0,0,0,0,0,0,0,0,0,0,0,0,0,0,0,0,0,0,0,0,0,0,0],"sum_hessian":[3.8149105E1,1.1440798E1,2.6708307E1,4.476183E0,6.9646153E0,6.7671843E0,1.9941124E1,4.0991316E0,2.8654838E0,3.3700166E0,3.397168E0,2.0812128E0,1.7859911E1,2.036609E0,2.0625226E0,1.1006446E0,1.7648392E0,1.0978384E0,2.2721782E0,5.8189454E0,1.2040965E1,1.1618636E0,1.1103146E0,1.3314829E0,4.4874625E0,9.785226E0,2.2557385E0],"tree_param":{"num_deleted":"0","num_feature":"59","num_nodes":"27","size_leaf_vector":"1"}},{"base_weights":[-2.253992E-2,4.225368E-1,-2.7162552E-1,1.0142084E0,-2.1842274E-1,-4.6067122E-1,6.078157E-1,1.1858796E-1,-9.436213E-4,4.375463E-2,-5.119285E-1,2.12765E-1,-6.697478E-1,1.1055765E-1,-2.1274678E-2,2.1677995E-2,-9.231416E-1,-7.5196974E-2,7.4846554E-1,-1.247158E-1,-3.53789E-1,-1.0950609E-1,-2.3700828E-2,-9.390096E-3,1.0688384E-1,5.7296902E-2,-6.379573E-2],"categories":[],"categories_nodes":[],"categories_segments":[],"categories_sizes":[],"default_left":[0,0,0,0,0,0,0,0,0,0,0,0,0,0,0,0,0,0,0,0,0,0,0,0,0,0,0],"id":12,"left_children":[1,3,5,7,9,11,13,-1,-1,-1,15,17,19,-1,-1,-1,21,-1,23,-1,25,-1,-1,-1,-1,-1,-1],"loss_changes":[4.4911504E0,5.741852E0,4.5892315E0,1.3724709E0,1.72765E0,3.2263565E0,2.2843843E0,0E0,0E0,0E0,1.9550579E0,3.6367133E0,2.6519294E0,0E0,0E0,0E0,2.045188E-1,0E0,1.2676775E0,0E0,3.61909E0,0E0,0E0,0E0,0E0,0E0,0E0],"parents":[2147483647,0,0,1,1,2,2,3,3,4,4,5,5,6,6,10,10,11,11,12,12,16,16,18,18,20,20],"right_children":[2,4,6,8,10,12,14,-1,-1,-1,16,18,20,-1,-1,-1,22,-1,24,-1,26,-1,-1,-1,-1,-1,-1],"split_conditions":[3.754409E-1,5.213783E-1,6.8883646E-1,4.4276887E-1,3.5319588E-1,3.9326057E-1,6.0425466E-1,1.1858796E-1,-9.436213E-4,4.375463E-2,4.740799E-1,5.3330004E-1,6.31458E-1,1.1055765E-1,-2.1274678E-2,2.1677995E-2,7.1714044E-1,-7.5196974E-2,2.4340782E-1,-1.247158E-1,6.134029E-1,-1.0950609E-1,-2.3700828E-2,-9.390096E-3,1.0688384E-1,5.7296902E-2,-6.379573E-2],"split_indices":[1,31,40,35,42,15,33,0,0,0,40,40,15,0,0,0,31,0,33,0,26,0,0,0,0,0,0],"split_type":[0,0,0,0,0,0,0,0,0,0,0,0,0,0,0,0,0,0,0,0,0,0,0,0,0,0,0],"sum_hessian":[3.847584E1,1.3556378E1,2.4919462E1,6.7464147E0,6.8099637E0,2.090243E1,4.017033E0,5.6417694E0,1.1046453E0,1.95342E0,4.8565435E0,4.947827E0,1.5954602E1,2.284123E0,1.73291E0,1.9225073E0,2.9340363E0,1.6223855E0,3.3254414E0,4.600337E0,1.1354265E1,1.869597E0,1.0644393E0,1.1110425E0,2.2143989E0,2.4260113E0,8.928254E0],"tree_param":{"num_deleted":"0","num_feature":"59","num_nodes":"27","size_leaf_vector":"1"}},{"base_weights":[2.107555E-2,4.327298E-1,-2.1638678E-1,1.13088004E-1,6.867685E-2,6.5694225E-1,-3.4874573E-1,5.4760545E-1,-4.9021357E-1,9.40524E-2,1.7226199E-3,-5.53091E-1,3.6964774E-1,-6.3736856E-2,9.496954E-2,-8.000764E-1,4.2100664E-2,2.4748534E-1,-7.094752E-1,7.023783E-1,-4.3831956E-2,-1.10531725E-1,-5.416607E-3,6.0984142E-2,-2.9583916E-2,3.1114712E-2,-8.124397E-2,1.0421487E-1,-1.5343348E-3],"categories":[],"categories_nodes":[],"categories_segments":[],"categories_sizes":[],"default_left":[0,0,0,0,0,0,0,0,0,0,0,0,0,0,0,0,0,0,0,0,0,0,0,0,0,0,0,0,0],"id":13,"left_children":[1,3,5,-1,7,9,11,13,15,-1,-1,17,19,-1,-1,21,-1,23,25,27,-1,-1,-1,-1,-1,-1,-1,-1,-1],"loss_changes":[3.9176872E0,3.644384E0,3.1738892E0,0E0,3.1297832E0,6.5495074E-1,3.5479517E0,3.5732589E0,1.8787019E0,0E0,0E0,2.445744E0,1.8249671E0,0E0,0E0,9.464433E-1,0E0,9.097601E-1,1.8740897E0,1.084444E0,0E0,0E0,0E0,0E0,0E0,0E0,0E0,0E0,0E0],"parents":[2147483647,0,0,1,1,2,2,4,4,5,5,6,6,7,7,8,8,11,11,12,12,15,15,17,17,18,18,19,19],"right_children":[2,4,6,-1,8,10,12,14,16,-1,-1,18,20,-1,-1,22,-1,24,26,28,-1,-1,-1,-1,-1,-1,-1,-1,-1],"split_conditions":[3.737358E-1,3.406691E-1,2.9005805E-1,1.13088004E-1,6.668041E-1,3.8381776E-1,1.8052655E-1,3.5901043E-1,4.0534604E-1,9.40524E-2,1.7226199E-3,7.84747E-2,8.0705446E-1,-6.3736856E-2,9.496954E-2,2.2519624E-1,4.2100664E-2,1.0307475E-1,1.3790086E-1,6.6324884E-1,-4.3831956E-2,-1.10531725E-1,-5.416607E-3,6.0984142E-2,-2.9583916E-2,3.1114712E-2,-8.124397E-2,1.0421487E-1,-1.5343348E-3],"split_indices":[1,45,51,0,20,48,49,45,48,0,0,55,15,0,0,25,0,49,32,21,0,0,0,0,0,0,0,0,0],"split_type":[0,0,0,0,0,0,0,0,0,0,0,0,0,0,0,0,0,0,0,0,0,0,0,0,0,0,0,0,0],"sum_hessian":[3.811977E1,1.36443E1,2.4475468E1,3.954442E0,9.689858E0,2.6996086E0,2.177586E1,5.229095E0,4.4607635E0,1.5446534E0,1.1549551E0,1.7132626E1,4.643234E0,1.1765678E0,4.0525274E0,3.419818E0,1.0409456E0,2.704574E0,1.4428052E1,3.3814125E0,1.261821E0,2.0848293E0,1.3349885E0,1.54905E0,1.1555241E0,1.1368896E0,1.3291162E1,1.9881811E0,1.3932315E0],"tree_param":{"num_deleted":"0","num_feature":"59","num_nodes":"29","size_leaf_vector":"1"}},{"base_weights":[-5.5730892E-3,9.81055E-2,-8.110852E-1,4.1730425E-1,-2.321029E-1,-1.05359875E-1,1.4847233E-4,3.9175816E-2,7.863562E-1,1.9031034E-1,-7.712749E-1,8.766573E-2,-2.2701009E-1,-4.0481146E-3,9.3869585E-1,-5.267875E-1,6.471628E-1,1.336351E-2,-1.0053449E0,-6.1791744E-2,4.0011413E-2,1.1287457E-1,2.0122277E-3,-9.640979E-2,4.554402E-2,-4.5452587E-2,1.0103192E-1,-1.1452116E-1,-1.5680125E-2],"categories":[],"categories_nodes":[],"categories_segments":[],"categories_sizes":[],"default_left":[0,0,0,0,0,0,0,0,0,0,0,0,0,0,0,0,0,0,0,0,0,0,0,0,0,0,0,0,0],"id":14,"left_children":[1,3,5,7,9,-1,-1,11,13,15,17,-1,19,-1,21,23,25,-1,27,-1,-1,-1,-1,-1,-1,-1,-1,-1,-1],"loss_changes":[3.2916071E0,3.7824662E0,8.8709927E-1,2.500247E0,4.2075677E0,0E0,0E0,2.4307098E0,1.1875639E0,3.8788972E0,1.835269E0,0E0,2.3042197E0,0E0,1.3298717E0,2.4810963E0,3.2780075E0,0E0,5.915537E-1,0E0,0E0,0E0,0E0,0E0,0E0,0E0,0E0,0E0,0E0],"parents":[2147483647,0,0,1,1,2,2,3,3,4,4,7,7,8,8,9,9,10,10,12,12,14,14,15,15,16,16,18,18],"right_children":[2,4,6,8,10,-1,-1,12,14,16,18,-1,20,-1,22,24,26,-1,28,-1,-1,-1,-1,-1,-1,-1,-1,-1,-1],"split_conditions":[8.217914E-1,5.982313E-1,1.9001551E-1,1.4096294E-1,3.7338486E-1,-1.05359875E-1,1.4847233E-4,8.248308E-2,2.7868056E-1,6.0948327E-2,6.3546166E-2,8.766573E-2,3.807361E-1,-4.0481146E-3,6.3360405E-1,6.482319E-1,3.1567436E-1,1.336351E-2,2.0801203E-1,-6.1791744E-2,4.0011413E-2,1.1287457E-1,2.0122277E-3,-9.640979E-2,4.554402E-2,-4.5452587E-2,1.0103192E-1,-1.1452116E-1,-1.5680125E-2],"split_indices":[9,50,55,55,42,0,0,55,44,43,52,0,53,0,53,8,21,0,52,0,0,0,0,0,0,0,0,0,0],"split_type":[0,0,0,0,0,0,0,0,0,0,0,0,0,0,0,0,0,0,0,0,0,0,0,0,0,0,0,0,0],"sum_hessian":[3.7460873E1,3.3967125E1,3.4937484E0,1.7137375E1,1.682975E1,2.4622564E0,1.031492E0,9.010956E0,8.126419E0,9.799435E0,7.030315E0,1.6201603E0,7.3907957E0,1.3785394E0,6.7478795E0,3.7539585E0,6.045476E0,1.5329688E0,5.4973464E0,4.5618954E0,2.8289E0,5.4015203E0,1.3463593E0,2.6102657E0,1.1436926E0,1.4363868E0,4.6090894E0,4.4192886E0,1.0780579E0],"tree_param":{"num_deleted":"0","num_feature":"59","num_nodes":"29","size_leaf_vector":"1"}},{"base_weights":[-3.9099146E-2,-7.9669243E-1,7.68653E-2,2.7753234E-2,-1.14278354E-1,7.83219E-1,-2.9687783E-2,-2.4921447E-4,1.0166907E-1,4.16729E-1,-2.5002283E-1,-2.2058891E-1,7.399794E-1,1.2671438E-1,-7.591204E-1,3.8497906E-2,-6.697602E-2,1.08584225E-1,-2.3064082E-2,-2.254127E-2,8.3304524E-2,-1.08810246E-1,-3.0115587E-3],"categories":[],"categories_nodes":[],"categories_segments":[],"categories_sizes":[],"default_left":[0,0,0,0,0,0,0,0,0,0,0,0,0,0,0,0,0,0,0,0,0,0,0],"id":15,"left_children":[1,3,5,-1,-1,7,9,-1,-1,11,13,15,17,19,21,-1,-1,-1,-1,-1,-1,-1,-1],"loss_changes":[3.3574917E0,2.201606E0,2.5409138E0,0E0,0E0,8.135586E-1,3.0579646E0,0E0,0E0,2.2848911E0,4.072349E0,1.4100676E0,2.6213644E0,3.364249E0,2.1160607E0,0E0,0E0,0E0,0E0,0E0,0E0,0E0,0E0],"parents":[2147483647,0,0,1,1,2,2,5,5,6,6,9,9,10,10,11,11,12,12,13,13,14,14],"right_children":[2,4,6,-1,-1,8,10,-1,-1,12,14,16,18,20,22,-1,-1,-1,-1,-1,-1,-1,-1],"split_conditions":[4.5577228E-2,2.9392922E-1,2.9005805E-1,2.7753234E-2,-1.14278354E-1,4.289297E-1,9.537594E-2,-2.4921447E-4,1.0166907E-1,3.346719E-1,5.7491136E-1,7.8731105E-2,8.141363E-1,3.9788142E-1,8.0114794E-1,3.8497906E-2,-6.697602E-2,1.08584225E-1,-2.3064082E-2,-2.254127E-2,8.3304524E-2,-1.08810246E-1,-3.0115587E-3],"split_indices":[39,33,51,0,0,14,39,0,0,48,8,46,16,51,8,0,0,0,0,0,0,0,0],"split_type":[0,0,0,0,0,0,0,0,0,0,0,0,0,0,0,0,0,0,0,0,0,0,0],"sum_hessian":[3.6519726E1,4.06872E0,3.2451004E1,1.0397027E0,3.0290172E0,3.421166E0,2.9029839E1,1.0103441E0,2.4108217E0,9.298657E0,1.9731182E1,3.2360594E0,6.062598E0,1.1771359E1,7.9598217E0,1.4389691E0,1.7970903E0,4.382326E0,1.680272E0,8.309629E0,3.4617307E0,5.1452913E0,2.8145301E0],"tree_param":{"num_deleted":"0","num_feature":"59","num_nodes":"23","size_leaf_vector":"1"}},{"base_weights":[-1.0978454E-2,-7.1782756E-1,8.874301E-2,-9.364472E-3,-1.0144768E-1,2.0322555E-1,-5.571743E-1,3.7206796E-1,-2.3102783E-1,4.581388E-2,-9.41698E-2,8.8665617E-1,9.490266E-2,-9.871999E-2,2.1010567E-1,-2.717176E-3,1.0492927E-1,-6.887744E-2,4.042801E-2,5.659507E-2,-5.608041E-2],"categories":[],"categories_nodes":[],"categories_segments":[],"categories_sizes":[],"default_left":[0,0,0,0,0,0,0,0,0,0,0,0,0,0,0,0,0,0,0,0,0],"id":16,"left_children":[1,3,5,-1,-1,7,9,11,13,-1,-1,15,17,-1,19,-1,-1,-1,-1,-1,-1],"loss_changes":[2.5501637E0,7.3291874E-1,2.4649935E0,0E0,0E0,2.120465E0,2.4051497E0,2.8201299E0,3.0045233E0,0E0,0E0,1.0701227E0,3.7587125E0,0E0,1.9963481E0,0E0,0E0,0E0,0E0,0E0,0E0],"parents":[2147483647,0,0,1,1,2,2,5,5,6,6,7,7,8,8,11,11,12,12,14,14],"right_children":[2,4,6,-1,-1,8,10,12,14,-1,-1,16,18,-1,20,-1,-1,-1,-1,-1,-1],"split_conditions":[4.387386E-2,6.2704134E-1,4.4831187E-1,-9.364472E-3,-1.0144768E-1,6.024463E-1,3.196868E-1,4.145553E-1,4.186129E-1,4.581388E-2,-9.41698E-2,2.5E-1,6.0253334E-1,-9.871999E-2,2.1902844E-1,-2.717176E-3,1.0492927E-1,-6.887744E-2,4.042801E-2,5.659507E-2,-5.608041E-2],"split_indices":[39,2,45,0,0,40,51,44,21,0,0,56,41,0,46,0,0,0,0,0,0],"split_type":[0,0,0,0,0,0,0,0,0,0,0,0,0,0,0,0,0,0,0,0,0],"sum_hessian":[3.427495E1,3.471292E0,3.0803658E1,1.5421376E0,1.9291543E0,2.6748175E1,4.055484E0,1.9362877E1,7.385296E0,1.0614198E0,2.9940639E0,6.00847E0,1.3354407E1,2.2649481E0,5.120348E0,1.0336262E0,4.974844E0,3.4327247E0,9.921682E0,3.685172E0,1.4351759E0],"tree_param":{"num_deleted":"0","num_feature":"59","num_nodes":"21","size_leaf_vector":"1"}},{"base_weights":[-3.6846396E-2,-1.8463887E-1,5.216856E-1,3.680599E-1,-3.323478E-1,-1.0373651E-1,1.06343046E-1,9.3848996E-2,-1.6123359E-1,-5.115772E-1,1.7750373E-1,-6.438683E-1,7.3763125E-2,-6.677367E-2,5.707554E-2,7.358412E-3,-8.5745853E-1,-4.8828134E-1,6.016316E-1,-1.8264636E-3,-9.642578E-2,7.039592E-2,-4.659576E-2,4.012702E-3,-1.0757182E-1,7.8397365E-3,-7.826376E-2,-4.9911615E-2,1.052104E-1],"categories":[],"categories_nodes":[],"categories_segments":[],"categories_sizes":[],"default_left":[0,0,0,0,0,0,0,0,0,0,0,0,0,0,0,0,0,0,0,0,0,0,0,0,0,0,0,0,0],"id":17,"left_children":[1,3,5,7,9,11,-1,-1,13,15,17,19,-1,-1,-1,21,23,25,27,-1,-1,-1,-1,-1,-1,-1,-1,-1,-1],"loss_changes":[3.0837584E0,2.5189679E0,2.7646363E0,2.1638122E0,2.2557187E0,2.5414615E0,0E0,0E0,1.9793746E0,3.198854E0,2.2434354E0,6.4450395E-1,0E0,0E0,0E0,3.0004165E0,2.1357398E0,6.016058E-1,2.838624E0,0E0,0E0,0E0,0E0,0E0,0E0,0E0,0E0,0E0,0E0],"parents":[2147483647,0,0,1,1,2,2,3,3,4,4,5,5,8,8,9,9,10,10,11,11,15,15,16,16,17,17,18,18],"right_children":[2,4,6,8,10,12,-1,-1,14,16,18,20,-1,-1,-1,22,24,26,28,-1,-1,-1,-1,-1,-1,-1,-1,-1,-1],"split_conditions":[1E0,3.5779166E-1,1.272334E-1,5.018356E-1,3.7376067E-1,5.305819E-1,1.06343046E-1,9.3848996E-2,2.989962E-1,5E-1,3.406691E-1,4.9601984E-1,7.3763125E-2,-6.677367E-2,5.707554E-2,1.1229256E-1,1.5178686E-1,3.4567022E-1,3.5278E-1,-1.8264636E-3,-9.642578E-2,7.039592E-2,-4.659576E-2,4.012702E-3,-1.0757182E-1,7.8397365E-3,-7.826376E-2,-4.9911615E-2,1.052104E-1],"split_indices":[56,44,55,14,54,10,0,0,44,56,48,14,0,0,0,36,35,2,45,0,0,0,0,0,0,0,0,0,0],"split_type":[0,0,0,0,0,0,0,0,0,0,0,0,0,0,0,0,0,0,0,0,0,0,0,0,0,0,0,0,0],"sum_hessian":[3.5190792E1,2.8356762E1,6.834028E0,5.665552E0,2.269121E1,3.5473142E0,3.2867136E0,2.3547223E0,3.31083E0,1.6786741E1,5.904469E0,2.303363E0,1.2439511E0,2.0086875E0,1.3021425E0,7.105253E0,9.681488E0,2.238799E0,3.6656697E0,1.1380922E0,1.1652709E0,2.6774442E0,4.4278092E0,2.0533404E0,7.6281476E0,1.0161765E0,1.2226228E0,1.0331476E0,2.632522E0],"tree_param":{"num_deleted":"0","num_feature":"59","num_nodes":"29","size_leaf_vector":"1"}},{"base_weights":[3.587933E-2,-1.2819916E-1,7.401613E-1,2.8989518E-1,-4.2989263E-1,-2.8789932E-2,9.625907E-1,-6.47861E-2,4.9618062E-1,4.9015056E-2,-5.7259274E-1,1.0608881E-1,2.7109737E-2,9.498362E-1,-1.443855E-1,5.7637926E-2,-7.293379E-1,1.1500645E-1,3.1089203E-3,-7.5362E-2,2.957583E-2,-9.5350824E-2,-2.181135E-3],"categories":[],"categories_nodes":[],"categories_segments":[],"categories_sizes":[],"default_left":[0,0,0,0,0,0,0,0,0,0,0,0,0,0,0,0,0,0,0,0,0,0,0],"id":18,"left_children":[1,3,5,7,9,-1,11,-1,13,-1,15,-1,-1,17,19,-1,21,-1,-1,-1,-1,-1,-1],"loss_changes":[4.265045E0,3.923962E0,1.8701417E0,2.8792276E0,2.6305819E0,0E0,1.1733866E-1,0E0,3.4512048E0,0E0,3.294085E0,0E0,0E0,1.2166667E0,1.7235143E0,0E0,2.2762175E0,0E0,0E0,0E0,0E0,0E0,0E0],"parents":[2147483647,0,0,1,1,2,2,3,3,4,4,6,6,8,8,10,10,13,13,14,14,16,16],"right_children":[2,4,6,8,10,-1,12,-1,14,-1,16,-1,-1,18,20,-1,22,-1,-1,-1,-1,-1,-1],"split_conditions":[1E0,5.729811E-1,1.1003423E-1,8.76199E-2,2.326344E-2,-2.8789932E-2,4.0664777E-1,-6.47861E-2,6.6804326E-1,4.9015056E-2,6.3052475E-2,1.0608881E-1,2.7109737E-2,1.809172E-1,3.667407E-1,5.7637926E-2,4.0534604E-1,1.1500645E-1,3.1089203E-3,-7.5362E-2,2.957583E-2,-9.5350824E-2,-2.181135E-3],"split_indices":[56,24,25,52,36,0,51,0,20,0,55,0,0,46,48,0,48,0,0,0,0,0,0],"split_type":[0,0,0,0,0,0,0,0,0,0,0,0,0,0,0,0,0,0,0,0,0,0,0],"sum_hessian":[3.5087288E1,2.9120888E1,5.9664006E0,1.2222185E1,1.6898703E1,1.0089109E0,4.95749E0,1.8178389E0,1.0404346E1,1.9421397E0,1.4956563E1,3.8727682E0,1.0847217E0,5.8081484E0,4.596198E0,1.4740822E0,1.348248E1,4.562122E0,1.2460265E0,1.6290712E0,2.9671268E0,9.974522E0,3.507959E0],"tree_param":{"num_deleted":"0","num_feature":"59","num_nodes":"23","size_leaf_vector":"1"}},{"base_weights":[-4.167924E-2,-2.8343862E-1,2.834057E-1,8.698096E-2,-4.3889767E-1,5.331506E-1,-3.6212194E-1,-5.7081574E-1,2.5983173E-1,-2.4291536E-2,6.622875E-1,2.5873337E-2,-7.9072736E-2,-7.2581506E-1,2.0249004E-2,6.474748E-2,-2.9019622E-2,9.744585E-1,6.5604836E-2,2.0288298E-2,-8.40473E-2,8.266794E-2,-5.025513E-2,9.352315E-3,1.13381445E-1,-7.519579E-2,5.6775983E-2],"categories":[],"categories_nodes":[],"categories_segments":[],"categories_sizes":[],"default_left":[0,0,0,0,0,0,0,0,0,0,0,0,0,0,0,0,0,0,0,0,0,0,0,0,0,0,0],"id":19,"left_children":[1,3,5,-1,7,9,11,13,15,-1,17,-1,-1,19,21,-1,-1,23,25,-1,-1,-1,-1,-1,-1,-1,-1],"loss_changes":[2.8804452E0,4.134655E0,2.7234595E0,0E0,1.9098628E0,1.3356042E0,1.5281633E0,1.5161352E0,9.81535E-1,0E0,1.8579278E0,0E0,0E0,1.5559554E0,2.2610939E0,0E0,0E0,8.3475494E-1,2.3220408E0,0E0,0E0,0E0,0E0,0E0,0E0,0E0,0E0],"parents":[2147483647,0,0,1,1,2,2,4,4,5,5,6,6,7,7,8,8,10,10,13,13,14,14,17,17,18,18],"right_children":[2,4,6,-1,8,10,12,14,16,-1,18,-1,-1,20,22,-1,-1,24,26,-1,-1,-1,-1,-1,-1,-1,-1],"split_conditions":[1.445599E-1,6.3052475E-2,8.1846523E-1,8.698096E-2,1.7897704E-1,4.302989E-2,1.3420397E-1,2.2088347E-1,4.9701688E-1,-2.4291536E-2,3.8424337E-1,2.5873337E-2,-7.9072736E-2,8.909941E-2,7.5E-1,6.474748E-2,-2.9019622E-2,3.9462143E-1,3.9259818E-1,2.0288298E-2,-8.40473E-2,8.266794E-2,-5.025513E-2,9.352315E-3,1.13381445E-1,-7.519579E-2,5.6775983E-2],"split_indices":[55,55,15,0,43,39,52,52,11,0,42,0,0,24,56,0,0,8,42,0,0,0,0,0,0,0,0],"split_type":[0,0,0,0,0,0,0,0,0,0,0,0,0,0,0,0,0,0,0,0,0,0,0,0,0,0,0],"sum_hessian":[3.462838E1,1.9932829E1,1.4695551E1,1.8219416E0,1.8110888E1,1.0721607E1,3.9739435E0,1.5388625E1,2.7222617E0,1.4038578E0,9.31775E0,1.7848457E0,2.1890976E0,1.2010931E1,3.3776946E0,1.4929256E0,1.229336E0,5.7016478E0,3.6161017E0,1.2353629E0,1.0775568E1,1.0998698E0,2.2778246E0,1.1164856E0,4.585162E0,1.1866481E0,2.4294534E0],"tree_param":{"num_deleted":"0","num_feature":"59","num_nodes":"27","size_leaf_vector":"1"}},{"base_weights":[7.386345E-2,-5.3606015E-2,8.683686E-1,7.296341E-2,-1.420659E-1,1.5041254E-2,1.02999225E-1,-7.0929986E-1,-4.1570656E-2,1.17460955E-2,-1.0151013E-1,2.4725232E-1,-3.116836E-1,6.938451E-2,-8.529868E-3,-7.69745E-2,8.092693E-4],"categories":[],"categories_nodes":[],"categories_segments":[],"categories_sizes":[],"default_left":[0,0,0,0,0,0,0,0,0,0,0,0,0,0,0,0,0],"id":20,"left_children":[1,3,5,-1,7,-1,-1,9,11,-1,-1,13,15,-1,-1,-1,-1],"loss_changes":[3.681848E0,2.3120809E0,4.2769647E-1,0E0,1.6508174E0,0E0,0E0,1.2251117E0,2.1134613E0,0E0,0E0,2.0154362E0,2.0467432E0,0E0,0E0,0E0,0E0],"parents":[2147483647,0,0,1,1,2,2,4,4,7,7,8,8,11,11,12,12],"right_children":[2,4,6,-1,8,-1,-1,10,12,-1,-1,14,16,-1,-1,-1,-1],"split_conditions":[2.4091358E-1,6.3052475E-2,3.9364862E-1,7.296341E-2,8.562294E-2,1.5041254E-2,1.02999225E-1,3.4271818E-1,3.2601297E-1,1.17460955E-2,-1.0151013E-1,3.3838606E-1,3.5736063E-1,6.938451E-2,-8.529868E-3,-7.69745E-2,8.092693E-4],"split_indices":[55,55,32,0,25,0,0,26,54,0,0,45,54,0,0,0,0],"split_type":[0,0,0,0,0,0,0,0,0,0,0,0,0,0,0,0,0],"sum_hessian":[3.4895267E1,3.0874352E1,4.020915E0,2.397576E0,2.8476776E1,1.093603E0,2.927312E0,3.374086E0,2.510269E1,1.0773278E0,2.296758E0,1.2172096E1,1.29305935E1,4.731539E0,7.440558E0,4.7374E0,8.193193E0],"tree_param":{"num_deleted":"0","num_feature":"59","num_nodes":"17","size_leaf_vector":"1"}},{"base_weights":[-5.7269104E-2,-2.0079938E-1,4.7834888E-1,5.0317854E-2,-5.7331645E-1,7.2756165E-1,-4.2650606E-2,5.4016596E-1,-1.4819472E-1,5.522098E-2,-8.3389926E-1,-3.7248945E-4,9.378874E-2,-5.0605524E-2,9.30625E-2,-3.4556678E-1,7.058375E-2,-1.0788063E0,-8.6275056E-2,2.6539823E-2,-5.190816E-2,-3.0828143E-2,-1.16907075E-1,-4.6401445E-2,3.347895E-2],"categories":[],"categories_nodes":[],"categories_segments":[],"categories_sizes":[],"default_left":[0,0,0,0,0,0,0,0,0,0,0,0,0,0,0,0,0,0,0,0,0,0,0,0,0],"id":21,"left_children":[1,3,5,7,9,11,-1,13,15,-1,17,-1,-1,-1,-1,19,-1,21,23,-1,-1,-1,-1,-1,-1],"loss_changes":[2.6405752E0,2.5365973E0,1.9543606E0,1.7265824E0,3.6501386E0,9.395485E-1,0E0,2.5536587E0,2.407263E0,0E0,1.596776E0,0E0,0E0,0E0,0E0,1.3140891E0,0E0,1.1706257E-1,6.904363E-1,0E0,0E0,0E0,0E0,0E0,0E0],"parents":[2147483647,0,0,1,1,2,2,3,3,4,4,5,5,7,7,8,8,10,10,15,15,17,17,18,18],"right_children":[2,4,6,8,10,12,-1,14,16,-1,18,-1,-1,-1,-1,20,-1,22,24,-1,-1,-1,-1,-1,-1],"split_conditions":[1E0,3.912998E-1,4.2831737E-1,3.319667E-1,3.8087976E-1,1.1003423E-1,-4.2650606E-2,3.869925E-1,4.9376082E-1,5.522098E-2,2.5162584E-1,-3.7248945E-4,9.378874E-2,-5.0605524E-2,9.30625E-2,3.882649E-1,7.058375E-2,3.0724192E-1,3.565629E-1,2.6539823E-2,-5.190816E-2,-3.0828143E-2,-1.16907075E-1,-4.6401445E-2,3.347895E-2],"split_indices":[56,0,48,51,17,25,0,14,51,0,39,0,0,0,0,41,0,53,54,0,0,0,0,0,0],"split_type":[0,0,0,0,0,0,0,0,0,0,0,0,0,0,0,0,0,0,0,0,0,0,0,0,0],"sum_hessian":[3.2098454E1,2.5807808E1,6.290646E0,1.5932492E1,9.875316E0,5.08585E0,1.2047961E0,4.0983553E0,1.1834137E1,1.6461263E0,8.22919E0,1.3554262E0,3.7304237E0,1.0333849E0,3.0649705E0,1.0096211E1,1.7379259E0,5.8649635E0,2.364226E0,2.1159992E0,7.980212E0,1.0780152E0,4.7869487E0,1.1924603E0,1.1717659E0],"tree_param":{"num_deleted":"0","num_feature":"59","num_nodes":"25","size_leaf_vector":"1"}},{"base_weights":[2.4218341E-2,-3.8160868E-2,8.521056E-2,5.67176E-2,-7.410981E-1,2.6009107E-1,-3.6206537E-1,-1.0008516E-1,-3.5360556E-3,6.125306E-1,-1.1557796E-1,-6.155752E-1,1.5730208E-1,7.908959E-2,-5.1270124E-2,4.7857866E-2,-4.0964916E-2,9.741646E-3,-7.600864E-2,5.269261E-2,-4.4385448E-2],"categories":[],"categories_nodes":[],"categories_segments":[],"categories_sizes":[],"default_left":[0,0,0,0,0,0,0,0,0,0,0,0,0,0,0,0,0,0,0,0,0],"id":22,"left_children":[1,3,-1,5,7,9,11,-1,-1,13,15,17,19,-1,-1,-1,-1,-1,-1,-1,-1],"loss_changes":[1.841973E0,2.278931E0,0E0,2.6901453E0,7.0883465E-1,2.864264E0,1.4637154E0,0E0,0E0,2.6221719E0,2.127453E0,8.1382275E-1,1.1675047E0,0E0,0E0,0E0,0E0,0E0,0E0,0E0,0E0],"parents":[2147483647,0,0,1,1,3,3,4,4,5,5,6,6,9,9,10,10,11,11,12,12],"right_children":[2,4,-1,6,8,10,12,-1,-1,14,16,18,20,-1,-1,-1,-1,-1,-1,-1,-1],"split_conditions":[5.298737E-1,4.340356E-1,8.521056E-2,6.160346E-1,5.939065E-1,7.425194E-1,7.6080465E-1,-1.0008516E-1,-3.5360556E-3,4.0865237E-1,7.490163E-2,2.4881837E-1,8.508081E-1,7.908959E-2,-5.1270124E-2,4.7857866E-2,-4.0964916E-2,9.741646E-3,-7.600864E-2,5.269261E-2,-4.4385448E-2],"split_indices":[48,48,0,32,19,3,32,0,0,48,49,54,32,0,0,0,0,0,0,0,0],"split_type":[0,0,0,0,0,0,0,0,0,0,0,0,0,0,0,0,0,0,0,0,0],"sum_hessian":[3.4037807E1,3.2539913E1,1.4978942E0,2.9480162E1,3.0597508E0,2.0098614E1,9.381549E0,1.9309002E0,1.1288507E0,1.0044608E1,1.0054005E1,6.179847E0,3.2017019E0,8.926722E0,1.1178865E0,3.1209178E0,6.933087E0,1.0963832E0,5.083463E0,2.059121E0,1.1425811E0],"tree_param":{"num_deleted":"0","num_feature":"59","num_nodes":"21","size_leaf_vector":"1"}},{"base_weights":[2.4305318E-2,-4.1653026E-2,8.418182E-2,3.9078557E-1,-1.7284286E-1,-2.8295025E-1,8.58637E-1,-6.4130914E-1,5.997445E-2,5.105983E-2,-7.4604146E-2,9.964847E-2,1.6800845E-2,1.10456385E-1,-9.1073483E-1,2.3029533E-1,-7.3631525E-2,6.382119E-2,-4.466307E-2,-1.1069355E-2,-1.04548536E-1,4.9572244E-2,-2.472405E-2],"categories":[],"categories_nodes":[],"categories_segments":[],"categories_sizes":[],"default_left":[0,0,0,0,0,0,0,0,0,0,0,0,0,0,0,0,0,0,0,0,0,0,0],"id":23,"left_children":[1,3,-1,5,7,9,11,13,15,-1,-1,-1,-1,17,19,21,-1,-1,-1,-1,-1,-1,-1],"loss_changes":[1.8662199E0,1.9043401E0,0E0,2.7150373E0,2.823409E0,1.8384781E0,2.9682517E-1,1.8349025E0,2.606976E0,0E0,0E0,0E0,0E0,1.2114396E0,5.754843E-1,2.095663E0,0E0,0E0,0E0,0E0,0E0,0E0,0E0],"parents":[2147483647,0,0,1,1,3,3,4,4,5,5,6,6,7,7,8,8,13,13,14,14,15,15],"right_children":[2,4,-1,6,8,10,12,14,16,-1,-1,-1,-1,18,20,22,-1,-1,-1,-1,-1,-1,-1],"split_conditions":[4.963283E-1,3.061518E-1,8.418182E-2,2.511963E-1,4.8139566E-1,7.4310446E-1,3.587164E-1,4.7143507E-1,4.4044635E-1,5.105983E-2,-7.4604146E-2,9.964847E-2,1.6800845E-2,3.7873238E-1,7.6201E-2,8.310129E-1,-7.3631525E-2,6.382119E-2,-4.466307E-2,-1.1069355E-2,-1.04548536E-1,4.9572244E-2,-2.472405E-2],"split_indices":[48,33,0,9,16,3,42,31,51,0,0,0,0,16,49,16,0,0,0,0,0,0,0],"split_type":[0,0,0,0,0,0,0,0,0,0,0,0,0,0,0,0,0,0,0,0,0,0,0],"sum_hessian":[3.2959465E1,3.1376968E1,1.5824984E0,6.842706E0,2.4534262E1,2.966283E0,3.876423E0,7.5625744E0,1.6971687E1,1.0553163E0,1.9109668E0,2.8622572E0,1.0141656E0,2.15094E0,5.4116344E0,1.456675E1,2.4049377E0,1.0297681E0,1.121172E0,1.0426543E0,4.36898E0,9.338229E0,5.228521E0],"tree_param":{"num_deleted":"0","num_feature":"59","num_nodes":"23","size_leaf_vector":"1"}},{"base_weights":[-1.3003669E-2,3.47654E-1,-1.9502626E-1,-1.8192232E-1,8.158131E-1,1.9610533E-1,-3.8859767E-1,4.8064595E-1,-6.609916E-1,9.86745E-2,6.804965E-3,8.055836E-2,-1.6922016E-1,-6.473334E-1,1.907495E-1,7.44765E-2,-4.915915E-3,-1.3698238E-2,-8.953201E-2,-5.261884E-1,3.802036E-2,-8.811364E-1,-1.8265E-1,-6.807087E-2,5.6021184E-1,-7.930547E-2,5.5873705E-5,-1.0759256E-1,-2.4919117E-2,4.6175294E-2,-5.8903005E-2,7.6013446E-2,-7.55074E-5],"categories":[],"categories_nodes":[],"categories_segments":[],"categories_sizes":[],"default_left":[0,0,0,0,0,0,0,0,0,0,0,0,0,0,0,0,0,0,0,0,0,0,0,0,0,0,0,0,0,0,0,0,0],"id":24,"left_children":[1,3,5,7,9,11,13,15,17,-1,-1,-1,19,21,23,-1,-1,-1,-1,25,-1,27,29,-1,31,-1,-1,-1,-1,-1,-1,-1,-1],"loss_changes":[2.2833152E0,3.0439627E0,1.8228321E0,2.3167083E0,7.484932E-1,1.9848137E0,2.4869826E0,4.8743367E-1,3.7785208E-1,0E0,0E0,0E0,1.3801622E0,1.0479746E0,2.1973133E0,0E0,0E0,0E0,0E0,5.721166E-1,0E0,6.1093855E-1,1.5777092E0,0E0,5.0630975E-1,0E0,0E0,0E0,0E0,0E0,0E0,0E0,0E0],"parents":[2147483647,0,0,1,1,2,2,3,3,4,4,5,5,6,6,7,7,8,8,12,12,13,13,14,14,19,19,21,21,22,22,24,24],"right_children":[2,4,6,8,10,12,14,16,18,-1,-1,-1,20,22,24,-1,-1,-1,-1,26,-1,28,30,-1,32,-1,-1,-1,-1,-1,-1,-1,-1],"split_conditions":[4.1666353E-1,3.3559614E-1,5.174998E-1,7.4416757E-1,9.65467E-1,6.2455982E-2,4.0133375E-1,3.0210954E-1,7.1761355E-2,9.86745E-2,6.804965E-3,8.055836E-2,6.117425E-1,4.7597796E-1,8.555107E-2,7.44765E-2,-4.915915E-3,-1.3698238E-2,-8.953201E-2,1.089087E-1,3.802036E-2,7.6386213E-1,5.7340103E-1,-6.807087E-2,6.2643385E-1,-7.930547E-2,5.5873705E-5,-1.0759256E-1,-2.4919117E-2,4.6175294E-2,-5.8903005E-2,7.6013446E-2,-7.55074E-5],"split_indices":[19,21,40,3,7,46,45,18,46,0,0,0,33,21,52,0,0,0,0,43,0,47,21,0,41,0,0,0,0,0,0,0,0],"split_type":[0,0,0,0,0,0,0,0,0,0,0,0,0,0,0,0,0,0,0,0,0,0,0,0,0,0,0,0,0,0,0,0,0],"sum_hessian":[3.274846E1,1.0679083E1,2.2069374E1,5.297744E0,5.381339E0,7.3019395E0,1.4767435E1,2.2217293E0,3.0760145E0,4.1199594E0,1.2613798E0,2.2848973E0,5.017042E0,1.0127262E1,4.640173E0,1.2118585E0,1.0098709E0,1.4401351E0,1.6358793E0,3.066794E0,1.950248E0,6.141161E0,3.9861012E0,1.1307112E0,3.5094616E0,1.699968E0,1.366826E0,4.157196E0,1.9839647E0,1.4888889E0,2.4972122E0,2.3255997E0,1.183862E0],"tree_param":{"num_deleted":"0","num_feature":"59","num_nodes":"33","size_leaf_vector":"1"}},{"base_weights":[1.889973E-4,-3.4579533E-1,2.2909214E-1,7.3321834E-2,-6.975013E-1,-7.9649456E-2,3.9437672E-1,5.525205E-1,-3.5010633E-1,8.904678E-3,-8.688806E-1,4.8954964E-1,-3.1715292E-2,8.113419E-2,-7.1253753E-3,3.854928E-2,-8.887807E-2,-9.776425E-1,-2.4721283E-2,5.844438E-1,-3.2117877E-2,-2.8218865E-2,-1.0894891E-1,2.470058E-2,9.551995E-2],"categories":[],"categories_nodes":[],"categories_segments":[],"categories_sizes":[],"default_left":[0,0,0,0,0,0,0,0,0,0,0,0,0,0,0,0,0,0,0,0,0,0,0,0,0],"id":25,"left_children":[1,3,5,7,9,-1,11,13,15,-1,17,19,-1,-1,-1,-1,-1,21,-1,23,-1,-1,-1,-1,-1],"loss_changes":[2.6809928E0,2.038054E0,3.7675855E0,1.624958E0,1.0781264E0,0E0,1.388686E0,6.547507E-1,2.0693164E0,0E0,1.7676544E-1,1.4539051E0,0E0,0E0,0E0,0E0,0E0,7.594681E-2,0E0,1.6517277E0,0E0,0E0,0E0,0E0,0E0],"parents":[2147483647,0,0,1,1,2,2,3,3,4,4,6,6,7,7,8,8,10,10,11,11,17,17,19,19],"right_children":[2,4,6,8,10,-1,12,14,16,-1,18,20,-1,-1,-1,-1,-1,22,-1,24,-1,-1,-1,-1,-1],"split_conditions":[7.160069E-2,3.5041377E-1,2.9805094E-1,3.709896E-1,2.5592864E-2,-7.9649456E-2,8.649286E-1,7.213044E-1,2.999537E-1,8.904678E-3,1.97374E-1,3.1787795E-1,-3.1715292E-2,8.113419E-2,-7.1253753E-3,3.854928E-2,-8.887807E-2,4.002169E-1,-2.4721283E-2,3.8851413E-1,-3.2117877E-2,-2.8218865E-2,-1.0894891E-1,2.470058E-2,9.551995E-2],"split_indices":[43,48,48,37,43,0,14,2,54,0,55,46,0,0,0,0,0,11,0,18,0,0,0,0,0],"split_type":[0,0,0,0,0,0,0,0,0,0,0,0,0,0,0,0,0,0,0,0,0,0,0,0,0],"sum_hessian":[3.185197E1,1.2479179E1,1.9372791E1,6.0550675E0,6.424112E0,2.1587672E0,1.7214024E1,2.6974533E0,3.3576143E0,1.235263E0,5.188849E0,1.5458323E1,1.7557018E0,1.6939062E0,1.003547E0,1.5395772E0,1.8180372E0,3.928873E0,1.2599758E0,1.4088414E1,1.3699079E0,1.0324115E0,2.8964615E0,8.247916E0,5.8404984E0],"tree_param":{"num_deleted":"0","num_feature":"59","num_nodes":"25","size_leaf_vector":"1"}},{"base_weights":[2.8786609E-2,-6.797371E-1,1.2190655E-1,-1.6531384E-2,-8.98586E-2,2.6858783E-1,-3.116016E-1,4.3079907E-1,-3.666902E-1,-5.915074E-1,6.1688866E-2,5.284865E-1,-5.417139E-2,-9.396868E-2,4.0929493E-2,3.710369E-2,-9.023959E-1,-2.5110925E-2,6.606284E-2,-1.8788647E-2,-1.0333401E-1],"categories":[],"categories_nodes":[],"categories_segments":[],"categories_sizes":[],"default_left":[0,0,0,0,0,0,0,0,0,0,0,0,0,0,0,0,0,0,0,0,0],"id":26,"left_children":[1,3,5,-1,-1,7,9,11,13,15,-1,17,-1,-1,-1,-1,19,-1,-1,-1,-1],"loss_changes":[2.1343894E0,2.7520812E-1,1.8851408E0,0E0,0E0,2.3946476E0,2.3466232E0,1.97257E0,2.5877984E0,2.240856E0,0E0,1.879674E0,0E0,0E0,0E0,0E0,2.8355694E-1,0E0,0E0,0E0,0E0],"parents":[2147483647,0,0,1,1,2,2,5,5,6,6,7,7,8,8,9,9,11,11,16,16],"right_children":[2,4,6,-1,-1,8,10,12,14,16,-1,18,-1,-1,-1,-1,20,-1,-1,-1,-1],"split_conditions":[2.219611E-1,3.232983E-1,7.06228E-1,-1.6531384E-2,-8.98586E-2,4.340356E-1,4.0245998E-1,9.885247E-1,7.2834194E-1,6.4756095E-1,6.1688866E-2,4.5577228E-2,-5.417139E-2,-9.396868E-2,4.0929493E-2,3.710369E-2,3.34373E-1,-2.5110925E-2,6.606284E-2,-1.8788647E-2,-1.0333401E-1],"split_indices":[18,48,19,0,0,48,48,12,16,16,0,39,0,0,0,0,5,0,0,0,0],"split_type":[0,0,0,0,0,0,0,0,0,0,0,0,0,0,0,0,0,0,0,0,0],"sum_hessian":[3.0094229E1,2.7640157E0,2.7330212E1,1.3488368E0,1.4151789E0,2.0704945E1,6.625268E0,1.6749912E1,3.9550319E0,5.369498E0,1.2557702E0,1.5635889E1,1.1140242E0,2.1537313E0,1.8013005E0,1.2636449E0,4.1058526E0,2.1356902E0,1.3500198E1,1.0130279E0,3.0928247E0],"tree_param":{"num_deleted":"0","num_feature":"59","num_nodes":"21","size_leaf_vector":"1"}},{"base_weights":[-5.924629E-3,6.543768E-1,-1.1172851E-1,8.9052856E-2,6.167051E-4,-4.4691938E-1,2.1504273E-1,5.4104455E-2,-6.0833937E-1,5.7375187E-1,-7.085049E-2,-7.648635E-1,1.6531935E-2,-2.8383149E-2,7.7524185E-1,-4.700735E-1,3.189478E-1,-1.6868915E-3,-8.618353E-2,7.908692E-3,9.281096E-2,2.2723414E-2,-7.596648E-2,5.7917845E-2,-3.0353684E-2],"categories":[],"categories_nodes":[],"categories_segments":[],"categories_sizes":[],"default_left":[0,0,0,0,0,0,0,0,0,0,0,0,0,0,0,0,0,0,0,0,0,0,0,0,0],"id":27,"left_children":[1,3,5,-1,-1,7,9,-1,11,13,15,17,-1,-1,19,21,23,-1,-1,-1,-1,-1,-1,-1,-1],"loss_changes":[2.3547122E0,7.0725584E-1,3.272748E0,0E0,0E0,2.6641316E0,1.6159316E0,0E0,1.7074809E0,1.4162395E0,1.6186436E0,7.860074E-1,0E0,0E0,5.516689E-1,1.1957995E0,1.0458734E0,0E0,0E0,0E0,0E0,0E0,0E0,0E0,0E0],"parents":[2147483647,0,0,1,1,2,2,5,5,6,6,8,8,9,9,10,10,11,11,14,14,15,15,16,16],"right_children":[2,4,6,-1,-1,8,10,-1,12,14,16,18,-1,-1,20,22,24,-1,-1,-1,-1,-1,-1,-1,-1],"split_conditions":[8.543351E-2,8.480387E-1,1.4106874E-1,8.9052856E-2,6.167051E-4,1.12976044E-1,1.273392E-1,5.4104455E-2,7.434904E-1,2.5E-1,1.06919095E-1,8.914924E-2,1.6531935E-2,-2.8383149E-2,1.6413157E-1,5.300205E-1,2.403208E-1,-1.6868915E-3,-8.618353E-2,7.908692E-3,9.281096E-2,2.2723414E-2,-7.596648E-2,5.7917845E-2,-3.0353684E-2],"split_indices":[55,22,55,0,0,32,52,0,21,56,43,44,0,0,55,14,46,0,0,0,0,0,0,0,0],"split_type":[0,0,0,0,0,0,0,0,0,0,0,0,0,0,0,0,0,0,0,0,0,0,0,0,0],"sum_hessian":[3.1658455E1,3.6561742E0,2.8002281E1,2.4058588E0,1.2503153E0,1.3641554E1,1.4360727E1,1.5855409E0,1.2056012E1,5.9226837E0,8.438044E0,1.0036774E1,2.019239E0,1.0490494E0,4.8736343E0,4.066886E0,4.371157E0,1.2865894E0,8.750184E0,1.1507065E0,3.7229276E0,1.2565541E0,2.810332E0,3.1315696E0,1.2395875E0],"tree_param":{"num_deleted":"0","num_feature":"59","num_nodes":"25","size_leaf_vector":"1"}},{"base_weights":[5.756602E-2,3.0580884E-1,-1.614639E-1,5.9213203E-1,-1.7104013E-1,2.200456E-1,-5.028329E-1,9.293679E-1,1.880685E-2,-4.595498E-1,5.0680704E-2,6.565692E-1,-3.0172148E-1,-8.75527E-1,2.6957017E-1,1.6609557E-2,1.063168E-1,4.79521E-2,-4.1281037E-2,2.1667428E-2,-8.268195E-2,8.532385E-2,-1.5789851E-3,-5.797814E-1,2.288231E-2,-7.553099E-3,-1.0302013E-1,-3.2800805E-2,8.035244E-2,-7.483193E-2,-1.3278193E-2],"categories":[],"categories_nodes":[],"categories_segments":[],"categories_sizes":[],"default_left":[0,0,0,0,0,0,0,0,0,0,0,0,0,0,0,0,0,0,0,0,0,0,0,0,0,0,0,0,0,0,0],"id":28,"left_children":[1,3,5,7,9,11,13,15,17,19,-1,21,23,25,27,-1,-1,-1,-1,-1,-1,-1,-1,29,-1,-1,-1,-1,-1,-1,-1],"loss_changes":[1.7693745E0,2.1729577E0,2.3845649E0,1.8589208E0,1.4979368E0,2.234503E0,2.976307E0,4.4535112E-1,1.1156461E0,1.4362867E0,0E0,6.988251E-1,8.3457005E-1,7.45842E-1,1.4961004E0,0E0,0E0,0E0,0E0,0E0,0E0,0E0,0E0,1.571393E-1,0E0,0E0,0E0,0E0,0E0,0E0,0E0],"parents":[2147483647,0,0,1,1,2,2,3,3,4,4,5,5,6,6,7,7,8,8,9,9,11,11,12,12,13,13,14,14,23,23],"right_children":[2,4,6,8,10,12,14,16,18,20,-1,22,24,26,28,-1,-1,-1,-1,-1,-1,-1,-1,30,-1,-1,-1,-1,-1,-1,-1],"split_conditions":[3.2601297E-1,1.62314E-1,3.9656952E-1,7.3596334E-1,2.842977E-1,1.880613E-1,3.8413677E-1,4.302989E-2,3.406691E-1,3.7972027E-1,5.0680704E-2,3.94158E-1,3.8780192E-1,2.840053E-1,1.0040657E-1,1.6609557E-2,1.063168E-1,4.79521E-2,-4.1281037E-2,2.1667428E-2,-8.268195E-2,8.532385E-2,-1.5789851E-3,3.1288347E-1,2.288231E-2,-7.553099E-3,-1.0302013E-1,-3.2800805E-2,8.035244E-2,-7.483193E-2,-1.3278193E-2],"split_indices":[54,36,1,15,39,25,45,39,45,42,0,54,54,42,43,0,0,0,0,0,0,0,0,25,0,0,0,0,0,0,0],"split_type":[0,0,0,0,0,0,0,0,0,0,0,0,0,0,0,0,0,0,0,0,0,0,0,0,0,0,0,0,0,0,0],"sum_hessian":[3.0633532E1,1.417348E1,1.646005E1,8.704886E0,5.4685946E0,7.9408565E0,8.519194E0,5.089925E0,3.614961E0,4.061821E0,1.4067733E0,4.1829433E0,3.7579134E0,5.6563997E0,2.862794E0,1.0934765E0,3.9964485E0,1.6948587E0,1.9201024E0,1.573923E0,2.487898E0,3.028164E0,1.1547792E0,2.404765E0,1.3531485E0,1.1575773E0,4.4988227E0,1.5329183E0,1.3298755E0,1.2568024E0,1.1479625E0],"tree_param":{"num_deleted":"0","num_feature":"59","num_nodes":"31","size_leaf_vector":"1"}},{"base_weights":[2.7636124E-2,3.1640306E-1,-2.43517E-1,-3.1914663E-1,4.7354105E-1,-4.920766E-1,1.00650944E-1,-6.7724295E-2,2.3016855E-2,6.051048E-1,-2.9468259E-2,-5.584721E-3,-1.0291242E-1,-4.6928218E-1,4.2447662E-1,9.105873E-1,1.4978844E-1,-4.0702802E-1,4.186849E-1,-7.4764155E-2,6.057274E-3,6.990988E-1,-3.2369893E-2,9.762841E-3,1.038993E-1,5.5879395E-2,-4.5430142E-2,8.135274E-3,-7.4758664E-2,6.587824E-2,2.1787663E-3,-1.4614501E-3,9.1944955E-2],"categories":[],"categories_nodes":[],"categories_segments":[],"categories_sizes":[],"default_left":[0,0,0,0,0,0,0,0,0,0,0,0,0,0,0,0,0,0,0,0,0,0,0,0,0,0,0,0,0,0,0,0,0],"id":29,"left_children":[1,3,5,7,9,11,13,-1,-1,15,-1,17,-1,19,21,23,25,27,29,-1,-1,31,-1,-1,-1,-1,-1,-1,-1,-1,-1,-1,-1],"loss_changes":[2.5288749E0,1.7089846E0,1.4793658E0,8.816614E-1,1.4830673E0,2.5742688E0,1.6460077E0,0E0,0E0,1.4421906E0,0E0,1.2241533E0,0E0,5.3425354E-1,1.3612943E0,5.8704376E-1,1.6755239E0,6.738775E-1,3.1925452E-1,0E0,0E0,6.986983E-1,0E0,0E0,0E0,0E0,0E0,0E0,0E0,0E0,0E0,0E0,0E0],"parents":[2147483647,0,0,1,1,2,2,3,3,4,4,5,5,6,6,9,9,11,11,13,13,14,14,15,15,16,16,17,17,18,18,21,21],"right_children":[2,4,6,8,10,12,14,-1,-1,16,-1,18,-1,20,22,24,26,28,30,-1,-1,32,-1,-1,-1,-1,-1,-1,-1,-1,-1,-1,-1],"split_conditions":[3.709896E-1,3.3935106E-1,4.6724162E-1,8.974466E-2,8.8395125E-1,4.4045013E-1,5.491798E-1,-6.7724295E-2,2.3016855E-2,1.3335937E-1,-2.9468259E-2,4.736845E-1,-1.0291242E-1,3.4910965E-1,8.336258E-1,3.1728005E-1,1.0348365E-1,5.5964255E-1,3.5420805E-1,-7.4764155E-2,6.057274E-3,3.3838606E-1,-3.2369893E-2,9.762841E-3,1.038993E-1,5.5879395E-2,-4.5430142E-2,8.135274E-3,-7.4758664E-2,6.587824E-2,2.1787663E-3,-1.4614501E-3,9.1944955E-2],"split_indices":[0,8,18,39,16,33,31,0,0,36,0,8,0,45,31,53,46,31,51,0,0,51,0,0,0,0,0,0,0,0,0,0,0],"split_type":[0,0,0,0,0,0,0,0,0,0,0,0,0,0,0,0,0,0,0,0,0,0,0,0,0,0,0,0,0,0,0,0,0],"sum_hessian":[3.03132E1,1.4598992E1,1.5714208E1,2.6896436E0,1.19093485E1,8.874933E0,6.839274E0,1.4872353E0,1.2024084E0,1.0349291E1,1.5600575E0,5.186799E0,3.6881347E0,2.315251E0,4.524023E0,5.5953436E0,4.7539473E0,2.6859732E0,2.5008256E0,1.2483823E0,1.0668687E0,3.357301E0,1.1667218E0,1.0033394E0,4.592004E0,2.8794003E0,1.8745471E0,1.4161917E0,1.2697815E0,1.1470827E0,1.353743E0,1.0122643E0,2.3450367E0],"tree_param":{"num_deleted":"0","num_feature":"59","num_nodes":"33","size_leaf_vector":"1"}},{"base_weights":[9.3846455E-2,4.7752053E-1,-4.8226077E-2,5.6698363E-2,8.251717E-1,-4.089583E-1,2.0102167E-1,3.9382395E-1,-5.4741412E-2,1.9272147E-2,9.582752E-2,-5.8259904E-1,3.6244106E-2,5.572882E-1,-3.9330922E-2,6.251152E-2,-1.0183403E-2,6.9445096E-2,-8.4329915E-1,7.4941653E-1,4.2599966E-4,2.7137813E-1,-5.805052E-1,4.8815876E-2,-4.162453E-2,-7.030899E-3,-1.0066847E-1,1.275435E-2,9.116039E-2,6.499698E-2,-1.8164633E-2,-1.2781982E-2,-7.290099E-2],"categories":[],"categories_nodes":[],"categories_segments":[],"categories_sizes":[],"default_left":[0,0,0,0,0,0,0,0,0,0,0,0,0,0,0,0,0,0,0,0,0,0,0,0,0,0,0,0,0,0,0,0,0],"id":30,"left_children":[1,3,5,7,9,11,13,15,-1,-1,-1,17,-1,19,21,-1,-1,23,25,27,-1,29,31,-1,-1,-1,-1,-1,-1,-1,-1,-1,-1],"loss_changes":[1.6373365E0,1.1374526E0,2.107066E0,1.180071E0,1.8225813E-1,1.4879076E0,1.2197657E0,4.7878665E-1,0E0,0E0,0E0,1.4463375E0,0E0,6.025926E-1,1.7191793E0,0E0,0E0,8.652949E-1,6.754036E-1,3.0992866E-1,0E0,1.2468452E0,1.5595376E-1,0E0,0E0,0E0,0E0,0E0,0E0,0E0,0E0,0E0,0E0],"parents":[2147483647,0,0,1,1,2,2,3,3,4,4,5,5,6,6,7,7,11,11,13,13,14,14,17,17,18,18,19,19,21,21,22,22],"right_children":[2,4,6,8,10,12,14,16,-1,-1,-1,18,-1,20,22,-1,-1,24,26,28,-1,30,32,-1,-1,-1,-1,-1,-1,-1,-1,-1,-1],"split_conditions":[1.01819634E-1,1.13738775E-1,1.4096294E-1,3.8696176E-1,8.356001E-2,4.5217925E-1,3.764277E-1,8.9025095E-2,-5.4741412E-2,1.9272147E-2,9.582752E-2,9.234586E-2,3.6244106E-2,9.143485E-2,6.445985E-1,6.251152E-2,-1.0183403E-2,5.174998E-1,3.5779166E-1,3.1147718E-1,4.2599966E-4,6.719732E-1,3.7850273E-1,4.8815876E-2,-4.162453E-2,-7.030899E-3,-1.0066847E-1,1.275435E-2,9.116039E-2,6.499698E-2,-1.8164633E-2,-1.2781982E-2,-7.290099E-2],"split_indices":[55,39,55,21,49,35,35,43,0,0,0,36,0,46,44,0,0,40,44,5,0,19,51,0,0,0,0,0,0,0,0,0,0],"split_type":[0,0,0,0,0,0,0,0,0,0,0,0,0,0,0,0,0,0,0,0,0,0,0,0,0,0,0,0,0,0,0,0,0],"sum_hessian":[2.8615133E1,7.094628E0,2.1520506E1,3.7357254E0,3.3589025E0,8.5318E0,1.2988706E1,2.621108E0,1.1146171E0,1.0096047E0,2.3492978E0,7.163955E0,1.3678445E0,4.7013803E0,8.287325E0,1.6090753E0,1.0120329E0,2.255724E0,4.9082313E0,3.225641E0,1.4757389E0,5.5813785E0,2.7059467E0,1.208658E0,1.047066E0,1.105997E0,3.8022344E0,1.0367683E0,2.1888728E0,2.8036444E0,2.7777343E0,1.1280465E0,1.5779003E0],"tree_param":{"num_deleted":"0","num_feature":"59","num_nodes":"33","size_leaf_vector":"1"}},{"base_weights":[-1.0103386E-2,-1.2380523E-1,4.931769E-1,3.5756218E-1,-2.9527766E-1,7.020537E-1,-2.3204071E-2,-3.1782772E-2,5.67849E-1,-5.5879456E-1,5.3870108E-2,8.770971E-2,1.5222626E-2,7.0345545E-1,7.641987E-3,-7.7148455E-1,-1.7232494E-1,4.753492E-1,-2.7441633E-1,1.1002964E-2,8.856252E-2,-8.5571455E-4,-9.397372E-2,-8.016388E-2,3.99124E-2,-1.1991934E-2,8.4649004E-2,-6.853508E-2,2.2326676E-2],"categories":[],"categories_nodes":[],"categories_segments":[],"categories_sizes":[],"default_left":[0,0,0,0,0,0,0,0,0,0,0,0,0,0,0,0,0,0,0,0,0,0,0,0,0,0,0,0,0],"id":31,"left_children":[1,3,5,7,9,11,-1,-1,13,15,17,-1,-1,19,-1,21,23,25,27,-1,-1,-1,-1,-1,-1,-1,-1,-1,-1],"loss_changes":[1.8180106E0,2.2387986E0,1.0504105E0,1.2088077E0,1.8337779E0,3.2817745E-1,0E0,0E0,3.3810472E-1,7.925923E-1,1.4233328E0,0E0,0E0,3.8757968E-1,0E0,8.873267E-1,2.2204158E0,1.0862522E0,1.3569357E0,0E0,0E0,0E0,0E0,0E0,0E0,0E0,0E0,0E0,0E0],"parents":[2147483647,0,0,1,1,2,2,3,3,4,4,5,5,8,8,9,9,10,10,13,13,15,15,16,16,17,17,18,18],"right_children":[2,4,6,8,10,12,-1,-1,14,16,18,-1,-1,20,-1,22,24,26,28,-1,-1,-1,-1,-1,-1,-1,-1,-1,-1],"split_conditions":[2.0801203E-1,1.01819634E-1,7.017176E-1,3.2804108E-1,1.4106874E-1,6.682264E-1,-2.3204071E-2,-3.1782772E-2,8.2320017E-1,1.6447245E-1,1.6004807E-1,8.770971E-2,1.5222626E-2,4.1011325E-1,7.641987E-3,4.6205544E-1,5.713763E-1,3.6643165E-1,5.430523E-1,1.1002964E-2,8.856252E-2,-8.5571455E-4,-9.397372E-2,-8.016388E-2,3.99124E-2,-1.1991934E-2,8.4649004E-2,-6.853508E-2,2.2326676E-2],"split_indices":[55,55,22,48,55,8,0,0,16,52,25,0,0,8,0,40,28,21,10,0,0,0,0,0,0,0,0,0,0],"split_type":[0,0,0,0,0,0,0,0,0,0,0,0,0,0,0,0,0,0,0,0,0,0,0,0,0,0,0,0,0],"sum_hessian":[2.9703129E1,2.4844275E1,4.858853E0,6.2404556E0,1.8603819E1,3.7971423E0,1.0617104E0,1.3602531E0,4.880203E0,1.02598295E1,8.34399E0,2.4287136E0,1.3684287E0,3.48664E0,1.3935627E0,5.9751983E0,4.284631E0,3.4572887E0,4.886701E0,1.1956747E0,2.2909656E0,1.2695214E0,4.705677E0,1.8473738E0,2.437257E0,1.5876942E0,1.8695947E0,2.4700828E0,2.4166183E0],"tree_param":{"num_deleted":"0","num_feature":"59","num_nodes":"29","size_leaf_vector":"1"}},{"base_weights":[-2.432587E-2,4.4900292E-1,-1.14322506E-1,-5.3761373E-3,8.2621984E-2,-2.5295183E-2,-6.054497E-1,3.9847154E-2,-3.9880406E-2,-2.6191932E-1,1.6534805E-1,-8.017274E-2,-3.7030287E-3,1.3124049E-1,-6.303893E-1,4.563943E-1,-3.1797254E-1,5.2690215E-2,-3.3740148E-2,-8.7160386E-2,6.4936564E-3,-3.1309836E-2,6.1416216E-2,9.216434E-3,-7.755751E-2],"categories":[],"categories_nodes":[],"categories_segments":[],"categories_sizes":[],"default_left":[0,0,0,0,0,0,0,0,0,0,0,0,0,0,0,0,0,0,0,0,0,0,0,0,0],"id":32,"left_children":[1,3,5,7,-1,9,11,-1,-1,13,15,-1,-1,17,19,21,23,-1,-1,-1,-1,-1,-1,-1,-1],"loss_changes":[1.268692E0,8.217662E-1,1.0694426E0,6.604436E-1,0E0,1.0378135E0,3.9019895E-1,0E0,0E0,1.5638106E0,1.9487997E0,0E0,0E0,1.248378E0,9.7066426E-1,1.2137116E0,1.086565E0,0E0,0E0,0E0,0E0,0E0,0E0,0E0,0E0],"parents":[2147483647,0,0,1,1,2,2,3,3,5,5,6,6,9,9,10,10,13,13,14,14,15,15,16,16],"right_children":[2,4,6,8,-1,10,12,-1,-1,14,16,-1,-1,18,20,22,24,-1,-1,-1,-1,-1,-1,-1,-1],"split_conditions":[4.6799463E-1,6.6329E-1,4.4831187E-1,5.2539444E-1,8.2621984E-2,5.542907E-1,2.217842E-1,3.9847154E-2,-3.9880406E-2,5.157485E-1,3.8557777E-1,-8.017274E-2,-3.7030287E-3,3.9157876E-1,3.9274576E-1,2.838974E-1,1.3648176E-1,5.2690215E-2,-3.3740148E-2,-8.7160386E-2,6.4936564E-3,-3.1309836E-2,6.1416216E-2,9.216434E-3,-7.755751E-2],"split_indices":[40,16,45,9,0,9,46,0,0,31,42,0,0,48,48,45,49,0,0,0,0,0,0,0,0],"split_type":[0,0,0,0,0,0,0,0,0,0,0,0,0,0,0,0,0,0,0,0,0,0,0,0,0],"sum_hessian":[2.7577888E1,3.768534E0,2.3809355E1,2.156571E0,1.6119632E0,2.1045849E1,2.763507E0,1.057867E0,1.0987039E0,9.223668E0,1.182218E1,1.7490886E0,1.0144182E0,4.773808E0,4.44986E0,7.4135785E0,4.4086018E0,2.521043E0,2.2527647E0,3.1155355E0,1.3343248E0,1.0938606E0,6.319718E0,2.746015E0,1.6625866E0],"tree_param":{"num_deleted":"0","num_feature":"59","num_nodes":"25","size_leaf_vector":"1"}},{"base_weights":[-2.4119746E-2,-1.262481E-1,3.814422E-1,1.4298746E-1,-3.760589E-1,6.115296E-1,-3.7906747E-2,6.5251714E-1,-1.458745E-1,1.8255801E-1,-5.8131397E-1,8.571615E-2,4.500403E-3,-2.1317773E-3,9.215894E-2,3.4112483E-1,-3.772287E-1,-3.5014473E-2,4.86196E-2,2.8124597E-2,-8.445537E-1,7.054976E-2,-1.4618917E-2,-6.279587E-2,3.4750238E-2,-5.4741453E-2,5.678999E-2,-9.3306795E-2,-1.9444749E-2],"categories":[],"categories_nodes":[],"categories_segments":[],"categories_sizes":[],"default_left":[0,0,0,0,0,0,0,0,0,0,0,0,0,0,0,0,0,0,0,0,0,0,0,0,0,0,0,0,0],"id":33,"left_children":[1,3,5,7,9,11,-1,13,15,17,19,-1,-1,-1,-1,21,23,-1,-1,25,27,-1,-1,-1,-1,-1,-1,-1,-1],"loss_changes":[1.2544948E0,1.669136E0,1.3005292E0,1.9031658E0,1.566147E0,6.671703E-1,0E0,8.5857975E-1,1.1040348E0,8.467659E-1,1.5560122E0,0E0,0E0,0E0,0E0,6.9143105E-1,1.3709288E0,0E0,0E0,1.5065529E0,2.0423841E-1,0E0,0E0,0E0,0E0,0E0,0E0,0E0,0E0],"parents":[2147483647,0,0,1,1,2,2,3,3,4,4,5,5,7,7,8,8,9,9,10,10,15,15,16,16,19,19,20,20],"right_children":[2,4,6,8,10,12,-1,14,16,18,20,-1,-1,-1,-1,22,24,-1,-1,26,28,-1,-1,-1,-1,-1,-1,-1,-1],"split_conditions":[1E0,5E-1,8.430917E-1,3.9326057E-1,7.680818E-2,3.9478454E-1,-3.7906747E-2,2.1579947E-1,5.1522547E-1,3.3617744E-1,4.1658688E-1,8.571615E-2,4.500403E-3,-2.1317773E-3,9.215894E-2,1.1229256E-1,3.9942718E-1,-3.5014473E-2,4.86196E-2,3.768076E-1,1.9343615E-1,7.054976E-2,-1.4618917E-2,-6.279587E-2,3.4750238E-2,-5.4741453E-2,5.678999E-2,-9.3306795E-2,-1.9444749E-2],"split_indices":[56,56,2,15,49,48,0,16,40,42,50,0,0,0,0,36,45,0,0,42,55,0,0,0,0,0,0,0,0],"split_type":[0,0,0,0,0,0,0,0,0,0,0,0,0,0,0,0,0,0,0,0,0,0,0,0,0,0,0,0,0],"sum_hessian":[2.812498E1,2.301745E1,5.1075315E0,1.1283831E1,1.1733619E1,4.0715923E0,1.0359393E0,3.6270597E0,7.6567707E0,3.1825776E0,8.551042E0,2.4823084E0,1.589284E0,1.2977903E0,2.3292694E0,2.3131444E0,5.343626E0,1.0998445E0,2.0827332E0,2.8488033E0,5.702238E0,1.0673456E0,1.2457988E0,4.069321E0,1.2743049E0,1.3718771E0,1.4769263E0,4.6358027E0,1.0664352E0],"tree_param":{"num_deleted":"0","num_feature":"59","num_nodes":"29","size_leaf_vector":"1"}},{"base_weights":[5.903289E-2,-5.136514E-1,1.6068745E-1,-7.517262E-2,9.872958E-3,-1.0367394E-1,3.4551266E-1,6.635335E-2,-2.6293778E-1,4.2722502E-1,-4.0129565E-2,3.5867017E-2,-7.319733E-1,5.3386104E-1,-1.5585474E-2,4.485261E-2,-4.8269294E-2,-2.0779265E-2,-8.452892E-2,3.792667E-3,6.400823E-2],"categories":[],"categories_nodes":[],"categories_segments":[],"categories_sizes":[],"default_left":[0,0,0,0,0,0,0,0,0,0,0,0,0,0,0,0,0,0,0,0,0],"id":34,"left_children":[1,3,5,-1,-1,7,9,-1,11,13,-1,15,17,19,-1,-1,-1,-1,-1,-1,-1],"loss_changes":[1.7812105E0,7.502439E-1,1.283815E0,0E0,0E0,1.5526111E0,1.1028494E0,0E0,1.4356248E0,9.687412E-1,0E0,1.7349832E0,5.957508E-2,6.218884E-1,0E0,0E0,0E0,0E0,0E0,0E0,0E0],"parents":[2147483647,0,0,1,1,2,2,5,5,6,6,8,8,9,9,11,11,12,12,13,13],"right_children":[2,4,6,-1,-1,8,10,-1,12,14,-1,16,18,20,-1,-1,-1,-1,-1,-1,-1],"split_conditions":[2.95788E-1,1.5955897E-1,4.0296298E-1,-7.517262E-2,9.872958E-3,6.46041E-2,5.012128E-1,6.635335E-2,7.456839E-1,7.8932756E-1,-4.0129565E-2,3.7850273E-1,2.3009288E-1,3.039946E-1,-1.5585474E-2,4.485261E-2,-4.8269294E-2,-2.0779265E-2,-8.452892E-2,3.792667E-3,6.400823E-2],"split_indices":[48,55,21,0,0,55,45,0,3,32,0,0,10,42,0,0,0,0,0,0,0],"split_type":[0,0,0,0,0,0,0,0,0,0,0,0,0,0,0,0,0,0,0,0,0],"sum_hessian":[2.8178822E1,3.6369085E0,2.4541914E1,2.4549525E0,1.1819559E0,1.0278837E1,1.4263077E1,1.2226794E0,9.056157E0,1.3242117E1,1.02096E0,6.0960956E0,2.960062E0,1.1266131E1,1.9759849E0,3.4698868E0,2.6262085E0,1.0298578E0,1.9302042E0,2.2267509E0,9.039381E0],"tree_param":{"num_deleted":"0","num_feature":"59","num_nodes":"21","size_leaf_vector":"1"}},{"base_weights":[-6.8801832E-3,-3.321446E-1,1.9732124E-1,-5.504868E-1,2.0965838E-1,-4.2990178E-1,3.3600444E-1,1.54596E-1,-8.2340366E-1,5.2474864E-2,-3.0729009E-2,-1.2555987E-3,-5.9161514E-2,4.302444E-1,-3.520432E-2,-1.2137654E-2,3.5200953E-2,-1.4191143E-2,-9.487053E-2,5.2473366E-1,-3.0645583E-2,8.7772515E-3,6.91028E-2],"categories":[],"categories_nodes":[],"categories_segments":[],"categories_sizes":[],"default_left":[0,0,0,0,0,0,0,0,0,0,0,0,0,0,0,0,0,0,0,0,0,0,0],"id":35,"left_children":[1,3,5,7,9,11,13,15,17,-1,-1,-1,-1,19,-1,-1,-1,-1,-1,21,-1,-1,-1],"loss_changes":[1.872721E0,1.4008869E0,1.6529716E0,1.6707556E0,7.876111E-1,2.3411173E-1,1.108746E0,2.1053822E-1,3.7265825E-1,0E0,0E0,0E0,0E0,1.096015E0,0E0,0E0,0E0,0E0,0E0,8.313961E-1,0E0,0E0,0E0],"parents":[2147483647,0,0,1,1,2,2,3,3,4,4,5,5,6,6,7,7,8,8,13,13,19,19],"right_children":[2,4,6,8,10,12,14,16,18,-1,-1,-1,-1,20,-1,-1,-1,-1,-1,22,-1,-1,-1],"split_conditions":[7.148948E-2,7.555908E-1,3.0841473E-1,3.4741807E-1,8.422966E-1,3.7440252E-1,3.218448E-1,1.2925835E-1,6.1578467E-2,5.2474864E-2,-3.0729009E-2,-1.2555987E-3,-5.9161514E-2,8.617361E-1,-3.520432E-2,-1.2137654E-2,3.5200953E-2,-1.4191143E-2,-9.487053E-2,1.1656009E-1,-3.0645583E-2,8.7772515E-3,6.91028E-2],"split_indices":[43,20,48,5,20,53,46,39,39,0,0,0,0,33,0,0,0,0,0,52,0,0,0],"split_type":[0,0,0,0,0,0,0,0,0,0,0,0,0,0,0,0,0,0,0,0,0,0,0],"sum_hessian":[2.620862E1,9.866348E0,1.6342272E1,7.020939E0,2.8454092E0,2.57888E0,1.3763392E1,2.0802188E0,4.94072E0,1.7584877E0,1.0869216E0,1.0211543E0,1.5577257E0,1.2434907E1,1.3284856E0,1.0281256E0,1.0520933E0,1.0985376E0,3.8421826E0,1.1276327E1,1.1585791E0,3.5296092E0,7.7467184E0],"tree_param":{"num_deleted":"0","num_feature":"59","num_nodes":"23","size_leaf_vector":"1"}},{"base_weights":[-1.8645233E-2,-1.5429379E-1,6.9987416E-1,2.4743807E-1,-2.8879058E-1,8.422372E-2,1.0648418E-2,-1.4690563E-1,7.504307E-2,1.2695804E-1,-4.8345384E-1,3.43175E-2,-4.0635958E-1,-2.4321581E-1,7.2158225E-2,-6.24046E-1,1.2469286E-1,-6.2833756E-2,-1.1268271E-3,-5.3339522E-2,3.5674997E-2,7.3036994E-3,-7.690725E-2,4.210923E-2,-2.4780242E-2],"categories":[],"categories_nodes":[],"categories_segments":[],"categories_sizes":[],"default_left":[0,0,0,0,0,0,0,0,0,0,0,0,0,0,0,0,0,0,0,0,0,0,0,0,0],"id":36,"left_children":[1,3,5,7,9,-1,-1,11,-1,13,15,-1,17,19,-1,21,23,-1,-1,-1,-1,-1,-1,-1,-1],"loss_changes":[2.7295933E0,1.3382531E0,2.86422E-1,1.3834912E0,1.5202639E0,0E0,0E0,7.0331E-1,0E0,1.6151985E0,1.1453424E0,0E0,2.8736138E-1,1.0223126E0,0E0,1.0982323E0,4.5521253E-1,0E0,0E0,0E0,0E0,0E0,0E0,0E0,0E0],"parents":[2147483647,0,0,1,1,2,2,3,3,4,4,7,7,9,9,10,10,12,12,13,13,15,15,16,16],"right_children":[2,4,6,8,10,-1,-1,12,-1,14,16,-1,18,20,-1,22,24,-1,-1,-1,-1,-1,-1,-1,-1],"split_conditions":[1E0,1.01819634E-1,1.4793316E-1,1.3078736E-1,6.848654E-2,8.422372E-2,1.0648418E-2,3.3320132E-1,7.504307E-2,4.0534604E-1,4.6595657E-1,3.43175E-2,3.4910965E-1,6.451534E-1,7.2158225E-2,3.0841473E-1,4.169507E-1,-6.2833756E-2,-1.1268271E-3,-5.3339522E-2,3.5674997E-2,7.3036994E-3,-7.690725E-2,4.210923E-2,-2.4780242E-2],"split_indices":[56,55,49,39,46,0,0,26,0,42,0,0,45,11,0,45,33,0,0,0,0,0,0,0,0],"split_type":[0,0,0,0,0,0,0,0,0,0,0,0,0,0,0,0,0,0,0,0,0,0,0,0,0],"sum_hessian":[2.5897623E1,2.2445435E1,3.4521894E0,5.419139E0,1.7026295E1,2.445994E0,1.0061954E0,3.4344687E0,1.9846699E0,5.540684E0,1.1485611E1,1.0771558E0,2.3573132E0,3.7790637E0,1.7616205E0,9.3077E0,2.1779108E0,1.1313277E0,1.2259853E0,2.6219087E0,1.1571549E0,1.688441E0,7.6192594E0,1.1401861E0,1.0377246E0],"tree_param":{"num_deleted":"0","num_feature":"59","num_nodes":"25","size_leaf_vector":"1"}},{"base_weights":[2.7738556E-2,-5.593157E-1,1.3577683E-1,4.5509394E-3,-7.810003E-2,3.75346E-2,8.236878E-2,-5.3225122E-2,7.119235E-2,4.587413E-1,-2.0089889E-1,-1.8901648E-2,8.203651E-2,-5.5472683E-2,2.35189E-2],"categories":[],"categories_nodes":[],"categories_segments":[],"categories_sizes":[],"default_left":[0,0,0,0,0,0,0,0,0,0,0,0,0,0,0],"id":37,"left_children":[1,3,5,-1,-1,7,-1,9,-1,11,13,-1,-1,-1,-1],"loss_changes":[1.7220043E0,6.026012E-1,1.5048097E0,0E0,0E0,1.319082E0,0E0,1.5573293E0,0E0,1.2426727E0,2.5586023E0,0E0,0E0,0E0,0E0],"parents":[2147483647,0,0,1,1,2,2,5,5,7,7,9,9,10,10],"right_children":[2,4,6,-1,-1,8,-1,10,-1,12,14,-1,-1,-1,-1],"split_conditions":[4.5577228E-2,3.5578042E-1,7.971352E-1,4.5509394E-3,-7.810003E-2,4.7638524E-1,8.236878E-2,1.01819634E-1,7.119235E-2,1.0452323E-1,1.5540953E-1,-1.8901648E-2,8.203651E-2,-5.5472683E-2,2.35189E-2],"split_indices":[39,33,33,0,0,51,0,55,0,52,55,0,0,0,0],"split_type":[0,0,0,0,0,0,0,0,0,0,0,0,0,0,0],"sum_hessian":[2.4953167E1,3.2292392E0,2.1723928E1,1.0792954E0,2.1499438E0,1.993196E1,1.7919686E0,1.8379509E1,1.5524507E0,3.6430526E0,1.4736457E1,1.4761728E0,2.1668797E0,7.985346E0,6.751111E0],"tree_param":{"num_deleted":"0","num_feature":"59","num_nodes":"15","size_leaf_vector":"1"}},{"base_weights":[9.789191E-3,-7.4159116E-2,8.9925215E-2,4.5316848E-1,-8.531565E-2,7.8952813E-1,-6.728345E-2,-2.1607386E-1,6.331369E-2,8.980539E-2,1.791453E-2,4.383916E-2,-5.193129E-2,-5.5205643E-1,3.491656E-2,3.7922796E-2,-7.868986E-2,2.9030705E-2,-3.8013216E-2],"categories":[],"categories_nodes":[],"categories_segments":[],"categories_sizes":[],"default_left":[0,0,0,0,0,0,0,0,0,0,0,0,0,0,0,0,0,0,0],"id":38,"left_children":[1,-1,3,5,7,9,11,13,-1,-1,-1,-1,-1,15,17,-1,-1,-1,-1],"loss_changes":[1.6641123E0,0E0,1.621434E0,1.497409E0,1.7915766E0,1.7629051E-1,1.1786234E0,1.3388363E0,0E0,0E0,0E0,0E0,0E0,1.7747889E0,1.1594678E0,0E0,0E0,0E0,0E0],"parents":[2147483647,0,0,2,2,3,3,4,4,5,5,6,6,7,7,13,13,14,14],"right_children":[2,-1,4,6,8,10,12,14,-1,-1,-1,-1,-1,16,18,-1,-1,-1,-1],"split_conditions":[1.6020872E-1,-7.4159116E-2,3.5041377E-1,6.311753E-1,7.922222E-1,1.372079E-1,3.6034396E-1,1.3347517E-1,6.331369E-2,8.980539E-2,1.791453E-2,4.383916E-2,-5.193129E-2,1.9846325E-1,7.9871655E-1,3.7922796E-2,-7.868986E-2,2.9030705E-2,-3.8013216E-2],"split_indices":[20,0,0,31,33,43,42,55,0,0,0,0,0,16,17,0,0,0,0],"split_type":[0,0,0,0,0,0,0,0,0,0,0,0,0,0,0,0,0,0,0],"sum_hessian":[2.5529726E1,1.6649047E0,2.386482E1,7.2502866E0,1.6614534E1,4.0899887E0,3.160298E0,1.4647875E1,1.9666587E0,3.072418E0,1.0175705E0,1.5058775E0,1.6544206E0,5.7505374E0,8.897338E0,1.0342638E0,4.716274E0,5.6941333E0,3.2032042E0],"tree_param":{"num_deleted":"0","num_feature":"59","num_nodes":"19","size_leaf_vector":"1"}},{"base_weights":[-9.7212306E-4,5.120951E-1,-9.509232E-2,-7.4854083E-3,7.88651E-2,1.1171079E-1,-4.2159235E-1,-3.0084053E-1,4.1864464E-1,-7.234292E-1,-2.1353602E-2,1.2347792E-1,-7.093852E-2,6.7723733E-1,-2.405618E-1,-1.1031066E-2,-8.8768E-2,3.4593228E-1,-5.2817356E-2,-3.9792016E-2,6.0741693E-2,8.244901E-2,-2.4128382E-3,-5.123166E-2,1.452138E-2,-1.20515395E-2,6.0434707E-2],"categories":[],"categories_nodes":[],"categories_segments":[],"categories_sizes":[],"default_left":[0,0,0,0,0,0,0,0,0,0,0,0,0,0,0,0,0,0,0,0,0,0,0,0,0,0,0],"id":39,"left_children":[1,3,5,-1,-1,7,9,11,13,15,17,19,-1,21,23,-1,-1,25,-1,-1,-1,-1,-1,-1,-1,-1,-1],"loss_changes":[1.2208488E0,6.9521534E-1,1.488944E0,0E0,0E0,1.8814771E0,1.0102106E0,1.2137368E0,1.5893215E0,3.8643098E-1,1.0539721E0,1.260679E0,0E0,6.6767097E-1,3.9891756E-1,0E0,0E0,4.727813E-1,0E0,0E0,0E0,0E0,0E0,0E0,0E0,0E0,0E0],"parents":[2147483647,0,0,1,1,2,2,5,5,6,6,7,7,8,8,9,9,10,10,11,11,13,13,14,14,17,17],"right_children":[2,4,6,-1,-1,8,10,12,14,16,18,20,-1,22,24,-1,-1,26,-1,-1,-1,-1,-1,-1,-1,-1,-1],"split_conditions":[2.649204E-1,2.5210124E-1,4.1349775E-1,-7.4854083E-3,7.88651E-2,5.744449E-1,4.662281E-1,1.0040657E-1,8.8395125E-1,2.0772469E-1,6.2260985E-1,5.8588E-2,-7.093852E-2,6.734624E-1,6.1909467E-1,-1.1031066E-2,-8.8768E-2,3.0723286E-1,-5.2817356E-2,-3.9792016E-2,6.0741693E-2,8.244901E-2,-2.4128382E-3,-5.123166E-2,1.452138E-2,-1.20515395E-2,6.0434707E-2],"split_indices":[33,21,1,0,0,14,18,46,16,35,50,46,0,32,10,0,0,3,0,0,0,0,0,0,0,0,0],"split_type":[0,0,0,0,0,0,0,0,0,0,0,0,0,0,0,0,0,0,0,0,0,0,0,0,0,0,0],"sum_hessian":[2.3273195E1,2.9192023E0,2.0353992E1,1.168522E0,1.7506803E0,1.2863919E1,7.4900737E0,5.4962435E0,7.367676E0,3.8096E0,3.6804733E0,3.0383475E0,2.457896E0,5.272165E0,2.0955107E0,1.1581253E0,2.651475E0,2.3180547E0,1.3624189E0,1.5481312E0,1.4902163E0,4.2122474E0,1.0599174E0,1.0369953E0,1.0585155E0,1.0166328E0,1.3014218E0],"tree_param":{"num_deleted":"0","num_feature":"59","num_nodes":"27","size_leaf_vector":"1"}},{"base_weights":[4.8608996E-2,6.2272257E-1,-5.26957E-2,7.9003386E-2,8.915684E-3,2.8726337E-2,-5.8933353E-1,-9.7151995E-2,4.9349183E-1,-1.8260181E-2,-6.992494E-2,2.9528493E-1,-2.4857438E-1,-2.3217412E-2,8.278738E-2,-3.021496E-2,6.476655E-2,-4.356308E-2,4.0310357E-2],"categories":[],"categories_nodes":[],"categories_segments":[],"categories_sizes":[],"default_left":[0,0,0,0,0,0,0,0,0,0,0,0,0,0,0,0,0,0,0],"id":40,"left_children":[1,3,5,-1,-1,7,9,11,13,-1,-1,15,17,-1,-1,-1,-1,-1,-1],"loss_changes":[1.5271168E0,2.8054595E-1,1.0114583E0,0E0,0E0,1.2599198E0,8.445859E-3,1.091723E0,1.3034302E0,0E0,0E0,1.2963701E0,1.7491404E0,0E0,0E0,0E0,0E0,0E0,0E0],"parents":[2147483647,0,0,1,1,2,2,5,5,6,6,7,7,8,8,11,11,12,12],"right_children":[2,4,6,-1,-1,8,10,12,14,-1,-1,16,18,-1,-1,-1,-1,-1,-1],"split_conditions":[4.6909812E-1,9.70082E-2,8.217914E-1,7.9003386E-2,8.915684E-3,1E0,3.8538477E-1,3.9326057E-1,3.34896E-1,-1.8260181E-2,-6.992494E-2,5.3330004E-1,7.4392647E-1,-2.3217412E-2,8.278738E-2,-3.021496E-2,6.476655E-2,-4.356308E-2,4.0310357E-2],"split_indices":[40,46,9,0,0,56,1,15,32,0,0,40,21,0,0,0,0,0,0],"split_type":[0,0,0,0,0,0,0,0,0,0,0,0,0,0,0,0,0,0,0],"sum_hessian":[2.4692776E1,2.93163E0,2.1761147E1,1.8658754E0,1.0657545E0,1.9716158E1,2.0449884E0,1.6136633E1,3.5795236E0,1.0012516E0,1.0437368E0,4.2282715E0,1.1908362E1,1.2255446E0,2.353979E0,1.6215701E0,2.6067016E0,9.510119E0,2.3982422E0],"tree_param":{"num_deleted":"0","num_feature":"59","num_nodes":"19","size_leaf_vector":"1"}},{"base_weights":[8.638585E-2,2.2932291E-1,-2.9500356E-1,3.63154E-1,-9.4517685E-2,1.474343E-1,-7.062471E-1,6.8890356E-2,7.989359E-2,-6.517166E-2,2.5701794E-1,-2.8017068E-1,7.232062E-2,-8.143019E-2,-2.0121222E-2,5.6211495E-1,-2.492096E-1,4.952555E-1,-1.8939797E-2,1.0250473E-2,-5.2514266E-2,7.713195E-2,-8.994573E-4,-6.1411347E-2,1.8828532E-2,7.347279E-3,6.579397E-2],"categories":[],"categories_nodes":[],"categories_segments":[],"categories_sizes":[],"default_left":[0,0,0,0,0,0,0,0,0,0,0,0,0,0,0,0,0,0,0,0,0,0,0,0,0,0,0],"id":41,"left_children":[1,3,5,7,9,11,13,15,-1,-1,17,19,-1,-1,-1,21,23,25,-1,-1,-1,-1,-1,-1,-1,-1,-1],"loss_changes":[1.4280193E0,8.453891E-1,1.4214665E0,1.6694922E0,1.3948148E0,1.2650077E0,5.034876E-2,1.5712692E0,0E0,0E0,5.786737E-1,3.535237E-1,0E0,0E0,0E0,4.7095096E-1,1.1115322E0,1.7461824E-1,0E0,0E0,0E0,0E0,0E0,0E0,0E0,0E0,0E0],"parents":[2147483647,0,0,1,1,2,2,3,3,4,4,5,5,6,6,7,7,10,10,11,11,15,15,16,16,17,17],"right_children":[2,4,6,8,10,12,14,16,-1,-1,18,20,-1,-1,-1,22,24,26,-1,-1,-1,-1,-1,-1,-1,-1,-1],"split_conditions":[8.1726766E-1,5.117596E-1,6.719732E-1,3.8120645E-1,6.67963E-1,3.6362067E-1,3.9942718E-1,3.4725282E-1,7.989359E-2,-6.517166E-2,6.72801E-1,1.1013018E-1,7.232062E-2,-8.143019E-2,-2.0121222E-2,1.8279055E-1,5.3330004E-1,5.589149E-1,-1.8939797E-2,1.0250473E-2,-5.2514266E-2,7.713195E-2,-8.994573E-4,-6.1411347E-2,1.8828532E-2,7.347279E-3,6.579397E-2],"split_indices":[15,33,19,33,16,54,45,51,0,0,53,49,0,0,0,25,40,44,0,0,0,0,0,0,0,0,0],"split_type":[0,0,0,0,0,0,0,0,0,0,0,0,0,0,0,0,0,0,0,0,0,0,0,0,0,0,0],"sum_hessian":[2.3954163E1,1.7714022E1,6.240141E0,1.2448237E1,5.2657843E0,3.3150854E0,2.9250555E0,8.121943E0,4.326294E0,1.7066916E0,3.5590925E0,2.1969156E0,1.1181699E0,1.9050846E0,1.0199708E0,2.8836486E0,5.2382946E0,2.249307E0,1.3097855E0,1.0844465E0,1.112469E0,1.8539577E0,1.0296909E0,2.635982E0,2.6023128E0,1.0301416E0,1.2191654E0],"tree_param":{"num_deleted":"0","num_feature":"59","num_nodes":"27","size_leaf_vector":"1"}},{"base_weights":[-7.4282855E-2,-2.3426747E-1,1.8005694E-1,4.475976E-2,-3.3203146E-1,6.39083E-1,-1.1886579E-1,-6.921785E-1,-7.348083E-2,1.6437307E-2,7.953992E-2,1.7646788E-1,-6.589209E-2,-1.9290823E-2,-8.337625E-2,3.438312E-1,-2.8481382E-1,-3.7278872E-2,4.1362536E-1,5.1630724E-2,-3.6519621E-3,2.6311237E-2,-5.406958E-2,6.999724E-2,-2.1309838E-2],"categories":[],"categories_nodes":[],"categories_segments":[],"categories_sizes":[],"default_left":[0,0,0,0,0,0,0,0,0,0,0,0,0,0,0,0,0,0,0,0,0,0,0,0,0],"id":42,"left_children":[1,3,5,-1,7,9,11,13,15,-1,-1,17,-1,-1,-1,19,21,-1,23,-1,-1,-1,-1,-1,-1],"loss_changes":[1.0475805E0,1.1886932E0,1.4626696E0,0E0,1.2732414E0,1.7665458E-1,1.2269559E0,2.5082707E-1,9.265994E-1,0E0,0E0,8.43345E-1,0E0,0E0,0E0,2.557954E-1,1.0934705E0,0E0,8.973575E-1,0E0,0E0,0E0,0E0,0E0,0E0],"parents":[2147483647,0,0,1,1,2,2,4,4,5,5,6,6,7,7,8,8,11,11,15,15,16,16,18,18],"right_children":[2,4,6,-1,8,10,12,14,16,-1,-1,18,-1,-1,-1,20,22,-1,24,-1,-1,-1,-1,-1,-1],"split_conditions":[1.5955897E-1,6.205332E-2,1.1679518E-1,4.475976E-2,1.1656009E-1,3.1785595E-1,7.940346E-1,5.5708647E-2,9.783724E-2,1.6437307E-2,7.953992E-2,3.6515695E-1,-6.589209E-2,-1.9290823E-2,-8.337625E-2,8.257437E-2,1.0630995E-1,-3.7278872E-2,2.1580365E-1,5.1630724E-2,-3.6519621E-3,2.6311237E-2,-5.406958E-2,6.999724E-2,-2.1309838E-2],"split_indices":[55,55,52,0,52,21,15,46,36,0,0,21,0,0,0,46,55,0,49,0,0,0,0,0,0],"split_type":[0,0,0,0,0,0,0,0,0,0,0,0,0,0,0,0,0,0,0,0,0,0,0,0,0],"sum_hessian":[2.3708471E1,1.4602278E1,9.1061945E0,1.3823793E0,1.3219898E1,3.1425447E0,5.9636497E0,4.8236566E0,8.396242E0,1.2866656E0,1.8558792E0,4.290561E0,1.6730884E0,1.5876387E0,3.236018E0,2.611815E0,5.7844267E0,1.1214287E0,3.1691322E0,1.5510275E0,1.0607876E0,1.8324025E0,3.9520242E0,2.095042E0,1.0740904E0],"tree_param":{"num_deleted":"0","num_feature":"59","num_nodes":"25","size_leaf_vector":"1"}},{"base_weights":[5.2881323E-2,-1.8032299E-1,2.0160174E-1,1.3811702E-1,-7.380805E-2,-4.8107397E-2,3.3659142E-1,5.7440948E-2,-1.7509231E-1,6.7184925E-1,6.533197E-2,-3.8137072E-1,2.5079308E-2,8.0435216E-1,3.4108441E-3,-4.6081665E-1,3.6011305E-1,-5.3260982E-2,-4.57841E-3,2.4753636E-2,9.0568535E-2,-6.268597E-2,-7.2009205E-3,-1.1697073E-2,5.712706E-2],"categories":[],"categories_nodes":[],"categories_segments":[],"categories_sizes":[],"default_left":[0,0,0,0,0,0,0,0,0,0,0,0,0,0,0,0,0,0,0,0,0,0,0,0,0],"id":43,"left_children":[1,3,5,7,-1,-1,9,-1,11,13,15,17,-1,19,-1,21,23,-1,-1,-1,-1,-1,-1,-1,-1],"loss_changes":[8.5108286E-1,1.8203914E0,1.5272791E0,1.057312E0,0E0,0E0,1.1345611E0,0E0,5.210133E-1,4.5319676E-1,1.4486971E0,1.6130817E-1,0E0,3.9030075E-2,0E0,1.7490685E-1,6.573667E-1,0E0,0E0,0E0,0E0,0E0,0E0,0E0,0E0],"parents":[2147483647,0,0,1,1,2,2,3,3,6,6,8,8,9,9,10,10,11,11,13,13,15,15,16,16],"right_children":[2,4,6,8,-1,-1,10,-1,12,14,16,18,-1,20,-1,22,24,-1,-1,-1,-1,-1,-1,-1,-1],"split_conditions":[7.160069E-2,7.126704E-2,3.129868E-1,3.4910965E-1,-7.380805E-2,-4.8107397E-2,9.537594E-2,5.7440948E-2,4.1180307E-1,8.3069706E-1,1.8170667E-1,7.233935E-2,2.5079308E-2,5.6118125E-1,3.4108441E-3,3.3617744E-1,3.218299E-1,-5.3260982E-2,-4.57841E-3,2.4753636E-2,9.0568535E-2,-6.268597E-2,-7.2009205E-3,-1.1697073E-2,5.712706E-2],"split_indices":[43,46,48,48,0,0,39,0,48,16,25,49,0,9,0,42,45,0,0,0,0,0,0,0,0],"split_type":[0,0,0,0,0,0,0,0,0,0,0,0,0,0,0,0,0,0,0,0,0,0,0,0,0],"sum_hessian":[2.2491257E1,8.675286E0,1.3815969E1,6.001326E0,2.6739607E0,1.8576415E0,1.1958328E1,2.159396E0,3.8419302E0,4.6877804E0,7.270548E0,2.6587043E0,1.183226E0,3.6650445E0,1.0227357E0,2.4084697E0,4.862078E0,1.4280313E0,1.2306728E0,1.0943727E0,2.5706718E0,1.2586793E0,1.1497904E0,1.6285732E0,3.2335052E0],"tree_param":{"num_deleted":"0","num_feature":"59","num_nodes":"25","size_leaf_vector":"1"}},{"base_weights":[4.9212683E-2,3.4969965E-1,-8.903381E-2,6.1622906E-1,-1.3275607E-1,-1.9804572E-1,5.4930367E-2,7.2784916E-2,1.312068E-2,-4.8876245E-2,2.9988868E-2,2.4790925E-1,-3.6625746E-1,-2.6128635E-2,5.41046E-1,2.7875084E-2,-4.5999187E-1,6.87229E-2,1.0118545E-2,-6.899341E-2,-2.0898287E-3],"categories":[],"categories_nodes":[],"categories_segments":[],"categories_sizes":[],"default_left":[0,0,0,0,0,0,0,0,0,0,0,0,0,0,0,0,0,0,0,0,0],"id":44,"left_children":[1,3,5,7,9,11,-1,-1,-1,-1,-1,13,15,-1,17,-1,19,-1,-1,-1,-1],"loss_changes":[9.9871606E-1,1.0516675E0,1.2743384E0,1.7712033E-1,6.8669504E-1,1.2191355E0,0E0,0E0,0E0,0E0,0E0,8.452983E-1,8.1295717E-1,0E0,1.438517E-1,0E0,1.0220811E0,0E0,0E0,0E0,0E0],"parents":[2147483647,0,0,1,1,2,2,3,3,4,4,5,5,11,11,12,12,14,14,16,16],"right_children":[2,4,6,8,10,12,-1,-1,-1,-1,-1,14,16,-1,18,-1,20,-1,-1,-1,-1],"split_conditions":[3.093374E-1,7.4310446E-1,8.332785E-1,1.6143924E-1,7.6523256E-1,3.5637832E-1,5.4930367E-2,7.2784916E-2,1.312068E-2,-4.8876245E-2,2.9988868E-2,2.3753823E-1,3.1542853E-2,-2.6128635E-2,3.72595E-1,2.7875084E-2,3.863536E-1,6.87229E-2,1.0118545E-2,-6.899341E-2,-2.0898287E-3],"split_indices":[54,3,33,36,2,19,0,0,0,0,0,9,36,0,33,0,45,0,0,0,0],"split_type":[0,0,0,0,0,0,0,0,0,0,0,0,0,0,0,0,0,0,0,0,0],"sum_hessian":[2.229204E1,6.5423393E0,1.5749701E1,4.035615E0,2.5067244E0,1.40415125E1,1.7081879E0,2.8736417E0,1.1619732E0,1.304003E0,1.2027215E0,3.7160103E0,1.0325502E1,1.3973632E0,2.3186471E0,1.0596902E0,9.265812E0,1.3181839E0,1.0004632E0,5.7062984E0,3.5595138E0],"tree_param":{"num_deleted":"0","num_feature":"59","num_nodes":"21","size_leaf_vector":"1"}},{"base_weights":[3.7468784E-3,-1.8879817E-1,2.7808872E-1,-5.8053304E-2,-6.9436334E-2,-1.6823988E-1,4.311558E-1,2.2385472E-1,-3.6411378E-1,2.1034805E-2,-4.696418E-2,-1.6402582E-2,6.215975E-1,-4.0518135E-2,4.4952303E-1,-6.3626957E-1,3.5363354E-2,5.2181487E-3,7.678761E-2,6.4143606E-2,-1.8653661E-2,-1.5699918E-3,-8.88926E-2],"categories":[],"categories_nodes":[],"categories_segments":[],"categories_sizes":[],"default_left":[0,0,0,0,0,0,0,0,0,0,0,0,0,0,0,0,0,0,0,0,0,0,0],"id":45,"left_children":[1,3,5,7,-1,9,11,13,15,-1,-1,-1,17,-1,19,21,-1,-1,-1,-1,-1,-1,-1],"loss_changes":[1.2702898E0,8.944854E-1,7.497014E-1,1.1451391E0,0E0,4.696948E-1,9.703574E-1,1.1809566E0,1.453943E0,0E0,0E0,0E0,4.6077323E-1,0E0,8.096428E-1,7.572762E-1,0E0,0E0,0E0,0E0,0E0,0E0,0E0],"parents":[2147483647,0,0,1,1,2,2,3,3,5,5,6,6,7,7,8,8,12,12,14,14,15,15],"right_children":[2,4,6,8,-1,10,12,14,16,-1,-1,-1,18,-1,20,22,-1,-1,-1,-1,-1,-1,-1],"split_conditions":[3.838013E-1,4.3508896E-1,6.635806E-2,3.7425813E-1,-6.9436334E-2,1.8268168E-1,5.0760245E-1,2.906537E-1,6.229643E-1,2.1034805E-2,-4.696418E-2,-1.6402582E-2,3.2804108E-1,-4.0518135E-2,3.6008582E-1,5.58198E-1,3.5363354E-2,5.2181487E-3,7.678761E-2,6.4143606E-2,-1.8653661E-2,-1.5699918E-3,-8.88926E-2],"split_indices":[45,48,39,42,0,25,26,21,10,0,0,0,48,0,45,50,0,0,0,0,0,0,0],"split_type":[0,0,0,0,0,0,0,0,0,0,0,0,0,0,0,0,0,0,0,0,0,0,0],"sum_hessian":[2.2054037E1,1.3142132E1,8.911906E0,1.1327532E1,1.8145996E0,2.2505114E0,6.661395E0,6.0362344E0,5.291298E0,1.1314322E0,1.1190794E0,1.6484025E0,5.0129924E0,1.3837227E0,4.6525116E0,3.9188607E0,1.3724372E0,1.3018869E0,3.7111056E0,3.567628E0,1.0848836E0,1.4411864E0,2.4776742E0],"tree_param":{"num_deleted":"0","num_feature":"59","num_nodes":"23","size_leaf_vector":"1"}},{"base_weights":[-5.715165E-3,5.9729375E-2,-8.861553E-2,-1.507001E-1,5.5162847E-2,-2.2697762E-1,4.9775746E-2,2.0037521E-1,-3.5859793E-1,5.423204E-2,-1.5276494E-2,-5.3674567E-2,7.3078705E-4],"categories":[],"categories_nodes":[],"categories_segments":[],"categories_sizes":[],"default_left":[0,0,0,0,0,0,0,0,0,0,0,0,0],"id":46,"left_children":[1,-1,3,5,-1,7,-1,9,11,-1,-1,-1,-1],"loss_changes":[1.2565295E0,0E0,9.591168E-1,1.1455203E0,0E0,1.1610944E0,0E0,7.109323E-1,9.9236095E-1,0E0,0E0,0E0,0E0],"parents":[2147483647,0,0,2,2,3,3,5,5,7,7,8,8],"right_children":[2,-1,4,6,-1,8,-1,10,12,-1,-1,-1,-1],"split_conditions":[3.1542853E-2,5.9729375E-2,9.226105E-1,3.9775652E-1,5.5162847E-2,3.0456215E-1,4.9775746E-2,1.6645417E-1,1.5955897E-1,5.423204E-2,-1.5276494E-2,-5.3674567E-2,7.3078705E-4],"split_indices":[36,0,16,39,0,33,0,25,55,0,0,0,0],"split_type":[0,0,0,0,0,0,0,0,0,0,0,0,0],"sum_hessian":[2.307698E1,2.0391862E0,2.1037794E1,1.987512E1,1.1626731E0,1.8364851E1,1.5102692E0,4.201333E0,1.4163519E1,1.8623314E0,2.339002E0,9.211728E0,4.9517903E0],"tree_param":{"num_deleted":"0","num_feature":"59","num_nodes":"13","size_leaf_vector":"1"}},{"base_weights":[1.0314786E-2,2.6950145E-1,-1.3312587E-1,5.934096E-1,-4.0355973E-2,-4.407684E-1,9.903571E-2,7.5920716E-2,6.288491E-3,5.7841968E-2,-3.8675767E-1,1.1287385E-2,-6.041446E-1,4.7517195E-1,-2.3100446E-1,5.8213375E-3,-6.510521E-2,-7.19272E-2,-9.144829E-3,-1.2837824E-2,7.3962964E-2,-4.6640053E-1,4.2480826E-2,1.5332522E-2,-6.933337E-2],"categories":[],"categories_nodes":[],"categories_segments":[],"categories_sizes":[],"default_left":[0,0,0,0,0,0,0,0,0,0,0,0,0,0,0,0,0,0,0,0,0,0,0,0,0],"id":47,"left_children":[1,3,5,7,9,11,13,-1,-1,-1,15,-1,17,19,21,-1,-1,-1,-1,-1,-1,23,-1,-1,-1],"loss_changes":[8.813079E-1,8.702358E-1,1.1369952E0,3.204782E-1,1.3481258E0,6.803011E-1,1.2941654E0,0E0,0E0,0E0,5.0389075E-1,0E0,2.519399E-1,8.588848E-1,1.0865142E0,0E0,0E0,0E0,0E0,0E0,0E0,7.6889324E-1,0E0,0E0,0E0],"parents":[2147483647,0,0,1,1,2,2,3,3,4,4,5,5,6,6,10,10,12,12,13,13,14,14,21,21],"right_children":[2,4,6,8,10,12,14,-1,-1,-1,16,-1,18,20,22,-1,-1,-1,-1,-1,-1,24,-1,-1,-1],"split_conditions":[5.1642585E-1,3.5041377E-1,5.0760245E-1,6.628884E-1,3.308798E-1,1.0178438E-1,3.7913018E-1,7.5920716E-2,6.288491E-3,5.7841968E-2,3.891841E-1,1.1287385E-2,1.970566E-1,6.253313E-1,2.5257328E-1,5.8213375E-3,-6.510521E-2,-7.19272E-2,-9.144829E-3,-1.2837824E-2,7.3962964E-2,5.759623E-1,4.2480826E-2,1.5332522E-2,-6.933337E-2],"split_indices":[31,0,26,20,16,55,42,0,0,0,48,0,55,9,36,0,0,0,0,0,0,22,0,0,0],"split_type":[0,0,0,0,0,0,0,0,0,0,0,0,0,0,0,0,0,0,0,0,0,0,0,0,0],"sum_hessian":[2.1740128E1,7.4320774E0,1.430805E1,3.1862447E0,4.2458324E0,5.767227E0,8.540823E0,2.0991704E0,1.0870744E0,1.2834383E0,2.962394E0,1.3845248E0,4.3827024E0,3.7861402E0,4.754683E0,1.3944359E0,1.5679582E0,3.249988E0,1.132714E0,1.310303E0,2.4758372E0,3.7113566E0,1.0433261E0,1.0817081E0,2.6296487E0],"tree_param":{"num_deleted":"0","num_feature":"59","num_nodes":"25","size_leaf_vector":"1"}},{"base_weights":[-7.0485055E-2,-1.6923691E-1,3.501844E-1,-3.2428384E-1,1.269554E-1,-4.7813165E-3,6.6230565E-2,-4.9003476E-1,1.4373139E-1,3.758744E-1,-3.4261E-2,3.566147E-2,-3.7703756E-2,-1.5663198E-1,-8.402823E-2,5.0483532E-2,-4.121485E-2,-2.5991628E-2,6.301043E-1,-3.8968958E-2,4.0024728E-2,9.709834E-3,7.890492E-2],"categories":[],"categories_nodes":[],"categories_segments":[],"categories_sizes":[],"default_left":[0,0,0,0,0,0,0,0,0,0,0,0,0,0,0,0,0,0,0,0,0,0,0],"id":48,"left_children":[1,3,5,7,9,11,-1,13,15,17,-1,-1,-1,19,-1,-1,-1,-1,21,-1,-1,-1,-1],"loss_changes":[9.6266156E-1,8.809482E-1,4.9733043E-1,1.0233898E0,9.471866E-1,5.487798E-1,0E0,9.5420027E-1,1.008181E0,9.805166E-1,0E0,0E0,0E0,9.3376076E-1,0E0,0E0,0E0,0E0,2.5392497E-1,0E0,0E0,0E0,0E0],"parents":[2147483647,0,0,1,1,2,2,3,3,4,4,5,5,7,7,8,8,9,9,13,13,18,18],"right_children":[2,4,6,8,10,12,-1,14,16,18,-1,-1,-1,20,-1,-1,-1,-1,22,-1,-1,-1,-1],"split_conditions":[1E0,3.976056E-1,4.7284856E-1,7.6768637E-1,6.8029463E-1,5.529188E-1,6.6230565E-2,6.011913E-1,9.195745E-1,2.1031256E-1,-3.4261E-2,3.566147E-2,-3.7703756E-2,5.589149E-1,-8.402823E-2,5.0483532E-2,-4.121485E-2,-2.5991628E-2,1.165836E-1,-3.8968958E-2,4.0024728E-2,9.709834E-3,7.890492E-2],"split_indices":[56,42,18,44,8,14,0,2,47,32,0,0,0,50,0,0,0,0,55,0,0,0,0],"split_type":[0,0,0,0,0,0,0,0,0,0,0,0,0,0,0,0,0,0,0,0,0,0,0],"sum_hessian":[2.0746658E1,1.7286386E1,3.460271E0,1.1284488E1,6.0018997E0,2.0797346E0,1.3805362E0,8.298475E0,2.9860127E0,4.0529413E0,1.948958E0,1.0765805E0,1.0031542E0,4.992903E0,3.3055718E0,1.8658006E0,1.1202122E0,1.1513132E0,2.9016283E0,3.7314806E0,1.2614228E0,1.0365509E0,1.8650774E0],"tree_param":{"num_deleted":"0","num_feature":"59","num_nodes":"23","size_leaf_vector":"1"}},{"base_weights":[-3.654811E-2,2.4376869E-1,-1.824998E-1,6.1036515E-1,-1.1001363E-1,6.384385E-2,-5.556682E-1,7.515598E-2,1.0713966E-2,2.4317818E-2,-3.9963728E-1,3.9890197E-1,-4.0369E-1,-6.830067E-1,2.2012386E-3,-5.5482753E-2,-3.388707E-3,2.9967874E-2,6.0843194E-1,6.163256E-3,-6.340773E-2,-7.648944E-2,-1.9805035E-2,-2.9933408E-2,2.9655395E-2,7.978184E-2,1.6137196E-3],"categories":[],"categories_nodes":[],"categories_segments":[],"categories_sizes":[],"default_left":[0,0,0,0,0,0,0,0,0,0,0,0,0,0,0,0,0,0,0,0,0,0,0,0,0,0,0],"id":49,"left_children":[1,3,5,7,9,11,13,-1,-1,-1,15,17,19,21,-1,-1,-1,23,25,-1,-1,-1,-1,-1,-1,-1,-1],"loss_changes":[9.84219E-1,1.1426651E0,1.4765837E0,2.196958E-1,6.155367E-1,1.7807797E0,4.811685E-1,0E0,0E0,0E0,1.6070682E-1,4.8626387E-1,5.55118E-1,5.5943966E-2,0E0,0E0,0E0,3.886265E-1,4.482131E-1,0E0,0E0,0E0,0E0,0E0,0E0,0E0,0E0],"parents":[2147483647,0,0,1,1,2,2,3,3,4,4,5,5,6,6,10,10,11,11,12,12,13,13,17,17,18,18],"right_children":[2,4,6,8,10,12,14,-1,-1,-1,16,18,20,22,-1,-1,-1,24,26,-1,-1,-1,-1,-1,-1,-1,-1],"split_conditions":[3.4040168E-1,8.2463145E-2,5.7523584E-1,1.6011652E-1,2.9005805E-1,6.1400604E-1,8.385515E-1,7.515598E-2,1.0713966E-2,2.4317818E-2,5.870795E-1,3.1022954E-1,3.505235E-1,1.508487E-1,2.2012386E-3,-5.5482753E-2,-3.388707E-3,3.7690184E-1,7.3793554E-1,6.163256E-3,-6.340773E-2,-7.648944E-2,-1.9805035E-2,-2.9933408E-2,2.9655395E-2,7.978184E-2,1.6137196E-3],"split_indices":[45,46,11,36,45,27,44,0,0,0,31,50,42,55,0,0,0,11,8,0,0,0,0,0,0,0,0],"split_type":[0,0,0,0,0,0,0,0,0,0,0,0,0,0,0,0,0,0,0,0,0,0,0,0,0,0,0],"sum_hessian":[2.196918E1,7.292638E0,1.4676541E1,3.2252805E0,4.0673575E0,9.339844E0,5.3366976E0,2.1332495E0,1.092031E0,1.9048209E0,2.1625364E0,5.5262513E0,3.8135924E0,4.2234035E0,1.1132941E0,1.1553544E0,1.007182E0,2.4157302E0,3.110521E0,1.5054519E0,2.3081403E0,3.1194263E0,1.1039771E0,1.0257834E0,1.3899469E0,2.093976E0,1.0165448E0],"tree_param":{"num_deleted":"0","num_feature":"59","num_nodes":"27","size_leaf_vector":"1"}},{"base_weights":[-1.5957931E-2,-1.970379E-1,1.6347694E-1,4.348847E-2,-3.1944636E-1,4.1838735E-1,-8.832229E-2,-6.73527E-1,1.1185234E-2,5.682969E-1,-1.393676E-2,-4.4693604E-2,1.3412774E-1,-1.980015E-2,-7.6538764E-2,4.2122312E-2,-2.6387373E-1,1.3144106E-2,6.7623466E-2,6.253604E-2,-1.854379E-1,1.1406895E-2,-5.9513237E-2,2.0131279E-2,-4.4419337E-2],"categories":[],"categories_nodes":[],"categories_segments":[],"categories_sizes":[],"default_left":[0,0,0,0,0,0,0,0,0,0,0,0,0,0,0,0,0,0,0,0,0,0,0,0,0],"id":50,"left_children":[1,3,5,-1,7,9,11,13,15,17,-1,-1,19,-1,-1,-1,21,-1,-1,-1,23,-1,-1,-1,-1],"loss_changes":[7.318292E-1,1.0029755E0,7.662151E-1,0E0,1.1705301E0,5.658499E-1,5.8177805E-1,5.8707714E-2,8.0148804E-1,1.3670778E-1,0E0,0E0,8.704654E-1,0E0,0E0,0E0,6.0350764E-1,0E0,0E0,0E0,4.5801938E-1,0E0,0E0,0E0,0E0],"parents":[2147483647,0,0,1,1,2,2,4,4,5,5,6,6,7,7,8,8,9,9,12,12,16,16,20,20],"right_children":[2,4,6,-1,8,10,12,14,16,18,-1,-1,20,-1,-1,-1,22,-1,-1,-1,24,-1,-1,-1,-1],"split_conditions":[1.3420397E-1,2.1896076E-1,8.6071596E-2,4.348847E-2,1.1656009E-1,7.4366343E-1,5.87409E-1,6.355792E-2,3.0606985E-1,2.778153E-1,-1.393676E-2,-4.4693604E-2,4.8045278E-1,-1.980015E-2,-7.6538764E-2,4.2122312E-2,1.4793316E-1,1.3144106E-2,6.7623466E-2,6.253604E-2,6.682264E-1,1.1406895E-2,-5.9513237E-2,2.0131279E-2,-4.4419337E-2],"split_indices":[55,17,46,0,52,19,14,52,24,54,0,0,33,0,0,0,49,0,0,0,8,0,0,0,0],"split_type":[0,0,0,0,0,0,0,0,0,0,0,0,0,0,0,0,0,0,0,0,0,0,0,0,0],"sum_hessian":[2.053197E1,1.0170311E1,1.0361657E1,1.2361358E0,8.9341755E0,4.820254E0,5.541404E0,3.8133173E0,5.1208577E0,3.7842488E0,1.0360053E0,1.7350924E0,3.8063111E0,1.1282544E0,2.685063E0,1.8426207E0,3.2782369E0,1.1891512E0,2.5950975E0,1.1230556E0,2.6832557E0,1.8374671E0,1.4407699E0,1.1645895E0,1.518666E0],"tree_param":{"num_deleted":"0","num_feature":"59","num_nodes":"25","size_leaf_vector":"1"}},{"base_weights":[2.8569587E-2,-2.2244284E-1,1.721988E-1,2.0383492E-1,-4.1123524E-1,-4.906854E-2,2.934462E-1,3.992326E-2,-1.2133086E-2,2.3575634E-2,-5.930864E-1,3.8927054E-1,-1.9062972E-2,-7.6155365E-2,-6.234141E-3,1.5621503E-1,7.875298E-2,3.0891446E-2,-3.6407422E-2],"categories":[],"categories_nodes":[],"categories_segments":[],"categories_sizes":[],"default_left":[0,0,0,0,0,0,0,0,0,0,0,0,0,0,0,0,0,0,0],"id":51,"left_children":[1,3,5,7,9,-1,11,-1,-1,-1,13,15,-1,-1,-1,17,-1,-1,-1],"loss_changes":[8.460354E-1,7.751544E-1,1.334624E0,2.5844973E-1,8.792882E-1,0E0,6.841402E-1,0E0,0E0,0E0,4.1661847E-1,9.2626333E-1,0E0,0E0,0E0,7.781678E-1,0E0,0E0,0E0],"parents":[2147483647,0,0,1,1,2,2,3,3,4,4,6,6,10,10,11,11,15,15],"right_children":[2,4,6,8,10,-1,12,-1,-1,-1,14,16,-1,-1,-1,18,-1,-1,-1],"split_conditions":[6.959875E-2,4.145553E-1,2.9805094E-1,4.417088E-1,1.552131E-2,-4.906854E-2,8.9488465E-1,3.992326E-2,-1.2133086E-2,2.3575634E-2,3.821505E-1,6.6981363E-1,-1.9062972E-2,-7.6155365E-2,-6.234141E-3,6.5595126E-1,7.875298E-2,3.0891446E-2,-3.6407422E-2],"split_indices":[43,44,48,33,46,0,16,0,0,0,42,44,0,0,0,53,0,0,0],"split_type":[0,0,0,0,0,0,0,0,0,0,0,0,0,0,0,0,0,0,0],"sum_hessian":[2.1404163E1,7.590303E0,1.3813861E1,2.305345E0,5.284958E0,1.6648439E0,1.2149017E1,1.2977332E0,1.0076119E0,1.0945029E0,4.190455E0,1.0304965E1,1.8440518E0,2.8507147E0,1.3397405E0,7.37908E0,2.9258854E0,6.018869E0,1.3602107E0],"tree_param":{"num_deleted":"0","num_feature":"59","num_nodes":"19","size_leaf_vector":"1"}},{"base_weights":[-8.644924E-3,6.874242E-2,-4.257678E-1,3.164754E-1,-1.0593471E-1,-6.465348E-2,-2.2189086E-3,5.819751E-1,-1.06589146E-1,-2.275031E-1,4.4314306E-2,7.278784E-2,1.0891578E-3,-3.9650712E-2,3.4311157E-2,-4.64326E-1,1.0753821E-1,-6.668681E-2,-7.932297E-3,4.7134183E-2,-2.6236841E-2],"categories":[],"categories_nodes":[],"categories_segments":[],"categories_sizes":[],"default_left":[0,0,0,0,0,0,0,0,0,0,0,0,0,0,0,0,0,0,0,0,0],"id":52,"left_children":[1,3,5,7,9,-1,-1,11,13,15,-1,-1,-1,-1,-1,17,19,-1,-1,-1,-1],"loss_changes":[7.209144E-1,8.5287696E-1,2.967888E-1,9.6967477E-1,8.92059E-1,0E0,0E0,4.1865683E-1,6.524614E-1,8.7240946E-1,0E0,0E0,0E0,0E0,0E0,4.353385E-1,8.106177E-1,0E0,0E0,0E0,0E0],"parents":[2147483647,0,0,1,1,2,2,3,3,4,4,7,7,8,8,9,9,15,15,16,16],"right_children":[2,4,6,8,10,-1,-1,12,14,16,-1,-1,-1,-1,-1,18,20,-1,-1,-1,-1],"split_conditions":[4.4044635E-1,3.7934437E-1,2.5812778E-1,7.0495653E-1,4.0133375E-1,-6.465348E-2,-2.2189086E-3,2.3632921E-1,6.8488E-1,1.4173107E-1,4.4314306E-2,7.278784E-2,1.0891578E-3,-3.9650712E-2,3.4311157E-2,6.8958145E-1,3.249896E-1,-6.668681E-2,-7.932297E-3,4.7134183E-2,-2.6236841E-2],"split_indices":[45,1,25,22,45,0,0,52,8,39,0,0,0,0,0,9,54,0,0,0,0],"split_type":[0,0,0,0,0,0,0,0,0,0,0,0,0,0,0,0,0,0,0,0,0],"sum_hessian":[2.042644E1,1.7934343E1,2.4920967E0,7.08061E0,1.0853733E1,1.2217609E0,1.2703357E0,4.119651E0,2.9609587E0,9.36577E0,1.4879626E0,3.062636E0,1.0570148E0,1.8722334E0,1.0887254E0,5.2611012E0,4.104669E0,2.9677293E0,2.293372E0,1.9311563E0,2.1735132E0],"tree_param":{"num_deleted":"0","num_feature":"59","num_nodes":"21","size_leaf_vector":"1"}},{"base_weights":[1.2471261E-2,6.0851585E-2,-5.3573202E-2,1.3947715E-1,-2.2330095E-1,6.129328E-1,-1.24241635E-1,-5.8545876E-1,5.3882778E-2,7.441975E-2,1.3927211E-2,-5.0302935E-1,2.6207995E-1,-7.430694E-2,-7.980975E-3,-3.8089193E-2,2.1451989E-1,-6.8490185E-2,-3.5362903E-3,-1.2489957E-2,5.8966435E-2,-2.0492636E-2,4.861122E-2],"categories":[],"categories_nodes":[],"categories_segments":[],"categories_sizes":[],"default_left":[0,0,0,0,0,0,0,0,0,0,0,0,0,0,0,0,0,0,0,0,0,0,0],"id":53,"left_children":[1,-1,3,5,7,9,11,13,15,-1,-1,17,19,-1,-1,-1,21,-1,-1,-1,-1,-1,-1],"loss_changes":[8.500879E-1,0E0,6.738246E-1,1.2987908E0,1.1179109E0,1.24635935E-1,1.1738102E0,3.213333E-1,5.7380307E-1,0E0,0E0,3.1071776E-1,6.038799E-1,0E0,0E0,0E0,